<?xml version="1.0"?>
<opencv_storage>
<cascade>
  <stageType>BOOST</stageType>
  <featureType>HAAR</featureType>
  <height>32</height>
  <width>32</width>
  <stageParams>
    <boostType>GAB</boostType>
    <minHitRate>1.</minHitRate>
    <maxFalseAlarm>5.0000000000000000e-01</maxFalseAlarm>
    <weightTrimRate>9.4999998807907104e-01</weightTrimRate>
    <maxDepth>1</maxDepth>
    <maxWeakCount>100</maxWeakCount></stageParams>
  <featureParams>
    <maxCatCount>0</maxCatCount>
    <featSize>1</featSize>
    <mode>BASIC</mode></featureParams>
  <stageNum>10</stageNum>
  <stages>
    <!-- stage 0 -->
    <_>
      <maxWeakCount>7</maxWeakCount>
      <stageThreshold>-1.4633630514144897e+00</stageThreshold>
      <weakClassifiers>
        <_>
          <internalNodes>
            0 -1 118 -7.4788644909858704e-02</internalNodes>
          <leafValues>
            1.0285011529922485e+00 -8.8006448745727539e-01</leafValues></_>
        <_>
          <internalNodes>
            0 -1 150 1.8325651064515114e-02</internalNodes>
          <leafValues>
            -5.1482486724853516e-01 8.7774187326431274e-01</leafValues></_>
        <_>
          <internalNodes>
            0 -1 209 2.6169570628553629e-03</internalNodes>
          <leafValues>
            -3.9918062090873718e-01 5.5232971906661987e-01</leafValues></_>
        <_>
          <internalNodes>
            0 -1 91 1.4450912363827229e-02</internalNodes>
          <leafValues>
            -5.0166910886764526e-01 4.0675222873687744e-01</leafValues></_>
        <_>
          <internalNodes>
            0 -1 61 -1.0328471660614014e-02</internalNodes>
          <leafValues>
            8.7451153993606567e-01 -2.1109315752983093e-01</leafValues></_>
        <_>
          <internalNodes>
            0 -1 222 -7.9799129161983728e-04</internalNodes>
          <leafValues>
            5.0883650779724121e-01 -3.3319967985153198e-01</leafValues></_>
        <_>
          <internalNodes>
            0 -1 143 -4.4612810015678406e-02</internalNodes>
          <leafValues>
            4.6824759244918823e-01 -3.6600431799888611e-01</leafValues></_></weakClassifiers></_>
    <!-- stage 1 -->
    <_>
      <maxWeakCount>10</maxWeakCount>
      <stageThreshold>-1.4826508760452271e+00</stageThreshold>
      <weakClassifiers>
        <_>
          <internalNodes>
            0 -1 110 6.7350596189498901e-02</internalNodes>
          <leafValues>
            -4.6882852911949158e-01 1.0265620946884155e+00</leafValues></_>
        <_>
          <internalNodes>
            0 -1 32 6.5216958522796631e-02</internalNodes>
          <leafValues>
            -3.9302951097488403e-01 8.8839823007583618e-01</leafValues></_>
        <_>
          <internalNodes>
            0 -1 97 1.5678331255912781e-02</internalNodes>
          <leafValues>
            -4.3021866679191589e-01 5.9268802404403687e-01</leafValues></_>
        <_>
          <internalNodes>
            0 -1 4 -5.8779530227184296e-02</internalNodes>
          <leafValues>
            2.6453238725662231e-01 -6.4158242940902710e-01</leafValues></_>
        <_>
          <internalNodes>
            0 -1 237 1.7624922096729279e-02</internalNodes>
          <leafValues>
            -3.3025625348091125e-01 4.9004578590393066e-01</leafValues></_>
        <_>
          <internalNodes>
            0 -1 225 -8.8760440121404827e-05</internalNodes>
          <leafValues>
            3.4144529700279236e-01 -3.0273526906967163e-01</leafValues></_>
        <_>
          <internalNodes>
            0 -1 239 -5.3120944648981094e-03</internalNodes>
          <leafValues>
            6.3192504644393921e-01 -1.8764710426330566e-01</leafValues></_>
        <_>
          <internalNodes>
            0 -1 190 -7.7439629239961505e-04</internalNodes>
          <leafValues>
            2.7626398205757141e-01 -4.0190294384956360e-01</leafValues></_>
        <_>
          <internalNodes>
            0 -1 52 -1.3058248162269592e-01</internalNodes>
          <leafValues>
            -9.4867837429046631e-01 1.4675191044807434e-01</leafValues></_>
        <_>
          <internalNodes>
            0 -1 142 -9.8074432462453842e-03</internalNodes>
          <leafValues>
            5.9527224302291870e-01 -1.9888903200626373e-01</leafValues></_></weakClassifiers></_>
    <!-- stage 2 -->
    <_>
      <maxWeakCount>26</maxWeakCount>
      <stageThreshold>-1.3117761611938477e+00</stageThreshold>
      <weakClassifiers>
        <_>
          <internalNodes>
            0 -1 83 2.7807574719190598e-02</internalNodes>
          <leafValues>
            -3.6644375324249268e-01 6.8346947431564331e-01</leafValues></_>
        <_>
          <internalNodes>
            0 -1 60 6.6247820854187012e-02</internalNodes>
          <leafValues>
            -4.9199405312538147e-01 3.1199172139167786e-01</leafValues></_>
        <_>
          <internalNodes>
            0 -1 170 1.0591313242912292e-02</internalNodes>
          <leafValues>
            -3.4639969468116760e-01 3.4068194031715393e-01</leafValues></_>
        <_>
          <internalNodes>
            0 -1 151 -7.0445761084556580e-02</internalNodes>
          <leafValues>
            3.1531319022178650e-01 -3.4597036242485046e-01</leafValues></_>
        <_>
          <internalNodes>
            0 -1 6 6.1814688146114349e-02</internalNodes>
          <leafValues>
            -1.8231190741062164e-01 5.0993227958679199e-01</leafValues></_>
        <_>
          <internalNodes>
            0 -1 216 1.8972684629261494e-03</internalNodes>
          <leafValues>
            -3.6923792958259583e-01 2.3471322655677795e-01</leafValues></_>
        <_>
          <internalNodes>
            0 -1 236 -2.6833936572074890e-03</internalNodes>
          <leafValues>
            3.8296744227409363e-01 -1.8876317143440247e-01</leafValues></_>
        <_>
          <internalNodes>
            0 -1 22 7.8237836714833975e-04</internalNodes>
          <leafValues>
            -9.3285061419010162e-02 7.7612918615341187e-01</leafValues></_>
        <_>
          <internalNodes>
            0 -1 34 7.8609958291053772e-02</internalNodes>
          <leafValues>
            -1.3300871849060059e-01 8.6326986551284790e-01</leafValues></_>
        <_>
          <internalNodes>
            0 -1 42 9.0978071093559265e-03</internalNodes>
          <leafValues>
            -1.0939581692218781e-01 7.7846509218215942e-01</leafValues></_>
        <_>
          <internalNodes>
            0 -1 211 -5.1346735563129187e-04</internalNodes>
          <leafValues>
            4.0113922953605652e-01 -1.6966409981250763e-01</leafValues></_>
        <_>
          <internalNodes>
            0 -1 53 2.8886208310723305e-03</internalNodes>
          <leafValues>
            -1.7777785658836365e-01 3.8829028606414795e-01</leafValues></_>
        <_>
          <internalNodes>
            0 -1 230 -4.5489249750971794e-03</internalNodes>
          <leafValues>
            4.5345690846443176e-01 -1.3647623360157013e-01</leafValues></_>
        <_>
          <internalNodes>
            0 -1 63 7.9808244481682777e-04</internalNodes>
          <leafValues>
            -2.1876707673072815e-01 2.9190444946289063e-01</leafValues></_>
        <_>
          <internalNodes>
            0 -1 111 6.7957945168018341e-02</internalNodes>
          <leafValues>
            -7.5339399278163910e-02 1.0505689382553101e+00</leafValues></_>
        <_>
          <internalNodes>
            0 -1 86 -7.5957160443067551e-03</internalNodes>
          <leafValues>
            2.3860305547714233e-01 -2.6853671669960022e-01</leafValues></_>
        <_>
          <internalNodes>
            0 -1 20 3.6307025584392250e-04</internalNodes>
          <leafValues>
            -1.3896602392196655e-01 5.0528270006179810e-01</leafValues></_>
        <_>
          <internalNodes>
            0 -1 163 -7.3937913402915001e-03</internalNodes>
          <leafValues>
            2.9509520530700684e-01 -2.2628037631511688e-01</leafValues></_>
        <_>
          <internalNodes>
            0 -1 134 2.0126751065254211e-01</internalNodes>
          <leafValues>
            -8.4052667021751404e-02 8.8546878099441528e-01</leafValues></_>
        <_>
          <internalNodes>
            0 -1 56 3.2076472043991089e-01</internalNodes>
          <leafValues>
            -1.2020869553089142e-01 6.8719589710235596e-01</leafValues></_>
        <_>
          <internalNodes>
            0 -1 36 1.4210831432137638e-04</internalNodes>
          <leafValues>
            -1.6839171946048737e-01 4.5170047879219055e-01</leafValues></_>
        <_>
          <internalNodes>
            0 -1 210 -8.2906964235007763e-04</internalNodes>
          <leafValues>
            3.2225403189659119e-01 -2.4942290782928467e-01</leafValues></_>
        <_>
          <internalNodes>
            0 -1 218 1.0930385906249285e-03</internalNodes>
          <leafValues>
            -1.5123830735683441e-01 5.0339806079864502e-01</leafValues></_>
        <_>
          <internalNodes>
            0 -1 13 7.1170930750668049e-03</internalNodes>
          <leafValues>
            1.3567183911800385e-01 -5.3669291734695435e-01</leafValues></_>
        <_>
          <internalNodes>
            0 -1 33 -3.8577631115913391e-02</internalNodes>
          <leafValues>
            6.5986925363540649e-01 -1.2057475000619888e-01</leafValues></_>
        <_>
          <internalNodes>
            0 -1 193 -3.0951650114730000e-04</internalNodes>
          <leafValues>
            2.5572469830513000e-01 -2.9658421874046326e-01</leafValues></_></weakClassifiers></_>
    <!-- stage 3 -->
    <_>
      <maxWeakCount>28</maxWeakCount>
      <stageThreshold>-1.3461486101150513e+00</stageThreshold>
      <weakClassifiers>
        <_>
          <internalNodes>
            0 -1 131 -1.0215135663747787e-01</internalNodes>
          <leafValues>
            6.6780644655227661e-01 -6.0766828060150146e-01</leafValues></_>
        <_>
          <internalNodes>
            0 -1 106 8.0757483839988708e-02</internalNodes>
          <leafValues>
            -3.3378151059150696e-01 5.6160461902618408e-01</leafValues></_>
        <_>
          <internalNodes>
            0 -1 43 -2.2844895720481873e-02</internalNodes>
          <leafValues>
            3.6006173491477966e-01 -3.4050410985946655e-01</leafValues></_>
        <_>
          <internalNodes>
            0 -1 112 4.6197618357837200e-03</internalNodes>
          <leafValues>
            -4.3977618217468262e-01 2.3796714842319489e-01</leafValues></_>
        <_>
          <internalNodes>
            0 -1 197 3.2832734286785126e-03</internalNodes>
          <leafValues>
            -3.4455719590187073e-01 2.7199000120162964e-01</leafValues></_>
        <_>
          <internalNodes>
            0 -1 92 6.7768860608339310e-03</internalNodes>
          <leafValues>
            -2.7555030584335327e-01 2.9506978392601013e-01</leafValues></_>
        <_>
          <internalNodes>
            0 -1 62 7.6111289672553539e-03</internalNodes>
          <leafValues>
            -1.6200172901153564e-01 5.6102651357650757e-01</leafValues></_>
        <_>
          <internalNodes>
            0 -1 64 -3.5536927171051502e-03</internalNodes>
          <leafValues>
            4.5585963129997253e-01 -1.8878144025802612e-01</leafValues></_>
        <_>
          <internalNodes>
            0 -1 159 -3.4958954900503159e-02</internalNodes>
          <leafValues>
            3.8861539959907532e-01 -2.1028614044189453e-01</leafValues></_>
        <_>
          <internalNodes>
            0 -1 21 4.2273864150047302e-02</internalNodes>
          <leafValues>
            -1.9093997776508331e-01 3.9775437116622925e-01</leafValues></_>
        <_>
          <internalNodes>
            0 -1 84 8.1850647926330566e-02</internalNodes>
          <leafValues>
            -3.0958583950996399e-01 2.4301755428314209e-01</leafValues></_>
        <_>
          <internalNodes>
            0 -1 140 -9.6229389309883118e-03</internalNodes>
          <leafValues>
            9.2502367496490479e-01 -1.1127962917089462e-01</leafValues></_>
        <_>
          <internalNodes>
            0 -1 200 -1.2444995343685150e-02</internalNodes>
          <leafValues>
            2.7238136529922485e-01 -2.6500126719474792e-01</leafValues></_>
        <_>
          <internalNodes>
            0 -1 178 -7.4957524702767842e-06</internalNodes>
          <leafValues>
            1.8049630522727966e-01 -3.5093891620635986e-01</leafValues></_>
        <_>
          <internalNodes>
            0 -1 9 -1.8605444580316544e-02</internalNodes>
          <leafValues>
            -6.5058416128158569e-01 1.1113742738962173e-01</leafValues></_>
        <_>
          <internalNodes>
            0 -1 59 -1.4801450073719025e-02</internalNodes>
          <leafValues>
            2.5656905770301819e-01 -2.5632572174072266e-01</leafValues></_>
        <_>
          <internalNodes>
            0 -1 175 6.3023704569786787e-04</internalNodes>
          <leafValues>
            9.1168709099292755e-02 -8.4102141857147217e-01</leafValues></_>
        <_>
          <internalNodes>
            0 -1 35 -7.0142922922968864e-03</internalNodes>
          <leafValues>
            5.6727707386016846e-01 -1.0758612304925919e-01</leafValues></_>
        <_>
          <internalNodes>
            0 -1 252 5.3820451721549034e-03</internalNodes>
          <leafValues>
            -1.2083245068788528e-01 5.4312127828598022e-01</leafValues></_>
        <_>
          <internalNodes>
            0 -1 146 2.0880281925201416e-02</internalNodes>
          <leafValues>
            -1.2712480127811432e-01 4.7686159610748291e-01</leafValues></_>
        <_>
          <internalNodes>
            0 -1 174 7.3685161769390106e-03</internalNodes>
          <leafValues>
            6.0860745608806610e-02 -1.7815265655517578e+00</leafValues></_>
        <_>
          <internalNodes>
            0 -1 107 1.2252651504240930e-04</internalNodes>
          <leafValues>
            -3.0640530586242676e-01 2.0326182246208191e-01</leafValues></_>
        <_>
          <internalNodes>
            0 -1 154 -2.4523597676306963e-04</internalNodes>
          <leafValues>
            -3.6658155918121338e-01 1.7446388304233551e-01</leafValues></_>
        <_>
          <internalNodes>
            0 -1 241 -3.2160754199139774e-04</internalNodes>
          <leafValues>
            2.7235436439514160e-01 -2.1205769479274750e-01</leafValues></_>
        <_>
          <internalNodes>
            0 -1 238 9.4174100086092949e-03</internalNodes>
          <leafValues>
            -1.3199105858802795e-01 5.1976996660232544e-01</leafValues></_>
        <_>
          <internalNodes>
            0 -1 187 3.3305259421467781e-04</internalNodes>
          <leafValues>
            1.2745383381843567e-01 -5.1501667499542236e-01</leafValues></_>
        <_>
          <internalNodes>
            0 -1 69 -2.5723176077008247e-03</internalNodes>
          <leafValues>
            3.4718948602676392e-01 -1.8201652169227600e-01</leafValues></_>
        <_>
          <internalNodes>
            0 -1 247 -7.7166939154267311e-03</internalNodes>
          <leafValues>
            4.2462283372879028e-01 -1.4302219450473785e-01</leafValues></_></weakClassifiers></_>
    <!-- stage 4 -->
    <_>
      <maxWeakCount>29</maxWeakCount>
      <stageThreshold>-1.0799018144607544e+00</stageThreshold>
      <weakClassifiers>
        <_>
          <internalNodes>
            0 -1 128 1.2486416101455688e-01</internalNodes>
          <leafValues>
            -9.4839200377464294e-02 1.0082508325576782e+00</leafValues></_>
        <_>
          <internalNodes>
            0 -1 73 5.9306945651769638e-02</internalNodes>
          <leafValues>
            -5.3342831134796143e-01 2.8284645080566406e-01</leafValues></_>
        <_>
          <internalNodes>
            0 -1 103 -6.6268038935959339e-03</internalNodes>
          <leafValues>
            2.3198258876800537e-01 -4.8186200857162476e-01</leafValues></_>
        <_>
          <internalNodes>
            0 -1 248 6.7123705521225929e-03</internalNodes>
          <leafValues>
            -2.5438347458839417e-01 4.0089040994644165e-01</leafValues></_>
        <_>
          <internalNodes>
            0 -1 30 -3.9587028324604034e-02</internalNodes>
          <leafValues>
            1.5869465470314026e-01 -5.5253607034683228e-01</leafValues></_>
        <_>
          <internalNodes>
            0 -1 96 -3.3503167331218719e-02</internalNodes>
          <leafValues>
            3.0286225676536560e-01 -3.0542352795600891e-01</leafValues></_>
        <_>
          <internalNodes>
            0 -1 41 3.5421587526798248e-02</internalNodes>
          <leafValues>
            -1.3489571213722229e-01 5.7286942005157471e-01</leafValues></_>
        <_>
          <internalNodes>
            0 -1 168 5.4088933393359184e-04</internalNodes>
          <leafValues>
            1.0835596174001694e-01 -6.6951632499694824e-01</leafValues></_>
        <_>
          <internalNodes>
            0 -1 88 -1.9361911341547966e-02</internalNodes>
          <leafValues>
            4.2724344134330750e-01 -1.6570362448692322e-01</leafValues></_>
        <_>
          <internalNodes>
            0 -1 259 -6.9236021954566240e-04</internalNodes>
          <leafValues>
            4.0712955594062805e-01 -1.5894855558872223e-01</leafValues></_>
        <_>
          <internalNodes>
            0 -1 76 -4.9861501902341843e-02</internalNodes>
          <leafValues>
            2.5881695747375488e-01 -2.5981929898262024e-01</leafValues></_>
        <_>
          <internalNodes>
            0 -1 85 -1.4526151120662689e-02</internalNodes>
          <leafValues>
            7.8629535436630249e-01 -1.1075277626514435e-01</leafValues></_>
        <_>
          <internalNodes>
            0 -1 250 -1.0871868580579758e-03</internalNodes>
          <leafValues>
            3.4301927685737610e-01 -1.8375684320926666e-01</leafValues></_>
        <_>
          <internalNodes>
            0 -1 251 -6.8849399685859680e-03</internalNodes>
          <leafValues>
            5.5469202995300293e-01 -1.3240873813629150e-01</leafValues></_>
        <_>
          <internalNodes>
            0 -1 223 -3.8104718551039696e-03</internalNodes>
          <leafValues>
            3.0642366409301758e-01 -2.4088948965072632e-01</leafValues></_>
        <_>
          <internalNodes>
            0 -1 145 2.8612272581085563e-04</internalNodes>
          <leafValues>
            1.5732714533805847e-01 -3.9376038312911987e-01</leafValues></_>
        <_>
          <internalNodes>
            0 -1 235 1.0280752554535866e-02</internalNodes>
          <leafValues>
            1.0978712886571884e-01 -6.2846654653549194e-01</leafValues></_>
        <_>
          <internalNodes>
            0 -1 37 4.4990302994847298e-03</internalNodes>
          <leafValues>
            -8.5089422762393951e-02 7.6863461732864380e-01</leafValues></_>
        <_>
          <internalNodes>
            0 -1 99 7.0469200611114502e-02</internalNodes>
          <leafValues>
            -1.1925621330738068e-01 5.9360891580581665e-01</leafValues></_>
        <_>
          <internalNodes>
            0 -1 152 5.6130653247237206e-03</internalNodes>
          <leafValues>
            -1.4718325436115265e-01 4.7729834914207458e-01</leafValues></_>
        <_>
          <internalNodes>
            0 -1 194 -3.6029592592967674e-05</internalNodes>
          <leafValues>
            1.8397293984889984e-01 -3.2544866204261780e-01</leafValues></_>
        <_>
          <internalNodes>
            0 -1 160 -4.6342873247340322e-04</internalNodes>
          <leafValues>
            -3.6624777317047119e-01 1.6299319267272949e-01</leafValues></_>
        <_>
          <internalNodes>
            0 -1 172 1.0529351420700550e-03</internalNodes>
          <leafValues>
            6.6041231155395508e-02 -1.1957725286483765e+00</leafValues></_>
        <_>
          <internalNodes>
            0 -1 260 -1.5499055734835565e-04</internalNodes>
          <leafValues>
            3.7029805779457092e-01 -1.6758212447166443e-01</leafValues></_>
        <_>
          <internalNodes>
            0 -1 11 -1.1652698740363121e-02</internalNodes>
          <leafValues>
            3.9433068037033081e-01 -1.4401394128799438e-01</leafValues></_>
        <_>
          <internalNodes>
            0 -1 80 -3.1528316903859377e-03</internalNodes>
          <leafValues>
            3.0149006843566895e-01 -1.7884100973606110e-01</leafValues></_>
        <_>
          <internalNodes>
            0 -1 221 8.2828151062130928e-03</internalNodes>
          <leafValues>
            -2.4745959043502808e-01 2.3532201349735260e-01</leafValues></_>
        <_>
          <internalNodes>
            0 -1 207 1.2427205219864845e-02</internalNodes>
          <leafValues>
            -8.0876953899860382e-02 7.9978752136230469e-01</leafValues></_>
        <_>
          <internalNodes>
            0 -1 233 -5.9381115715950727e-04</internalNodes>
          <leafValues>
            3.3019226789474487e-01 -1.5298183262348175e-01</leafValues></_></weakClassifiers></_>
    <!-- stage 5 -->
    <_>
      <maxWeakCount>33</maxWeakCount>
      <stageThreshold>-1.1973140239715576e+00</stageThreshold>
      <weakClassifiers>
        <_>
          <internalNodes>
            0 -1 38 3.5717956721782684e-02</internalNodes>
          <leafValues>
            -6.4416438341140747e-02 9.0726232528686523e-01</leafValues></_>
        <_>
          <internalNodes>
            0 -1 102 -3.1305342912673950e-02</internalNodes>
          <leafValues>
            2.2369962930679321e-01 -6.0473197698593140e-01</leafValues></_>
        <_>
          <internalNodes>
            0 -1 224 1.4736298471689224e-02</internalNodes>
          <leafValues>
            -1.7782282829284668e-01 5.8681279420852661e-01</leafValues></_>
        <_>
          <internalNodes>
            0 -1 17 1.2397044338285923e-03</internalNodes>
          <leafValues>
            -2.2510746121406555e-01 3.9895153045654297e-01</leafValues></_>
        <_>
          <internalNodes>
            0 -1 93 1.5448145568370819e-02</internalNodes>
          <leafValues>
            -3.3233594894409180e-01 2.2271731495857239e-01</leafValues></_>
        <_>
          <internalNodes>
            0 -1 180 -1.4723818749189377e-02</internalNodes>
          <leafValues>
            3.3761426806449890e-01 -2.1319952607154846e-01</leafValues></_>
        <_>
          <internalNodes>
            0 -1 1 -1.4730866998434067e-02</internalNodes>
          <leafValues>
            -8.1470435857772827e-01 9.1873086988925934e-02</leafValues></_>
        <_>
          <internalNodes>
            0 -1 101 -8.0165222287178040e-02</internalNodes>
          <leafValues>
            3.7355309724807739e-01 -1.7221811413764954e-01</leafValues></_>
        <_>
          <internalNodes>
            0 -1 108 -3.6626540124416351e-02</internalNodes>
          <leafValues>
            5.0309759378433228e-01 -1.5580451488494873e-01</leafValues></_>
        <_>
          <internalNodes>
            0 -1 182 8.7550067109987140e-04</internalNodes>
          <leafValues>
            1.2704637646675110e-01 -5.2199357748031616e-01</leafValues></_>
        <_>
          <internalNodes>
            0 -1 51 1.8106056377291679e-03</internalNodes>
          <leafValues>
            -1.2377928197383881e-01 5.1202636957168579e-01</leafValues></_>
        <_>
          <internalNodes>
            0 -1 70 -6.0407491400837898e-03</internalNodes>
          <leafValues>
            5.2575868368148804e-01 -1.1958678811788559e-01</leafValues></_>
        <_>
          <internalNodes>
            0 -1 50 -9.8759983666241169e-04</internalNodes>
          <leafValues>
            3.3994337916374207e-01 -1.8039272725582123e-01</leafValues></_>
        <_>
          <internalNodes>
            0 -1 244 -5.2215680480003357e-03</internalNodes>
          <leafValues>
            4.1179525852203369e-01 -1.5120224654674530e-01</leafValues></_>
        <_>
          <internalNodes>
            0 -1 164 -2.0972694983356632e-05</internalNodes>
          <leafValues>
            1.9993910193443298e-01 -2.9769876599311829e-01</leafValues></_>
        <_>
          <internalNodes>
            0 -1 205 -6.2796636484563351e-05</internalNodes>
          <leafValues>
            1.9046954810619354e-01 -2.9279634356498718e-01</leafValues></_>
        <_>
          <internalNodes>
            0 -1 208 -2.8100502095185220e-04</internalNodes>
          <leafValues>
            2.2676591575145721e-01 -2.5140291452407837e-01</leafValues></_>
        <_>
          <internalNodes>
            0 -1 155 -3.1313451472669840e-04</internalNodes>
          <leafValues>
            -9.0050518512725830e-01 8.1836462020874023e-02</leafValues></_>
        <_>
          <internalNodes>
            0 -1 176 1.9933755975216627e-03</internalNodes>
          <leafValues>
            5.9069182723760605e-02 -1.2716226577758789e+00</leafValues></_>
        <_>
          <internalNodes>
            0 -1 49 1.5479754656553268e-03</internalNodes>
          <leafValues>
            -1.9461168348789215e-01 2.7566918730735779e-01</leafValues></_>
        <_>
          <internalNodes>
            0 -1 129 -1.0379173792898655e-02</internalNodes>
          <leafValues>
            4.5230507850646973e-01 -1.4915484189987183e-01</leafValues></_>
        <_>
          <internalNodes>
            0 -1 206 -7.3629298640298657e-06</internalNodes>
          <leafValues>
            2.1438258886337280e-01 -2.9282850027084351e-01</leafValues></_>
        <_>
          <internalNodes>
            0 -1 186 -8.3917184383608401e-06</internalNodes>
          <leafValues>
            1.7496085166931152e-01 -3.1089872121810913e-01</leafValues></_>
        <_>
          <internalNodes>
            0 -1 120 -4.2294492013752460e-03</internalNodes>
          <leafValues>
            2.5339540839195251e-01 -2.2044679522514343e-01</leafValues></_>
        <_>
          <internalNodes>
            0 -1 133 3.7445041816681623e-03</internalNodes>
          <leafValues>
            -1.0286665707826614e-01 5.5867880582809448e-01</leafValues></_>
        <_>
          <internalNodes>
            0 -1 109 6.7491846857592463e-04</internalNodes>
          <leafValues>
            1.9161993265151978e-01 -2.8617188334465027e-01</leafValues></_>
        <_>
          <internalNodes>
            0 -1 191 2.8152929735369980e-04</internalNodes>
          <leafValues>
            1.5679608285427094e-01 -3.4206724166870117e-01</leafValues></_>
        <_>
          <internalNodes>
            0 -1 254 -1.1595337418839335e-03</internalNodes>
          <leafValues>
            4.3261522054672241e-01 -1.2605985999107361e-01</leafValues></_>
        <_>
          <internalNodes>
            0 -1 71 6.3755456358194351e-04</internalNodes>
          <leafValues>
            -1.2674701213836670e-01 4.7153648734092712e-01</leafValues></_>
        <_>
          <internalNodes>
            0 -1 58 2.0647137425839901e-03</internalNodes>
          <leafValues>
            -2.2756709158420563e-01 2.2771078348159790e-01</leafValues></_>
        <_>
          <internalNodes>
            0 -1 249 -4.2932329233735800e-04</internalNodes>
          <leafValues>
            2.9663529992103577e-01 -1.9673052430152893e-01</leafValues></_>
        <_>
          <internalNodes>
            0 -1 89 -5.1131553947925568e-02</internalNodes>
          <leafValues>
            -8.3745795488357544e-01 8.6763501167297363e-02</leafValues></_>
        <_>
          <internalNodes>
            0 -1 144 9.0599403483793139e-04</internalNodes>
          <leafValues>
            1.0586801916360855e-01 -6.0894191265106201e-01</leafValues></_></weakClassifiers></_>
    <!-- stage 6 -->
    <_>
      <maxWeakCount>35</maxWeakCount>
      <stageThreshold>-1.0646331310272217e+00</stageThreshold>
      <weakClassifiers>
        <_>
          <internalNodes>
            0 -1 121 5.9067856520414352e-02</internalNodes>
          <leafValues>
            -8.0803677439689636e-02 8.3870232105255127e-01</leafValues></_>
        <_>
          <internalNodes>
            0 -1 117 -4.2349699884653091e-02</internalNodes>
          <leafValues>
            2.5458925962448120e-01 -5.4916411638259888e-01</leafValues></_>
        <_>
          <internalNodes>
            0 -1 81 -1.0569460690021515e-02</internalNodes>
          <leafValues>
            2.7717587351799011e-01 -3.8507428765296936e-01</leafValues></_>
        <_>
          <internalNodes>
            0 -1 0 -5.7957903482019901e-04</internalNodes>
          <leafValues>
            -4.2319014668464661e-01 1.9902777671813965e-01</leafValues></_>
        <_>
          <internalNodes>
            0 -1 100 2.8069689869880676e-02</internalNodes>
          <leafValues>
            -2.4627658724784851e-01 3.0224761366844177e-01</leafValues></_>
        <_>
          <internalNodes>
            0 -1 213 -3.1258007511496544e-03</internalNodes>
          <leafValues>
            1.6279059648513794e-01 -3.5927978157997131e-01</leafValues></_>
        <_>
          <internalNodes>
            0 -1 90 5.2393726073205471e-03</internalNodes>
          <leafValues>
            -1.8511378765106201e-01 3.3357906341552734e-01</leafValues></_>
        <_>
          <internalNodes>
            0 -1 192 6.4189638942480087e-04</internalNodes>
          <leafValues>
            1.3396795094013214e-01 -4.6948468685150146e-01</leafValues></_>
        <_>
          <internalNodes>
            0 -1 66 -2.4857986718416214e-03</internalNodes>
          <leafValues>
            6.9428378343582153e-01 -1.0004142671823502e-01</leafValues></_>
        <_>
          <internalNodes>
            0 -1 3 -8.1923035904765129e-03</internalNodes>
          <leafValues>
            2.3119799792766571e-01 -2.9145362973213196e-01</leafValues></_>
        <_>
          <internalNodes>
            0 -1 26 -2.6709469966590405e-04</internalNodes>
          <leafValues>
            -3.5675975680351257e-01 1.8695984780788422e-01</leafValues></_>
        <_>
          <internalNodes>
            0 -1 167 2.2890171385370195e-04</internalNodes>
          <leafValues>
            8.6090445518493652e-02 -6.8321943283081055e-01</leafValues></_>
        <_>
          <internalNodes>
            0 -1 219 -5.7875399943441153e-04</internalNodes>
          <leafValues>
            2.0244443416595459e-01 -2.7317643165588379e-01</leafValues></_>
        <_>
          <internalNodes>
            0 -1 179 -2.5720251724123955e-03</internalNodes>
          <leafValues>
            2.7155795693397522e-01 -2.0674137771129608e-01</leafValues></_>
        <_>
          <internalNodes>
            0 -1 195 -4.9141654744744301e-03</internalNodes>
          <leafValues>
            -5.1824200153350830e-01 1.1921955645084381e-01</leafValues></_>
        <_>
          <internalNodes>
            0 -1 116 -2.8453897684812546e-02</internalNodes>
          <leafValues>
            -4.8664957284927368e-01 1.1879056692123413e-01</leafValues></_>
        <_>
          <internalNodes>
            0 -1 27 1.3390600215643644e-03</internalNodes>
          <leafValues>
            1.7590577900409698e-01 -3.1996795535087585e-01</leafValues></_>
        <_>
          <internalNodes>
            0 -1 115 -8.5749570280313492e-03</internalNodes>
          <leafValues>
            5.2001488208770752e-01 -1.1640518158674240e-01</leafValues></_>
        <_>
          <internalNodes>
            0 -1 177 -3.0238887295126915e-02</internalNodes>
          <leafValues>
            1.7990969121456146e-01 -3.4192144870758057e-01</leafValues></_>
        <_>
          <internalNodes>
            0 -1 67 2.3552593775093555e-03</internalNodes>
          <leafValues>
            -1.2678132951259613e-01 4.5071855187416077e-01</leafValues></_>
        <_>
          <internalNodes>
            0 -1 68 -2.1218629553914070e-03</internalNodes>
          <leafValues>
            4.9876806139945984e-01 -1.1314749717712402e-01</leafValues></_>
        <_>
          <internalNodes>
            0 -1 123 1.7226018244400620e-03</internalNodes>
          <leafValues>
            7.6881319284439087e-02 -8.4121847152709961e-01</leafValues></_>
        <_>
          <internalNodes>
            0 -1 122 -3.1373160891234875e-04</internalNodes>
          <leafValues>
            -3.8890266418457031e-01 1.5490520000457764e-01</leafValues></_>
        <_>
          <internalNodes>
            0 -1 255 4.5780465006828308e-03</internalNodes>
          <leafValues>
            -7.8682765364646912e-02 7.0436978340148926e-01</leafValues></_>
        <_>
          <internalNodes>
            0 -1 72 1.7192148370668292e-03</internalNodes>
          <leafValues>
            -1.1299813538789749e-01 4.9663329124450684e-01</leafValues></_>
        <_>
          <internalNodes>
            0 -1 220 2.9266031458973885e-02</internalNodes>
          <leafValues>
            -9.1516539454460144e-02 5.9317183494567871e-01</leafValues></_>
        <_>
          <internalNodes>
            0 -1 158 -4.3177157640457153e-02</internalNodes>
          <leafValues>
            3.1443387269973755e-01 -1.9000016152858734e-01</leafValues></_>
        <_>
          <internalNodes>
            0 -1 183 1.2597277527675033e-03</internalNodes>
          <leafValues>
            1.3391837477684021e-01 -4.1370469331741333e-01</leafValues></_>
        <_>
          <internalNodes>
            0 -1 125 -4.7699664719402790e-04</internalNodes>
          <leafValues>
            -6.3239252567291260e-01 8.8549375534057617e-02</leafValues></_>
        <_>
          <internalNodes>
            0 -1 203 -3.7933321436867118e-04</internalNodes>
          <leafValues>
            1.5783503651618958e-01 -3.3390235900878906e-01</leafValues></_>
        <_>
          <internalNodes>
            0 -1 162 -6.8532682955265045e-02</internalNodes>
          <leafValues>
            -6.8998777866363525e-01 9.7164258360862732e-02</leafValues></_>
        <_>
          <internalNodes>
            0 -1 126 -1.6033467836678028e-03</internalNodes>
          <leafValues>
            2.8245389461517334e-01 -1.8499231338500977e-01</leafValues></_>
        <_>
          <internalNodes>
            0 -1 7 -4.0472114086151123e-01</internalNodes>
          <leafValues>
            -5.5871433019638062e-01 9.4052240252494812e-02</leafValues></_>
        <_>
          <internalNodes>
            0 -1 14 -1.8642183393239975e-02</internalNodes>
          <leafValues>
            3.4041282534599304e-01 -1.6091255843639374e-01</leafValues></_>
        <_>
          <internalNodes>
            0 -1 94 -6.7124769091606140e-02</internalNodes>
          <leafValues>
            9.2657923698425293e-01 -6.9987617433071136e-02</leafValues></_></weakClassifiers></_>
    <!-- stage 7 -->
    <_>
      <maxWeakCount>27</maxWeakCount>
      <stageThreshold>-1.1977556943893433e+00</stageThreshold>
      <weakClassifiers>
        <_>
          <internalNodes>
            0 -1 8 1.3108140230178833e-01</internalNodes>
          <leafValues>
            -7.9947263002395630e-02 1.0337586402893066e+00</leafValues></_>
        <_>
          <internalNodes>
            0 -1 29 3.1309548765420914e-02</internalNodes>
          <leafValues>
            -4.0165892243385315e-01 2.9588046669960022e-01</leafValues></_>
        <_>
          <internalNodes>
            0 -1 45 -8.1026986241340637e-02</internalNodes>
          <leafValues>
            4.0258863568305969e-01 -3.2369497418403625e-01</leafValues></_>
        <_>
          <internalNodes>
            0 -1 147 -2.9453025199472904e-03</internalNodes>
          <leafValues>
            -8.0767083168029785e-01 9.3981832265853882e-02</leafValues></_>
        <_>
          <internalNodes>
            0 -1 16 -2.8188782744109631e-04</internalNodes>
          <leafValues>
            -3.8712534308433533e-01 2.6674649119377136e-01</leafValues></_>
        <_>
          <internalNodes>
            0 -1 225 -3.7288056773832068e-05</internalNodes>
          <leafValues>
            2.3063614964485168e-01 -3.7672251462936401e-01</leafValues></_>
        <_>
          <internalNodes>
            0 -1 234 -1.2258399277925491e-02</internalNodes>
          <leafValues>
            5.1500302553176880e-01 -1.7991150915622711e-01</leafValues></_>
        <_>
          <internalNodes>
            0 -1 156 2.4391210172325373e-04</internalNodes>
          <leafValues>
            1.6294918954372406e-01 -4.8200795054435730e-01</leafValues></_>
        <_>
          <internalNodes>
            0 -1 201 -8.0666225403547287e-03</internalNodes>
          <leafValues>
            4.8800274729728699e-01 -1.5140250325202942e-01</leafValues></_>
        <_>
          <internalNodes>
            0 -1 204 6.5112201264128089e-04</internalNodes>
          <leafValues>
            1.5509870648384094e-01 -4.6559688448905945e-01</leafValues></_>
        <_>
          <internalNodes>
            0 -1 44 -1.0840117931365967e-01</internalNodes>
          <leafValues>
            5.2044206857681274e-01 -1.3633941113948822e-01</leafValues></_>
        <_>
          <internalNodes>
            0 -1 257 -1.9021951593458652e-03</internalNodes>
          <leafValues>
            4.2983710765838623e-01 -1.7496459186077118e-01</leafValues></_>
        <_>
          <internalNodes>
            0 -1 214 -5.2253904868848622e-05</internalNodes>
          <leafValues>
            2.1599888801574707e-01 -3.1135848164558411e-01</leafValues></_>
        <_>
          <internalNodes>
            0 -1 227 -2.9865052551031113e-02</internalNodes>
          <leafValues>
            -7.2838950157165527e-01 1.0585760325193405e-01</leafValues></_>
        <_>
          <internalNodes>
            0 -1 184 -7.3899095878005028e-03</internalNodes>
          <leafValues>
            1.6057188808917999e-01 -4.2686659097671509e-01</leafValues></_>
        <_>
          <internalNodes>
            0 -1 137 -1.6791314119473100e-03</internalNodes>
          <leafValues>
            -5.3940784931182861e-01 1.2244889885187149e-01</leafValues></_>
        <_>
          <internalNodes>
            0 -1 24 7.2453167376806960e-06</internalNodes>
          <leafValues>
            -2.4854078888893127e-01 2.6675415039062500e-01</leafValues></_>
        <_>
          <internalNodes>
            0 -1 127 -3.1836517155170441e-04</internalNodes>
          <leafValues>
            -4.2668026685714722e-01 1.5238566696643829e-01</leafValues></_>
        <_>
          <internalNodes>
            0 -1 39 1.1015949398279190e-01</internalNodes>
          <leafValues>
            -2.5488668680191040e-01 2.7122712135314941e-01</leafValues></_>
        <_>
          <internalNodes>
            0 -1 78 -1.5835565282031894e-03</internalNodes>
          <leafValues>
            4.5348966121673584e-01 -1.5449823439121246e-01</leafValues></_>
        <_>
          <internalNodes>
            0 -1 77 1.6977021005004644e-03</internalNodes>
          <leafValues>
            -1.1921525001525879e-01 5.7022321224212646e-01</leafValues></_>
        <_>
          <internalNodes>
            0 -1 256 6.0063914861530066e-04</internalNodes>
          <leafValues>
            -1.3619354367256165e-01 4.7312492132186890e-01</leafValues></_>
        <_>
          <internalNodes>
            0 -1 166 5.4753422737121582e-02</internalNodes>
          <leafValues>
            -1.0356840491294861e-01 6.6405457258224487e-01</leafValues></_>
        <_>
          <internalNodes>
            0 -1 105 8.0990645801648498e-04</internalNodes>
          <leafValues>
            1.8636880815029144e-01 -3.5586631298065186e-01</leafValues></_>
        <_>
          <internalNodes>
            0 -1 57 -4.6904377639293671e-02</internalNodes>
          <leafValues>
            1.3514931201934814e+00 -7.5665161013603210e-02</leafValues></_>
        <_>
          <internalNodes>
            0 -1 136 4.0432903915643692e-05</internalNodes>
          <leafValues>
            -3.3626875281333923e-01 2.0291620492935181e-01</leafValues></_>
        <_>
          <internalNodes>
            0 -1 256 -1.0222939308732748e-03</internalNodes>
          <leafValues>
            5.6260001659393311e-01 -1.3463099300861359e-01</leafValues></_></weakClassifiers></_>
    <!-- stage 8 -->
    <_>
      <maxWeakCount>32</maxWeakCount>
      <stageThreshold>-1.3706331253051758e+00</stageThreshold>
      <weakClassifiers>
        <_>
          <internalNodes>
            0 -1 113 6.0511358082294464e-02</internalNodes>
          <leafValues>
            -3.4368213266134262e-02 9.2291337251663208e-01</leafValues></_>
        <_>
          <internalNodes>
            0 -1 48 1.0987062007188797e-01</internalNodes>
          <leafValues>
            -4.4730076193809509e-01 3.5243600606918335e-01</leafValues></_>
        <_>
          <internalNodes>
            0 -1 47 1.3134233653545380e-02</internalNodes>
          <leafValues>
            -3.8963201642036438e-01 2.2542238235473633e-01</leafValues></_>
        <_>
          <internalNodes>
            0 -1 240 1.6051696613430977e-02</internalNodes>
          <leafValues>
            -2.7346280217170715e-01 3.2968831062316895e-01</leafValues></_>
        <_>
          <internalNodes>
            0 -1 79 -5.9622135013341904e-02</internalNodes>
          <leafValues>
            3.9585700631141663e-01 -2.5449866056442261e-01</leafValues></_>
        <_>
          <internalNodes>
            0 -1 173 1.0622469708323479e-03</internalNodes>
          <leafValues>
            2.4046064913272858e-01 -3.9108869433403015e-01</leafValues></_>
        <_>
          <internalNodes>
            0 -1 19 -6.3978128135204315e-02</internalNodes>
          <leafValues>
            3.5357919335365295e-01 -2.7163177728652954e-01</leafValues></_>
        <_>
          <internalNodes>
            0 -1 98 1.4575223904103041e-03</internalNodes>
          <leafValues>
            2.2771975398063660e-01 -3.8405674695968628e-01</leafValues></_>
        <_>
          <internalNodes>
            0 -1 212 -3.6166673526167870e-03</internalNodes>
          <leafValues>
            3.4237268567085266e-01 -2.3996646702289581e-01</leafValues></_>
        <_>
          <internalNodes>
            0 -1 28 -3.4677227959036827e-03</internalNodes>
          <leafValues>
            -4.0131139755249023e-01 1.8526823818683624e-01</leafValues></_>
        <_>
          <internalNodes>
            0 -1 171 2.9880629153922200e-04</internalNodes>
          <leafValues>
            1.2610749900341034e-01 -6.6306138038635254e-01</leafValues></_>
        <_>
          <internalNodes>
            0 -1 231 -3.3715859055519104e-02</internalNodes>
          <leafValues>
            6.9537502527236938e-01 -1.1672263592481613e-01</leafValues></_>
        <_>
          <internalNodes>
            0 -1 246 -1.8190078437328339e-02</internalNodes>
          <leafValues>
            -5.7976561784744263e-01 1.5885949134826660e-01</leafValues></_>
        <_>
          <internalNodes>
            0 -1 75 -1.6967076808214188e-03</internalNodes>
          <leafValues>
            5.4633885622024536e-01 -1.2911218404769897e-01</leafValues></_>
        <_>
          <internalNodes>
            0 -1 87 -1.0286816395819187e-02</internalNodes>
          <leafValues>
            -4.2049291729927063e-01 1.5693522989749908e-01</leafValues></_>
        <_>
          <internalNodes>
            0 -1 169 -1.6132548917084932e-03</internalNodes>
          <leafValues>
            -8.7370836734771729e-01 8.6845517158508301e-02</leafValues></_>
        <_>
          <internalNodes>
            0 -1 149 7.7881081961095333e-04</internalNodes>
          <leafValues>
            1.7204031348228455e-01 -4.1383501887321472e-01</leafValues></_>
        <_>
          <internalNodes>
            0 -1 74 1.1933933012187481e-02</internalNodes>
          <leafValues>
            -9.3455620110034943e-02 7.8399980068206787e-01</leafValues></_>
        <_>
          <internalNodes>
            0 -1 185 3.0214628204703331e-03</internalNodes>
          <leafValues>
            9.8905064165592194e-02 -7.2456175088882446e-01</leafValues></_>
        <_>
          <internalNodes>
            0 -1 202 -2.5743460282683372e-03</internalNodes>
          <leafValues>
            1.0672890394926071e-01 -6.2158948183059692e-01</leafValues></_>
        <_>
          <internalNodes>
            0 -1 104 -7.0157076697796583e-04</internalNodes>
          <leafValues>
            -4.7705313563346863e-01 1.3124518096446991e-01</leafValues></_>
        <_>
          <internalNodes>
            0 -1 23 2.2831109163234942e-05</internalNodes>
          <leafValues>
            -2.3083169758319855e-01 2.5898495316505432e-01</leafValues></_>
        <_>
          <internalNodes>
            0 -1 232 -4.8954272642731667e-04</internalNodes>
          <leafValues>
            7.3291838169097900e-01 -8.6572766304016113e-02</leafValues></_>
        <_>
          <internalNodes>
            0 -1 161 -2.8000801801681519e-02</internalNodes>
          <leafValues>
            3.6063423752784729e-01 -1.5950199961662292e-01</leafValues></_>
        <_>
          <internalNodes>
            0 -1 40 1.1688777245581150e-02</internalNodes>
          <leafValues>
            -2.4670839309692383e-01 2.6958486437797546e-01</leafValues></_>
        <_>
          <internalNodes>
            0 -1 82 2.5696207303553820e-03</internalNodes>
          <leafValues>
            1.7305159568786621e-01 -3.1895127892494202e-01</leafValues></_>
        <_>
          <internalNodes>
            0 -1 196 3.9843586273491383e-04</internalNodes>
          <leafValues>
            9.7819678485393524e-02 -6.1166638135910034e-01</leafValues></_>
        <_>
          <internalNodes>
            0 -1 215 -3.1423603650182486e-03</internalNodes>
          <leafValues>
            4.5795837044715881e-01 -1.5761697292327881e-01</leafValues></_>
        <_>
          <internalNodes>
            0 -1 18 -3.0681677162647247e-02</internalNodes>
          <leafValues>
            4.2723840475082397e-01 -1.4546452462673187e-01</leafValues></_>
        <_>
          <internalNodes>
            0 -1 55 1.8503649625927210e-03</internalNodes>
          <leafValues>
            1.3828009366989136e-01 -4.6426653861999512e-01</leafValues></_>
        <_>
          <internalNodes>
            0 -1 46 2.1232941653579473e-03</internalNodes>
          <leafValues>
            -1.0013233870267868e-01 6.0204303264617920e-01</leafValues></_>
        <_>
          <internalNodes>
            0 -1 199 -1.8546488136053085e-02</internalNodes>
          <leafValues>
            2.5044080615043640e-01 -2.2712868452072144e-01</leafValues></_></weakClassifiers></_>
    <!-- stage 9 -->
    <_>
      <maxWeakCount>36</maxWeakCount>
      <stageThreshold>-1.2431553602218628e+00</stageThreshold>
      <weakClassifiers>
        <_>
          <internalNodes>
            0 -1 114 5.2395720034837723e-02</internalNodes>
          <leafValues>
            4.0672820061445236e-02 9.8407393693923950e-01</leafValues></_>
        <_>
          <internalNodes>
            0 -1 31 -1.7137345671653748e-01</internalNodes>
          <leafValues>
            4.6776437759399414e-01 -2.5319388508796692e-01</leafValues></_>
        <_>
          <internalNodes>
            0 -1 25 1.0302321985363960e-02</internalNodes>
          <leafValues>
            -1.3970325887203217e-01 7.3348784446716309e-01</leafValues></_>
        <_>
          <internalNodes>
            0 -1 119 -3.5787224769592285e-02</internalNodes>
          <leafValues>
            2.2561657428741455e-01 -3.3409062027931213e-01</leafValues></_>
        <_>
          <internalNodes>
            0 -1 135 1.2421289458870888e-02</internalNodes>
          <leafValues>
            -1.5298858284950256e-01 6.1045360565185547e-01</leafValues></_>
        <_>
          <internalNodes>
            0 -1 198 3.0458474066108465e-04</internalNodes>
          <leafValues>
            2.0992086827754974e-01 -3.5999342799186707e-01</leafValues></_>
        <_>
          <internalNodes>
            0 -1 228 5.4611563682556152e-02</internalNodes>
          <leafValues>
            -1.3492861390113831e-01 5.6393581628799438e-01</leafValues></_>
        <_>
          <internalNodes>
            0 -1 141 7.1852713823318481e-02</internalNodes>
          <leafValues>
            -8.4814935922622681e-02 9.2472684383392334e-01</leafValues></_>
        <_>
          <internalNodes>
            0 -1 245 -4.4041316141374409e-04</internalNodes>
          <leafValues>
            7.0815467834472656e-01 -9.4886071979999542e-02</leafValues></_>
        <_>
          <internalNodes>
            0 -1 2 -3.5371354897506535e-04</internalNodes>
          <leafValues>
            -3.5059592127799988e-01 1.6548489034175873e-01</leafValues></_>
        <_>
          <internalNodes>
            0 -1 153 4.1513936594128609e-03</internalNodes>
          <leafValues>
            1.1181931197643280e-01 -5.8577924966812134e-01</leafValues></_>
        <_>
          <internalNodes>
            0 -1 242 -1.8553828704170883e-04</internalNodes>
          <leafValues>
            -3.3980765938758850e-01 1.6675907373428345e-01</leafValues></_>
        <_>
          <internalNodes>
            0 -1 181 -6.2469700351357460e-03</internalNodes>
          <leafValues>
            2.5263541936874390e-01 -2.2146426141262054e-01</leafValues></_>
        <_>
          <internalNodes>
            0 -1 54 1.9888186216121539e-05</internalNodes>
          <leafValues>
            -2.1576246619224548e-01 2.6599153876304626e-01</leafValues></_>
        <_>
          <internalNodes>
            0 -1 95 -8.8952250778675079e-02</internalNodes>
          <leafValues>
            2.3057816922664642e-01 -2.5520882010459900e-01</leafValues></_>
        <_>
          <internalNodes>
            0 -1 157 5.9432394802570343e-02</internalNodes>
          <leafValues>
            -1.8985247611999512e-01 3.3730751276016235e-01</leafValues></_>
        <_>
          <internalNodes>
            0 -1 258 6.5599835943430662e-04</internalNodes>
          <leafValues>
            -1.1017500609159470e-01 5.4823195934295654e-01</leafValues></_>
        <_>
          <internalNodes>
            0 -1 130 -1.2040149420499802e-02</internalNodes>
          <leafValues>
            4.9836853146553040e-01 -1.1527431756258011e-01</leafValues></_>
        <_>
          <internalNodes>
            0 -1 139 4.5323334634304047e-03</internalNodes>
          <leafValues>
            -1.0127519816160202e-01 6.3865894079208374e-01</leafValues></_>
        <_>
          <internalNodes>
            0 -1 226 -9.4009265012573451e-06</internalNodes>
          <leafValues>
            1.6785819828510284e-01 -3.5106587409973145e-01</leafValues></_>
        <_>
          <internalNodes>
            0 -1 5 1.4509176835417747e-03</internalNodes>
          <leafValues>
            1.4071002602577209e-01 -4.0984544157981873e-01</leafValues></_>
        <_>
          <internalNodes>
            0 -1 15 -5.0909968558698893e-04</internalNodes>
          <leafValues>
            4.5204061269760132e-01 -1.2906168401241302e-01</leafValues></_>
        <_>
          <internalNodes>
            0 -1 124 8.3446886856108904e-04</internalNodes>
          <leafValues>
            1.1603271216154099e-01 -5.3215986490249634e-01</leafValues></_>
        <_>
          <internalNodes>
            0 -1 229 -2.8317170217633247e-03</internalNodes>
          <leafValues>
            2.5215411186218262e-01 -2.3628485202789307e-01</leafValues></_>
        <_>
          <internalNodes>
            0 -1 253 -3.2371086999773979e-03</internalNodes>
          <leafValues>
            3.5544642806053162e-01 -1.9373501837253571e-01</leafValues></_>
        <_>
          <internalNodes>
            0 -1 217 -1.7314807046204805e-03</internalNodes>
          <leafValues>
            2.7511188387870789e-01 -2.0477026700973511e-01</leafValues></_>
        <_>
          <internalNodes>
            0 -1 12 -1.7346374224871397e-03</internalNodes>
          <leafValues>
            -3.4003499150276184e-01 1.6904765367507935e-01</leafValues></_>
        <_>
          <internalNodes>
            0 -1 10 -5.9662153944373131e-03</internalNodes>
          <leafValues>
            2.8940820693969727e-01 -2.1088007092475891e-01</leafValues></_>
        <_>
          <internalNodes>
            0 -1 132 -6.9144857116043568e-04</internalNodes>
          <leafValues>
            -4.2338809370994568e-01 1.4883084595203400e-01</leafValues></_>
        <_>
          <internalNodes>
            0 -1 65 -2.5964579544961452e-03</internalNodes>
          <leafValues>
            3.4471926093101501e-01 -1.8354751169681549e-01</leafValues></_>
        <_>
          <internalNodes>
            0 -1 165 -7.8701741585973650e-06</internalNodes>
          <leafValues>
            2.0155449211597443e-01 -2.7765864133834839e-01</leafValues></_>
        <_>
          <internalNodes>
            0 -1 138 1.1183366179466248e-02</internalNodes>
          <leafValues>
            -7.9921692609786987e-02 1.1410197019577026e+00</leafValues></_>
        <_>
          <internalNodes>
            0 -1 148 -6.2159181106835604e-04</internalNodes>
          <leafValues>
            -6.5367299318313599e-01 1.0677543282508850e-01</leafValues></_>
        <_>
          <internalNodes>
            0 -1 243 2.8949682600796223e-03</internalNodes>
          <leafValues>
            -1.2750744819641113e-01 5.5469894409179688e-01</leafValues></_>
        <_>
          <internalNodes>
            0 -1 189 2.0204093307256699e-03</internalNodes>
          <leafValues>
            1.1779044568538666e-01 -6.1592912673950195e-01</leafValues></_>
        <_>
          <internalNodes>
            0 -1 188 3.0294286552816629e-03</internalNodes>
          <leafValues>
            7.4373036623001099e-02 -1.0791492462158203e+00</leafValues></_></weakClassifiers></_></stages>
  <features>
    <_>
      <rects>
        <_>
          0 0 1 32 -1.</_>
        <_>
          0 16 1 16 2.</_></rects>
      <tilted>0</tilted></_>
    <_>
      <rects>
        <_>
          0 0 9 6 -1.</_>
        <_>
          0 3 9 3 2.</_></rects>
      <tilted>0</tilted></_>
    <_>
      <rects>
        <_>
          0 1 1 6 -1.</_>
        <_>
          0 4 1 3 2.</_></rects>
      <tilted>0</tilted></_>
    <_>
      <rects>
        <_>
          0 1 12 8 -1.</_>
        <_>
          4 1 4 8 3.</_></rects>
      <tilted>0</tilted></_>
    <_>
      <rects>
        <_>
          0 1 16 30 -1.</_>
        <_>
          0 1 8 15 2.</_>
        <_>
          8 16 8 15 2.</_></rects>
      <tilted>0</tilted></_>
    <_>
      <rects>
        <_>
          0 2 1 9 -1.</_>
        <_>
          0 5 1 3 3.</_></rects>
      <tilted>0</tilted></_>
    <_>
      <rects>
        <_>
          0 2 12 13 -1.</_>
        <_>
          6 2 6 13 2.</_></rects>
      <tilted>0</tilted></_>
    <_>
      <rects>
        <_>
          0 2 28 30 -1.</_>
        <_>
          0 17 28 15 2.</_></rects>
      <tilted>0</tilted></_>
    <_>
      <rects>
        <_>
          0 4 30 6 -1.</_>
        <_>
          10 4 10 6 3.</_></rects>
      <tilted>0</tilted></_>
    <_>
      <rects>
        <_>
          0 6 5 12 -1.</_>
        <_>
          0 10 5 4 3.</_></rects>
      <tilted>0</tilted></_>
    <_>
      <rects>
        <_>
          0 8 9 6 -1.</_>
        <_>
          3 8 3 6 3.</_></rects>
      <tilted>0</tilted></_>
    <_>
      <rects>
        <_>
          0 11 9 9 -1.</_>
        <_>
          3 11 3 9 3.</_></rects>
      <tilted>0</tilted></_>
    <_>
      <rects>
        <_>
          0 12 1 20 -1.</_>
        <_>
          0 22 1 10 2.</_></rects>
      <tilted>0</tilted></_>
    <_>
      <rects>
        <_>
          0 12 3 18 -1.</_>
        <_>
          1 12 1 18 3.</_></rects>
      <tilted>0</tilted></_>
    <_>
      <rects>
        <_>
          0 12 26 4 -1.</_>
        <_>
          0 14 26 2 2.</_></rects>
      <tilted>0</tilted></_>
    <_>
      <rects>
        <_>
          0 15 2 3 -1.</_>
        <_>
          0 16 2 1 3.</_></rects>
      <tilted>0</tilted></_>
    <_>
      <rects>
        <_>
          0 16 1 14 -1.</_>
        <_>
          0 23 1 7 2.</_></rects>
      <tilted>0</tilted></_>
    <_>
      <rects>
        <_>
          0 24 2 8 -1.</_>
        <_>
          1 24 1 8 2.</_></rects>
      <tilted>0</tilted></_>
    <_>
      <rects>
        <_>
          0 24 27 3 -1.</_>
        <_>
          9 24 9 3 3.</_></rects>
      <tilted>0</tilted></_>
    <_>
      <rects>
        <_>
          0 24 30 8 -1.</_>
        <_>
          10 24 10 8 3.</_></rects>
      <tilted>0</tilted></_>
    <_>
      <rects>
        <_>
          0 25 1 6 -1.</_>
        <_>
          0 27 1 2 3.</_></rects>
      <tilted>0</tilted></_>
    <_>
      <rects>
        <_>
          0 26 32 6 -1.</_>
        <_>
          0 29 32 3 2.</_></rects>
      <tilted>0</tilted></_>
    <_>
      <rects>
        <_>
          0 27 1 4 -1.</_>
        <_>
          0 29 1 2 2.</_></rects>
      <tilted>0</tilted></_>
    <_>
      <rects>
        <_>
          0 27 4 1 -1.</_>
        <_>
          2 27 2 1 2.</_></rects>
      <tilted>0</tilted></_>
    <_>
      <rects>
        <_>
          0 28 2 1 -1.</_>
        <_>
          1 28 1 1 2.</_></rects>
      <tilted>0</tilted></_>
    <_>
      <rects>
        <_>
          0 29 31 3 -1.</_>
        <_>
          0 30 31 1 3.</_></rects>
      <tilted>0</tilted></_>
    <_>
      <rects>
        <_>
          1 0 6 1 -1.</_>
        <_>
          4 0 3 1 2.</_></rects>
      <tilted>0</tilted></_>
    <_>
      <rects>
        <_>
          1 0 21 1 -1.</_>
        <_>
          8 0 7 1 3.</_></rects>
      <tilted>0</tilted></_>
    <_>
      <rects>
        <_>
          1 0 28 1 -1.</_>
        <_>
          15 0 14 1 2.</_></rects>
      <tilted>0</tilted></_>
    <_>
      <rects>
        <_>
          1 0 14 12 -1.</_>
        <_>
          1 6 14 6 2.</_></rects>
      <tilted>0</tilted></_>
    <_>
      <rects>
        <_>
          1 1 24 30 -1.</_>
        <_>
          1 1 12 15 2.</_>
        <_>
          13 16 12 15 2.</_></rects>
      <tilted>0</tilted></_>
    <_>
      <rects>
        <_>
          1 3 20 28 -1.</_>
        <_>
          1 3 10 14 2.</_>
        <_>
          11 17 10 14 2.</_></rects>
      <tilted>0</tilted></_>
    <_>
      <rects>
        <_>
          1 4 30 3 -1.</_>
        <_>
          11 4 10 3 3.</_></rects>
      <tilted>0</tilted></_>
    <_>
      <rects>
        <_>
          1 6 8 18 -1.</_>
        <_>
          5 6 4 18 2.</_></rects>
      <tilted>0</tilted></_>
    <_>
      <rects>
        <_>
          1 7 30 2 -1.</_>
        <_>
          11 7 10 2 3.</_></rects>
      <tilted>0</tilted></_>
    <_>
      <rects>
        <_>
          1 17 6 8 -1.</_>
        <_>
          3 17 2 8 3.</_></rects>
      <tilted>0</tilted></_>
    <_>
      <rects>
        <_>
          1 25 2 2 -1.</_>
        <_>
          1 25 1 1 2.</_>
        <_>
          2 26 1 1 2.</_></rects>
      <tilted>0</tilted></_>
    <_>
      <rects>
        <_>
          1 26 2 4 -1.</_>
        <_>
          1 28 2 2 2.</_></rects>
      <tilted>0</tilted></_>
    <_>
      <rects>
        <_>
          2 0 18 8 -1.</_>
        <_>
          2 0 9 4 2.</_>
        <_>
          11 4 9 4 2.</_></rects>
      <tilted>0</tilted></_>
    <_>
      <rects>
        <_>
          2 1 24 23 -1.</_>
        <_>
          10 1 8 23 3.</_></rects>
      <tilted>0</tilted></_>
    <_>
      <rects>
        <_>
          2 4 8 10 -1.</_>
        <_>
          6 4 4 10 2.</_></rects>
      <tilted>0</tilted></_>
    <_>
      <rects>
        <_>
          2 8 15 6 -1.</_>
        <_>
          7 8 5 6 3.</_></rects>
      <tilted>0</tilted></_>
    <_>
      <rects>
        <_>
          2 9 6 5 -1.</_>
        <_>
          4 9 2 5 3.</_></rects>
      <tilted>0</tilted></_>
    <_>
      <rects>
        <_>
          2 15 16 16 -1.</_>
        <_>
          2 15 8 8 2.</_>
        <_>
          10 23 8 8 2.</_></rects>
      <tilted>0</tilted></_>
    <_>
      <rects>
        <_>
          2 16 22 15 -1.</_>
        <_>
          2 21 22 5 3.</_></rects>
      <tilted>0</tilted></_>
    <_>
      <rects>
        <_>
          2 19 30 11 -1.</_>
        <_>
          12 19 10 11 3.</_></rects>
      <tilted>0</tilted></_>
    <_>
      <rects>
        <_>
          2 27 1 4 -1.</_>
        <_>
          2 29 1 2 2.</_></rects>
      <tilted>0</tilted></_>
    <_>
      <rects>
        <_>
          3 0 29 6 -1.</_>
        <_>
          3 3 29 3 2.</_></rects>
      <tilted>0</tilted></_>
    <_>
      <rects>
        <_>
          3 2 24 15 -1.</_>
        <_>
          11 2 8 15 3.</_></rects>
      <tilted>0</tilted></_>
    <_>
      <rects>
        <_>
          3 3 12 2 -1.</_>
        <_>
          3 4 12 1 2.</_></rects>
      <tilted>0</tilted></_>
    <_>
      <rects>
        <_>
          3 8 3 9 -1.</_>
        <_>
          4 8 1 9 3.</_></rects>
      <tilted>0</tilted></_>
    <_>
      <rects>
        <_>
          3 13 3 7 -1.</_>
        <_>
          4 13 1 7 3.</_></rects>
      <tilted>0</tilted></_>
    <_>
      <rects>
        <_>
          3 18 26 13 -1.</_>
        <_>
          16 18 13 13 2.</_></rects>
      <tilted>0</tilted></_>
    <_>
      <rects>
        <_>
          3 23 6 6 -1.</_>
        <_>
          3 23 3 3 2.</_>
        <_>
          6 26 3 3 2.</_></rects>
      <tilted>0</tilted></_>
    <_>
      <rects>
        <_>
          3 25 2 1 -1.</_>
        <_>
          4 25 1 1 2.</_></rects>
      <tilted>0</tilted></_>
    <_>
      <rects>
        <_>
          4 0 12 1 -1.</_>
        <_>
          8 0 4 1 3.</_></rects>
      <tilted>0</tilted></_>
    <_>
      <rects>
        <_>
          4 0 22 27 -1.</_>
        <_>
          4 9 22 9 3.</_></rects>
      <tilted>0</tilted></_>
    <_>
      <rects>
        <_>
          4 1 14 10 -1.</_>
        <_>
          4 1 7 5 2.</_>
        <_>
          11 6 7 5 2.</_></rects>
      <tilted>0</tilted></_>
    <_>
      <rects>
        <_>
          4 2 1 30 -1.</_>
        <_>
          4 17 1 15 2.</_></rects>
      <tilted>0</tilted></_>
    <_>
      <rects>
        <_>
          4 4 6 24 -1.</_>
        <_>
          4 4 3 12 2.</_>
        <_>
          7 16 3 12 2.</_></rects>
      <tilted>0</tilted></_>
    <_>
      <rects>
        <_>
          4 4 21 11 -1.</_>
        <_>
          11 4 7 11 3.</_></rects>
      <tilted>0</tilted></_>
    <_>
      <rects>
        <_>
          4 7 4 20 -1.</_>
        <_>
          4 7 2 10 2.</_>
        <_>
          6 17 2 10 2.</_></rects>
      <tilted>0</tilted></_>
    <_>
      <rects>
        <_>
          4 7 6 11 -1.</_>
        <_>
          6 7 2 11 3.</_></rects>
      <tilted>0</tilted></_>
    <_>
      <rects>
        <_>
          4 7 6 2 -1.</_>
        <_>
          4 8 6 1 2.</_></rects>
      <tilted>0</tilted></_>
    <_>
      <rects>
        <_>
          4 8 4 16 -1.</_>
        <_>
          6 8 2 16 2.</_></rects>
      <tilted>0</tilted></_>
    <_>
      <rects>
        <_>
          4 10 6 3 -1.</_>
        <_>
          6 10 2 3 3.</_></rects>
      <tilted>0</tilted></_>
    <_>
      <rects>
        <_>
          4 11 2 6 -1.</_>
        <_>
          5 11 1 6 2.</_></rects>
      <tilted>0</tilted></_>
    <_>
      <rects>
        <_>
          4 13 3 10 -1.</_>
        <_>
          5 13 1 10 3.</_></rects>
      <tilted>0</tilted></_>
    <_>
      <rects>
        <_>
          4 17 3 11 -1.</_>
        <_>
          5 17 1 11 3.</_></rects>
      <tilted>0</tilted></_>
    <_>
      <rects>
        <_>
          4 20 6 5 -1.</_>
        <_>
          6 20 2 5 3.</_></rects>
      <tilted>0</tilted></_>
    <_>
      <rects>
        <_>
          4 23 6 8 -1.</_>
        <_>
          4 23 3 4 2.</_>
        <_>
          7 27 3 4 2.</_></rects>
      <tilted>0</tilted></_>
    <_>
      <rects>
        <_>
          4 24 2 3 -1.</_>
        <_>
          5 24 1 3 2.</_></rects>
      <tilted>0</tilted></_>
    <_>
      <rects>
        <_>
          4 26 6 3 -1.</_>
        <_>
          4 27 6 1 3.</_></rects>
      <tilted>0</tilted></_>
    <_>
      <rects>
        <_>
          5 3 21 17 -1.</_>
        <_>
          12 3 7 17 3.</_></rects>
      <tilted>0</tilted></_>
    <_>
      <rects>
        <_>
          5 4 6 6 -1.</_>
        <_>
          5 4 3 3 2.</_>
        <_>
          8 7 3 3 2.</_></rects>
      <tilted>0</tilted></_>
    <_>
      <rects>
        <_>
          5 6 8 2 -1.</_>
        <_>
          5 6 4 1 2.</_>
        <_>
          9 7 4 1 2.</_></rects>
      <tilted>0</tilted></_>
    <_>
      <rects>
        <_>
          5 9 25 8 -1.</_>
        <_>
          5 13 25 4 2.</_></rects>
      <tilted>0</tilted></_>
    <_>
      <rects>
        <_>
          5 13 3 6 -1.</_>
        <_>
          6 13 1 6 3.</_></rects>
      <tilted>0</tilted></_>
    <_>
      <rects>
        <_>
          5 15 3 7 -1.</_>
        <_>
          6 15 1 7 3.</_></rects>
      <tilted>0</tilted></_>
    <_>
      <rects>
        <_>
          5 19 27 12 -1.</_>
        <_>
          5 23 27 4 3.</_></rects>
      <tilted>0</tilted></_>
    <_>
      <rects>
        <_>
          5 24 6 3 -1.</_>
        <_>
          8 24 3 3 2.</_></rects>
      <tilted>0</tilted></_>
    <_>
      <rects>
        <_>
          5 25 27 2 -1.</_>
        <_>
          14 25 9 2 3.</_></rects>
      <tilted>0</tilted></_>
    <_>
      <rects>
        <_>
          6 0 18 1 -1.</_>
        <_>
          12 0 6 1 3.</_></rects>
      <tilted>0</tilted></_>
    <_>
      <rects>
        <_>
          6 0 22 8 -1.</_>
        <_>
          6 4 22 4 2.</_></rects>
      <tilted>0</tilted></_>
    <_>
      <rects>
        <_>
          6 1 14 21 -1.</_>
        <_>
          6 8 14 7 3.</_></rects>
      <tilted>0</tilted></_>
    <_>
      <rects>
        <_>
          6 5 17 4 -1.</_>
        <_>
          6 7 17 2 2.</_></rects>
      <tilted>0</tilted></_>
    <_>
      <rects>
        <_>
          6 12 9 12 -1.</_>
        <_>
          6 16 9 4 3.</_></rects>
      <tilted>0</tilted></_>
    <_>
      <rects>
        <_>
          6 14 12 8 -1.</_>
        <_>
          6 14 6 4 2.</_>
        <_>
          12 18 6 4 2.</_></rects>
      <tilted>0</tilted></_>
    <_>
      <rects>
        <_>
          6 16 8 14 -1.</_>
        <_>
          6 16 4 7 2.</_>
        <_>
          10 23 4 7 2.</_></rects>
      <tilted>0</tilted></_>
    <_>
      <rects>
        <_>
          6 18 22 6 -1.</_>
        <_>
          17 18 11 6 2.</_></rects>
      <tilted>0</tilted></_>
    <_>
      <rects>
        <_>
          6 22 2 10 -1.</_>
        <_>
          6 27 2 5 2.</_></rects>
      <tilted>0</tilted></_>
    <_>
      <rects>
        <_>
          7 0 6 24 -1.</_>
        <_>
          10 0 3 24 2.</_></rects>
      <tilted>0</tilted></_>
    <_>
      <rects>
        <_>
          7 1 4 12 -1.</_>
        <_>
          9 1 2 12 2.</_></rects>
      <tilted>0</tilted></_>
    <_>
      <rects>
        <_>
          7 1 8 12 -1.</_>
        <_>
          11 1 4 12 2.</_></rects>
      <tilted>0</tilted></_>
    <_>
      <rects>
        <_>
          7 5 16 12 -1.</_>
        <_>
          7 9 16 4 3.</_></rects>
      <tilted>0</tilted></_>
    <_>
      <rects>
        <_>
          7 7 10 20 -1.</_>
        <_>
          7 17 10 10 2.</_></rects>
      <tilted>0</tilted></_>
    <_>
      <rects>
        <_>
          7 20 20 12 -1.</_>
        <_>
          7 24 20 4 3.</_></rects>
      <tilted>0</tilted></_>
    <_>
      <rects>
        <_>
          7 25 19 6 -1.</_>
        <_>
          7 28 19 3 2.</_></rects>
      <tilted>0</tilted></_>
    <_>
      <rects>
        <_>
          8 0 21 1 -1.</_>
        <_>
          15 0 7 1 3.</_></rects>
      <tilted>0</tilted></_>
    <_>
      <rects>
        <_>
          8 2 22 6 -1.</_>
        <_>
          8 5 22 3 2.</_></rects>
      <tilted>0</tilted></_>
    <_>
      <rects>
        <_>
          8 4 7 12 -1.</_>
        <_>
          8 8 7 4 3.</_></rects>
      <tilted>0</tilted></_>
    <_>
      <rects>
        <_>
          8 5 13 12 -1.</_>
        <_>
          8 11 13 6 2.</_></rects>
      <tilted>0</tilted></_>
    <_>
      <rects>
        <_>
          8 8 7 18 -1.</_>
        <_>
          8 17 7 9 2.</_></rects>
      <tilted>0</tilted></_>
    <_>
      <rects>
        <_>
          8 9 3 14 -1.</_>
        <_>
          8 16 3 7 2.</_></rects>
      <tilted>0</tilted></_>
    <_>
      <rects>
        <_>
          8 11 2 6 -1.</_>
        <_>
          9 11 1 6 2.</_></rects>
      <tilted>0</tilted></_>
    <_>
      <rects>
        <_>
          9 0 12 1 -1.</_>
        <_>
          13 0 4 1 3.</_></rects>
      <tilted>0</tilted></_>
    <_>
      <rects>
        <_>
          9 0 12 10 -1.</_>
        <_>
          9 5 12 5 2.</_></rects>
      <tilted>0</tilted></_>
    <_>
      <rects>
        <_>
          9 7 2 4 -1.</_>
        <_>
          10 7 1 4 2.</_></rects>
      <tilted>0</tilted></_>
    <_>
      <rects>
        <_>
          9 21 14 9 -1.</_>
        <_>
          9 24 14 3 3.</_></rects>
      <tilted>0</tilted></_>
    <_>
      <rects>
        <_>
          10 0 15 1 -1.</_>
        <_>
          15 0 5 1 3.</_></rects>
      <tilted>0</tilted></_>
    <_>
      <rects>
        <_>
          10 0 10 18 -1.</_>
        <_>
          10 6 10 6 3.</_></rects>
      <tilted>0</tilted></_>
    <_>
      <rects>
        <_>
          10 0 14 9 -1.</_>
        <_>
          10 3 14 3 3.</_></rects>
      <tilted>0</tilted></_>
    <_>
      <rects>
        <_>
          10 1 12 8 -1.</_>
        <_>
          14 1 4 8 3.</_></rects>
      <tilted>0</tilted></_>
    <_>
      <rects>
        <_>
          10 1 6 15 -1.</_>
        <_>
          10 6 6 5 3.</_></rects>
      <tilted>0</tilted></_>
    <_>
      <rects>
        <_>
          10 2 14 6 -1.</_>
        <_>
          10 5 14 3 2.</_></rects>
      <tilted>0</tilted></_>
    <_>
      <rects>
        <_>
          10 3 7 9 -1.</_>
        <_>
          10 6 7 3 3.</_></rects>
      <tilted>0</tilted></_>
    <_>
      <rects>
        <_>
          10 3 16 22 -1.</_>
        <_>
          10 3 8 11 2.</_>
        <_>
          18 14 8 11 2.</_></rects>
      <tilted>0</tilted></_>
    <_>
      <rects>
        <_>
          10 4 20 12 -1.</_>
        <_>
          20 4 10 12 2.</_></rects>
      <tilted>0</tilted></_>
    <_>
      <rects>
        <_>
          10 5 11 20 -1.</_>
        <_>
          10 15 11 10 2.</_></rects>
      <tilted>0</tilted></_>
    <_>
      <rects>
        <_>
          10 8 16 18 -1.</_>
        <_>
          18 8 8 18 2.</_></rects>
      <tilted>0</tilted></_>
    <_>
      <rects>
        <_>
          10 19 2 12 -1.</_>
        <_>
          10 23 2 4 3.</_></rects>
      <tilted>0</tilted></_>
    <_>
      <rects>
        <_>
          11 0 15 8 -1.</_>
        <_>
          11 4 15 4 2.</_></rects>
      <tilted>0</tilted></_>
    <_>
      <rects>
        <_>
          11 2 2 11 -1.</_>
        <_>
          12 2 1 11 2.</_></rects>
      <tilted>0</tilted></_>
    <_>
      <rects>
        <_>
          11 10 2 3 -1.</_>
        <_>
          12 10 1 3 2.</_></rects>
      <tilted>0</tilted></_>
    <_>
      <rects>
        <_>
          11 15 2 4 -1.</_>
        <_>
          12 15 1 4 2.</_></rects>
      <tilted>0</tilted></_>
    <_>
      <rects>
        <_>
          11 17 2 2 -1.</_>
        <_>
          12 17 1 2 2.</_></rects>
      <tilted>0</tilted></_>
    <_>
      <rects>
        <_>
          11 22 7 4 -1.</_>
        <_>
          11 24 7 2 2.</_></rects>
      <tilted>0</tilted></_>
    <_>
      <rects>
        <_>
          12 0 4 1 -1.</_>
        <_>
          14 0 2 1 2.</_></rects>
      <tilted>0</tilted></_>
    <_>
      <rects>
        <_>
          12 0 14 15 -1.</_>
        <_>
          12 5 14 5 3.</_></rects>
      <tilted>0</tilted></_>
    <_>
      <rects>
        <_>
          12 1 8 9 -1.</_>
        <_>
          12 4 8 3 3.</_></rects>
      <tilted>0</tilted></_>
    <_>
      <rects>
        <_>
          12 2 9 6 -1.</_>
        <_>
          12 4 9 2 3.</_></rects>
      <tilted>0</tilted></_>
    <_>
      <rects>
        <_>
          12 4 14 22 -1.</_>
        <_>
          12 15 14 11 2.</_></rects>
      <tilted>0</tilted></_>
    <_>
      <rects>
        <_>
          12 13 2 6 -1.</_>
        <_>
          13 13 1 6 2.</_></rects>
      <tilted>0</tilted></_>
    <_>
      <rects>
        <_>
          12 22 6 6 -1.</_>
        <_>
          12 24 6 2 3.</_></rects>
      <tilted>0</tilted></_>
    <_>
      <rects>
        <_>
          13 0 13 15 -1.</_>
        <_>
          13 5 13 5 3.</_></rects>
      <tilted>0</tilted></_>
    <_>
      <rects>
        <_>
          13 1 6 6 -1.</_>
        <_>
          13 3 6 2 3.</_></rects>
      <tilted>0</tilted></_>
    <_>
      <rects>
        <_>
          13 2 2 5 -1.</_>
        <_>
          14 2 1 5 2.</_></rects>
      <tilted>0</tilted></_>
    <_>
      <rects>
        <_>
          13 22 4 3 -1.</_>
        <_>
          15 22 2 3 2.</_></rects>
      <tilted>0</tilted></_>
    <_>
      <rects>
        <_>
          14 0 4 6 -1.</_>
        <_>
          14 2 4 2 3.</_></rects>
      <tilted>0</tilted></_>
    <_>
      <rects>
        <_>
          14 3 7 3 -1.</_>
        <_>
          14 4 7 1 3.</_></rects>
      <tilted>0</tilted></_>
    <_>
      <rects>
        <_>
          14 4 8 4 -1.</_>
        <_>
          14 6 8 2 2.</_></rects>
      <tilted>0</tilted></_>
    <_>
      <rects>
        <_>
          14 7 18 16 -1.</_>
        <_>
          20 7 6 16 3.</_></rects>
      <tilted>0</tilted></_>
    <_>
      <rects>
        <_>
          14 8 2 15 -1.</_>
        <_>
          14 13 2 5 3.</_></rects>
      <tilted>0</tilted></_>
    <_>
      <rects>
        <_>
          14 10 18 21 -1.</_>
        <_>
          20 10 6 21 3.</_></rects>
      <tilted>0</tilted></_>
    <_>
      <rects>
        <_>
          14 19 2 5 -1.</_>
        <_>
          15 19 1 5 2.</_></rects>
      <tilted>0</tilted></_>
    <_>
      <rects>
        <_>
          14 19 6 1 -1.</_>
        <_>
          17 19 3 1 2.</_></rects>
      <tilted>0</tilted></_>
    <_>
      <rects>
        <_>
          14 22 18 8 -1.</_>
        <_>
          14 22 9 4 2.</_>
        <_>
          23 26 9 4 2.</_></rects>
      <tilted>0</tilted></_>
    <_>
      <rects>
        <_>
          14 23 6 4 -1.</_>
        <_>
          16 23 2 4 3.</_></rects>
      <tilted>0</tilted></_>
    <_>
      <rects>
        <_>
          14 26 3 3 -1.</_>
        <_>
          15 26 1 3 3.</_></rects>
      <tilted>0</tilted></_>
    <_>
      <rects>
        <_>
          15 0 6 1 -1.</_>
        <_>
          18 0 3 1 2.</_></rects>
      <tilted>0</tilted></_>
    <_>
      <rects>
        <_>
          15 0 5 8 -1.</_>
        <_>
          15 4 5 4 2.</_></rects>
      <tilted>0</tilted></_>
    <_>
      <rects>
        <_>
          15 2 11 18 -1.</_>
        <_>
          15 11 11 9 2.</_></rects>
      <tilted>0</tilted></_>
    <_>
      <rects>
        <_>
          15 3 16 4 -1.</_>
        <_>
          15 3 8 2 2.</_>
        <_>
          23 5 8 2 2.</_></rects>
      <tilted>0</tilted></_>
    <_>
      <rects>
        <_>
          15 4 6 3 -1.</_>
        <_>
          17 4 2 3 3.</_></rects>
      <tilted>0</tilted></_>
    <_>
      <rects>
        <_>
          15 17 2 6 -1.</_>
        <_>
          15 17 1 3 2.</_>
        <_>
          16 20 1 3 2.</_></rects>
      <tilted>0</tilted></_>
    <_>
      <rects>
        <_>
          15 23 2 2 -1.</_>
        <_>
          15 23 1 1 2.</_>
        <_>
          16 24 1 1 2.</_></rects>
      <tilted>0</tilted></_>
    <_>
      <rects>
        <_>
          15 23 3 2 -1.</_>
        <_>
          16 23 1 2 3.</_></rects>
      <tilted>0</tilted></_>
    <_>
      <rects>
        <_>
          16 3 16 16 -1.</_>
        <_>
          16 3 8 8 2.</_>
        <_>
          24 11 8 8 2.</_></rects>
      <tilted>0</tilted></_>
    <_>
      <rects>
        <_>
          16 3 12 12 -1.</_>
        <_>
          16 9 12 6 2.</_></rects>
      <tilted>0</tilted></_>
    <_>
      <rects>
        <_>
          16 6 11 15 -1.</_>
        <_>
          16 11 11 5 3.</_></rects>
      <tilted>0</tilted></_>
    <_>
      <rects>
        <_>
          16 7 2 16 -1.</_>
        <_>
          16 7 1 8 2.</_>
        <_>
          17 15 1 8 2.</_></rects>
      <tilted>0</tilted></_>
    <_>
      <rects>
        <_>
          16 7 15 8 -1.</_>
        <_>
          21 7 5 8 3.</_></rects>
      <tilted>0</tilted></_>
    <_>
      <rects>
        <_>
          16 8 15 12 -1.</_>
        <_>
          16 12 15 4 3.</_></rects>
      <tilted>0</tilted></_>
    <_>
      <rects>
        <_>
          16 11 12 4 -1.</_>
        <_>
          16 13 12 2 2.</_></rects>
      <tilted>0</tilted></_>
    <_>
      <rects>
        <_>
          16 13 1 2 -1.</_>
        <_>
          16 14 1 1 2.</_></rects>
      <tilted>0</tilted></_>
    <_>
      <rects>
        <_>
          16 15 4 4 -1.</_>
        <_>
          18 15 2 4 2.</_></rects>
      <tilted>0</tilted></_>
    <_>
      <rects>
        <_>
          16 17 16 14 -1.</_>
        <_>
          16 17 8 7 2.</_>
        <_>
          24 24 8 7 2.</_></rects>
      <tilted>0</tilted></_>
    <_>
      <rects>
        <_>
          16 23 3 1 -1.</_>
        <_>
          17 23 1 1 3.</_></rects>
      <tilted>0</tilted></_>
    <_>
      <rects>
        <_>
          16 23 3 3 -1.</_>
        <_>
          17 23 1 3 3.</_></rects>
      <tilted>0</tilted></_>
    <_>
      <rects>
        <_>
          16 24 2 6 -1.</_>
        <_>
          17 24 1 6 2.</_></rects>
      <tilted>0</tilted></_>
    <_>
      <rects>
        <_>
          16 24 14 8 -1.</_>
        <_>
          16 28 14 4 2.</_></rects>
      <tilted>0</tilted></_>
    <_>
      <rects>
        <_>
          16 26 2 2 -1.</_>
        <_>
          17 26 1 2 2.</_></rects>
      <tilted>0</tilted></_>
    <_>
      <rects>
        <_>
          16 26 3 3 -1.</_>
        <_>
          17 26 1 3 3.</_></rects>
      <tilted>0</tilted></_>
    <_>
      <rects>
        <_>
          17 0 14 1 -1.</_>
        <_>
          24 0 7 1 2.</_></rects>
      <tilted>0</tilted></_>
    <_>
      <rects>
        <_>
          17 4 5 22 -1.</_>
        <_>
          17 15 5 11 2.</_></rects>
      <tilted>0</tilted></_>
    <_>
      <rects>
        <_>
          17 5 3 1 -1.</_>
        <_>
          18 5 1 1 3.</_></rects>
      <tilted>0</tilted></_>
    <_>
      <rects>
        <_>
          17 6 3 3 -1.</_>
        <_>
          18 6 1 3 3.</_></rects>
      <tilted>0</tilted></_>
    <_>
      <rects>
        <_>
          17 6 4 20 -1.</_>
        <_>
          17 16 4 10 2.</_></rects>
      <tilted>0</tilted></_>
    <_>
      <rects>
        <_>
          17 13 4 1 -1.</_>
        <_>
          19 13 2 1 2.</_></rects>
      <tilted>0</tilted></_>
    <_>
      <rects>
        <_>
          17 16 15 1 -1.</_>
        <_>
          22 16 5 1 3.</_></rects>
      <tilted>0</tilted></_>
    <_>
      <rects>
        <_>
          17 17 15 6 -1.</_>
        <_>
          22 17 5 6 3.</_></rects>
      <tilted>0</tilted></_>
    <_>
      <rects>
        <_>
          17 20 3 12 -1.</_>
        <_>
          17 24 3 4 3.</_></rects>
      <tilted>0</tilted></_>
    <_>
      <rects>
        <_>
          17 21 2 8 -1.</_>
        <_>
          18 21 1 8 2.</_></rects>
      <tilted>0</tilted></_>
    <_>
      <rects>
        <_>
          18 0 9 1 -1.</_>
        <_>
          21 0 3 1 3.</_></rects>
      <tilted>0</tilted></_>
    <_>
      <rects>
        <_>
          18 2 1 24 -1.</_>
        <_>
          18 14 1 12 2.</_></rects>
      <tilted>0</tilted></_>
    <_>
      <rects>
        <_>
          18 2 4 3 -1.</_>
        <_>
          20 2 2 3 2.</_></rects>
      <tilted>0</tilted></_>
    <_>
      <rects>
        <_>
          18 3 2 6 -1.</_>
        <_>
          19 3 1 6 2.</_></rects>
      <tilted>0</tilted></_>
    <_>
      <rects>
        <_>
          18 4 2 2 -1.</_>
        <_>
          19 4 1 2 2.</_></rects>
      <tilted>0</tilted></_>
    <_>
      <rects>
        <_>
          18 5 3 7 -1.</_>
        <_>
          19 5 1 7 3.</_></rects>
      <tilted>0</tilted></_>
    <_>
      <rects>
        <_>
          18 5 4 5 -1.</_>
        <_>
          20 5 2 5 2.</_></rects>
      <tilted>0</tilted></_>
    <_>
      <rects>
        <_>
          18 7 4 10 -1.</_>
        <_>
          20 7 2 10 2.</_></rects>
      <tilted>0</tilted></_>
    <_>
      <rects>
        <_>
          18 15 4 3 -1.</_>
        <_>
          20 15 2 3 2.</_></rects>
      <tilted>0</tilted></_>
    <_>
      <rects>
        <_>
          18 20 2 8 -1.</_>
        <_>
          19 20 1 8 2.</_></rects>
      <tilted>0</tilted></_>
    <_>
      <rects>
        <_>
          19 0 2 8 -1.</_>
        <_>
          20 0 1 8 2.</_></rects>
      <tilted>0</tilted></_>
    <_>
      <rects>
        <_>
          19 4 2 7 -1.</_>
        <_>
          20 4 1 7 2.</_></rects>
      <tilted>0</tilted></_>
    <_>
      <rects>
        <_>
          19 11 4 5 -1.</_>
        <_>
          21 11 2 5 2.</_></rects>
      <tilted>0</tilted></_>
    <_>
      <rects>
        <_>
          19 24 2 2 -1.</_>
        <_>
          20 24 1 2 2.</_></rects>
      <tilted>0</tilted></_>
    <_>
      <rects>
        <_>
          19 24 12 2 -1.</_>
        <_>
          25 24 6 2 2.</_></rects>
      <tilted>0</tilted></_>
    <_>
      <rects>
        <_>
          20 0 4 1 -1.</_>
        <_>
          22 0 2 1 2.</_></rects>
      <tilted>0</tilted></_>
    <_>
      <rects>
        <_>
          20 0 10 10 -1.</_>
        <_>
          25 0 5 10 2.</_></rects>
      <tilted>0</tilted></_>
    <_>
      <rects>
        <_>
          20 3 8 8 -1.</_>
        <_>
          24 3 4 8 2.</_></rects>
      <tilted>0</tilted></_>
    <_>
      <rects>
        <_>
          20 3 10 4 -1.</_>
        <_>
          20 3 5 2 2.</_>
        <_>
          25 5 5 2 2.</_></rects>
      <tilted>0</tilted></_>
    <_>
      <rects>
        <_>
          20 4 8 20 -1.</_>
        <_>
          20 14 8 10 2.</_></rects>
      <tilted>0</tilted></_>
    <_>
      <rects>
        <_>
          20 10 3 4 -1.</_>
        <_>
          20 12 3 2 2.</_></rects>
      <tilted>0</tilted></_>
    <_>
      <rects>
        <_>
          20 20 4 2 -1.</_>
        <_>
          22 20 2 2 2.</_></rects>
      <tilted>0</tilted></_>
    <_>
      <rects>
        <_>
          21 4 2 6 -1.</_>
        <_>
          22 4 1 6 2.</_></rects>
      <tilted>0</tilted></_>
    <_>
      <rects>
        <_>
          21 6 1 4 -1.</_>
        <_>
          21 8 1 2 2.</_></rects>
      <tilted>0</tilted></_>
    <_>
      <rects>
        <_>
          21 16 3 12 -1.</_>
        <_>
          21 20 3 4 3.</_></rects>
      <tilted>0</tilted></_>
    <_>
      <rects>
        <_>
          21 24 6 2 -1.</_>
        <_>
          23 24 2 2 3.</_></rects>
      <tilted>0</tilted></_>
    <_>
      <rects>
        <_>
          21 24 2 8 -1.</_>
        <_>
          21 28 2 4 2.</_></rects>
      <tilted>0</tilted></_>
    <_>
      <rects>
        <_>
          21 25 3 6 -1.</_>
        <_>
          21 27 3 2 3.</_></rects>
      <tilted>0</tilted></_>
    <_>
      <rects>
        <_>
          22 5 2 2 -1.</_>
        <_>
          23 5 1 2 2.</_></rects>
      <tilted>0</tilted></_>
    <_>
      <rects>
        <_>
          22 6 9 3 -1.</_>
        <_>
          25 6 3 3 3.</_></rects>
      <tilted>0</tilted></_>
    <_>
      <rects>
        <_>
          22 9 5 6 -1.</_>
        <_>
          22 12 5 3 2.</_></rects>
      <tilted>0</tilted></_>
    <_>
      <rects>
        <_>
          22 12 4 9 -1.</_>
        <_>
          22 15 4 3 3.</_></rects>
      <tilted>0</tilted></_>
    <_>
      <rects>
        <_>
          22 23 6 3 -1.</_>
        <_>
          24 23 2 3 3.</_></rects>
      <tilted>0</tilted></_>
    <_>
      <rects>
        <_>
          22 23 6 6 -1.</_>
        <_>
          25 23 3 6 2.</_></rects>
      <tilted>0</tilted></_>
    <_>
      <rects>
        <_>
          22 24 7 6 -1.</_>
        <_>
          22 26 7 2 3.</_></rects>
      <tilted>0</tilted></_>
    <_>
      <rects>
        <_>
          22 26 8 3 -1.</_>
        <_>
          22 27 8 1 3.</_></rects>
      <tilted>0</tilted></_>
    <_>
      <rects>
        <_>
          23 1 2 9 -1.</_>
        <_>
          24 1 1 9 2.</_></rects>
      <tilted>0</tilted></_>
    <_>
      <rects>
        <_>
          23 2 3 27 -1.</_>
        <_>
          23 11 3 9 3.</_></rects>
      <tilted>0</tilted></_>
    <_>
      <rects>
        <_>
          23 3 6 22 -1.</_>
        <_>
          23 3 3 11 2.</_>
        <_>
          26 14 3 11 2.</_></rects>
      <tilted>0</tilted></_>
    <_>
      <rects>
        <_>
          23 4 2 7 -1.</_>
        <_>
          24 4 1 7 2.</_></rects>
      <tilted>0</tilted></_>
    <_>
      <rects>
        <_>
          23 7 6 10 -1.</_>
        <_>
          25 7 2 10 3.</_></rects>
      <tilted>0</tilted></_>
    <_>
      <rects>
        <_>
          23 7 8 8 -1.</_>
        <_>
          23 7 4 4 2.</_>
        <_>
          27 11 4 4 2.</_></rects>
      <tilted>0</tilted></_>
    <_>
      <rects>
        <_>
          23 10 1 2 -1.</_>
        <_>
          23 11 1 1 2.</_></rects>
      <tilted>0</tilted></_>
    <_>
      <rects>
        <_>
          23 10 2 2 -1.</_>
        <_>
          23 11 2 1 2.</_></rects>
      <tilted>0</tilted></_>
    <_>
      <rects>
        <_>
          23 10 3 18 -1.</_>
        <_>
          23 16 3 6 3.</_></rects>
      <tilted>0</tilted></_>
    <_>
      <rects>
        <_>
          23 10 8 19 -1.</_>
        <_>
          27 10 4 19 2.</_></rects>
      <tilted>0</tilted></_>
    <_>
      <rects>
        <_>
          23 11 6 13 -1.</_>
        <_>
          25 11 2 13 3.</_></rects>
      <tilted>0</tilted></_>
    <_>
      <rects>
        <_>
          23 19 1 12 -1.</_>
        <_>
          23 23 1 4 3.</_></rects>
      <tilted>0</tilted></_>
    <_>
      <rects>
        <_>
          24 4 8 12 -1.</_>
        <_>
          28 4 4 12 2.</_></rects>
      <tilted>0</tilted></_>
    <_>
      <rects>
        <_>
          24 8 2 2 -1.</_>
        <_>
          24 8 1 1 2.</_>
        <_>
          25 9 1 1 2.</_></rects>
      <tilted>0</tilted></_>
    <_>
      <rects>
        <_>
          24 8 3 3 -1.</_>
        <_>
          25 8 1 3 3.</_></rects>
      <tilted>0</tilted></_>
    <_>
      <rects>
        <_>
          24 8 6 21 -1.</_>
        <_>
          26 8 2 21 3.</_></rects>
      <tilted>0</tilted></_>
    <_>
      <rects>
        <_>
          24 10 3 14 -1.</_>
        <_>
          24 17 3 7 2.</_></rects>
      <tilted>0</tilted></_>
    <_>
      <rects>
        <_>
          24 12 6 4 -1.</_>
        <_>
          26 12 2 4 3.</_></rects>
      <tilted>0</tilted></_>
    <_>
      <rects>
        <_>
          24 12 8 16 -1.</_>
        <_>
          28 12 4 16 2.</_></rects>
      <tilted>0</tilted></_>
    <_>
      <rects>
        <_>
          24 13 6 13 -1.</_>
        <_>
          26 13 2 13 3.</_></rects>
      <tilted>0</tilted></_>
    <_>
      <rects>
        <_>
          24 14 8 3 -1.</_>
        <_>
          28 14 4 3 2.</_></rects>
      <tilted>0</tilted></_>
    <_>
      <rects>
        <_>
          24 14 8 16 -1.</_>
        <_>
          28 14 4 16 2.</_></rects>
      <tilted>0</tilted></_>
    <_>
      <rects>
        <_>
          24 15 6 1 -1.</_>
        <_>
          26 15 2 1 3.</_></rects>
      <tilted>0</tilted></_>
    <_>
      <rects>
        <_>
          24 21 2 2 -1.</_>
        <_>
          24 22 2 1 2.</_></rects>
      <tilted>0</tilted></_>
    <_>
      <rects>
        <_>
          24 25 8 4 -1.</_>
        <_>
          24 25 4 2 2.</_>
        <_>
          28 27 4 2 2.</_></rects>
      <tilted>0</tilted></_>
    <_>
      <rects>
        <_>
          25 4 6 14 -1.</_>
        <_>
          25 4 3 7 2.</_>
        <_>
          28 11 3 7 2.</_></rects>
      <tilted>0</tilted></_>
    <_>
      <rects>
        <_>
          25 6 2 2 -1.</_>
        <_>
          25 6 1 1 2.</_>
        <_>
          26 7 1 1 2.</_></rects>
      <tilted>0</tilted></_>
    <_>
      <rects>
        <_>
          25 12 5 14 -1.</_>
        <_>
          25 19 5 7 2.</_></rects>
      <tilted>0</tilted></_>
    <_>
      <rects>
        <_>
          25 13 6 15 -1.</_>
        <_>
          27 13 2 15 3.</_></rects>
      <tilted>0</tilted></_>
    <_>
      <rects>
        <_>
          25 13 4 17 -1.</_>
        <_>
          27 13 2 17 2.</_></rects>
      <tilted>0</tilted></_>
    <_>
      <rects>
        <_>
          25 18 3 5 -1.</_>
        <_>
          26 18 1 5 3.</_></rects>
      <tilted>0</tilted></_>
    <_>
      <rects>
        <_>
          26 7 3 11 -1.</_>
        <_>
          27 7 1 11 3.</_></rects>
      <tilted>0</tilted></_>
    <_>
      <rects>
        <_>
          26 8 4 11 -1.</_>
        <_>
          28 8 2 11 2.</_></rects>
      <tilted>0</tilted></_>
    <_>
      <rects>
        <_>
          26 9 6 5 -1.</_>
        <_>
          28 9 2 5 3.</_></rects>
      <tilted>0</tilted></_>
    <_>
      <rects>
        <_>
          26 11 6 17 -1.</_>
        <_>
          28 11 2 17 3.</_></rects>
      <tilted>0</tilted></_>
    <_>
      <rects>
        <_>
          27 13 3 6 -1.</_>
        <_>
          28 13 1 6 3.</_></rects>
      <tilted>0</tilted></_>
    <_>
      <rects>
        <_>
          27 13 3 10 -1.</_>
        <_>
          28 13 1 10 3.</_></rects>
      <tilted>0</tilted></_>
    <_>
      <rects>
        <_>
          27 15 3 2 -1.</_>
        <_>
          28 15 1 2 3.</_></rects>
      <tilted>0</tilted></_>
    <_>
      <rects>
        <_>
          28 10 3 14 -1.</_>
        <_>
          29 10 1 14 3.</_></rects>
      <tilted>0</tilted></_>
    <_>
      <rects>
        <_>
          30 14 2 4 -1.</_>
        <_>
          30 14 1 2 2.</_>
        <_>
          31 16 1 2 2.</_></rects>
      <tilted>0</tilted></_>
    <_>
      <rects>
        <_>
          30 21 2 7 -1.</_>
        <_>
          31 21 1 7 2.</_></rects>
      <tilted>0</tilted></_>
    <_>
      <rects>
        <_>
          31 23 1 3 -1.</_>
        <_>
          31 24 1 1 3.</_></rects>
      <tilted>0</tilted></_></features></cascade>
</opencv_storage>
