<?xml version="1.0"?>
<opencv_storage>
<cascade>
  <stageType>BOOST</stageType>
  <featureType>HAAR</featureType>
  <height>32</height>
  <width>32</width>
  <stageParams>
    <boostType>GAB</boostType>
    <minHitRate>9.9500000476837158e-01</minHitRate>
    <maxFalseAlarm>5.0000000000000000e-01</maxFalseAlarm>
    <weightTrimRate>9.4999998807907104e-01</weightTrimRate>
    <maxDepth>1</maxDepth>
    <maxWeakCount>100</maxWeakCount></stageParams>
  <featureParams>
    <maxCatCount>0</maxCatCount>
    <featSize>1</featSize>
    <mode>BASIC</mode></featureParams>
  <stageNum>20</stageNum>
  <stages>
    <!-- stage 0 -->
    <_>
      <maxWeakCount>6</maxWeakCount>
      <stageThreshold>-1.3293963670730591e+00</stageThreshold>
      <weakClassifiers>
        <_>
          <internalNodes>
            0 -1 162 -8.0563694238662720e-02</internalNodes>
          <leafValues>
            6.5250962972640991e-01 -8.3356839418411255e-01</leafValues></_>
        <_>
          <internalNodes>
            0 -1 123 2.0426109433174133e-02</internalNodes>
          <leafValues>
            -7.1291214227676392e-01 5.2744740247726440e-01</leafValues></_>
        <_>
          <internalNodes>
            0 -1 220 1.6961506335064769e-03</internalNodes>
          <leafValues>
            -4.8496913909912109e-01 4.7397583723068237e-01</leafValues></_>
        <_>
          <internalNodes>
            0 -1 180 1.4345034956932068e-01</internalNodes>
          <leafValues>
            -2.7656781673431396e-01 7.5288456678390503e-01</leafValues></_>
        <_>
          <internalNodes>
            0 -1 90 1.3362063327804208e-03</internalNodes>
          <leafValues>
            -2.9606178402900696e-01 5.4939287900924683e-01</leafValues></_>
        <_>
          <internalNodes>
            0 -1 85 -1.1408986523747444e-02</internalNodes>
          <leafValues>
            4.2922821640968323e-01 -2.8692150115966797e-01</leafValues></_></weakClassifiers></_>
    <!-- stage 1 -->
    <_>
      <maxWeakCount>9</maxWeakCount>
      <stageThreshold>-1.4140824079513550e+00</stageThreshold>
      <weakClassifiers>
        <_>
          <internalNodes>
            0 -1 147 1.2073778361082077e-01</internalNodes>
          <leafValues>
            -6.2077295780181885e-01 6.5321701765060425e-01</leafValues></_>
        <_>
          <internalNodes>
            0 -1 152 -3.4013684839010239e-02</internalNodes>
          <leafValues>
            3.5409653186798096e-01 -6.4397460222244263e-01</leafValues></_>
        <_>
          <internalNodes>
            0 -1 158 8.3981646457687020e-04</internalNodes>
          <leafValues>
            -5.6557655334472656e-01 2.9662707448005676e-01</leafValues></_>
        <_>
          <internalNodes>
            0 -1 234 4.1803048225119710e-04</internalNodes>
          <leafValues>
            -4.0190503001213074e-01 3.8080185651779175e-01</leafValues></_>
        <_>
          <internalNodes>
            0 -1 253 -2.3796178866177797e-03</internalNodes>
          <leafValues>
            6.0218876600265503e-01 -2.4703352153301239e-01</leafValues></_>
        <_>
          <internalNodes>
            0 -1 224 -1.2402682565152645e-02</internalNodes>
          <leafValues>
            3.5789474844932556e-01 -3.5761266946792603e-01</leafValues></_>
        <_>
          <internalNodes>
            0 -1 106 -1.5352998860180378e-02</internalNodes>
          <leafValues>
            4.4922494888305664e-01 -2.6959282159805298e-01</leafValues></_>
        <_>
          <internalNodes>
            0 -1 232 -3.9885260164737701e-02</internalNodes>
          <leafValues>
            7.3162996768951416e-01 -1.8394546210765839e-01</leafValues></_>
        <_>
          <internalNodes>
            0 -1 222 -2.6102000847458839e-03</internalNodes>
          <leafValues>
            3.8099634647369385e-01 -2.5986236333847046e-01</leafValues></_></weakClassifiers></_>
    <!-- stage 2 -->
    <_>
      <maxWeakCount>13</maxWeakCount>
      <stageThreshold>-1.4198893308639526e+00</stageThreshold>
      <weakClassifiers>
        <_>
          <internalNodes>
            0 -1 69 1.2694753706455231e-01</internalNodes>
          <leafValues>
            -4.4514769315719604e-01 6.3613551855087280e-01</leafValues></_>
        <_>
          <internalNodes>
            0 -1 75 -4.3603293597698212e-03</internalNodes>
          <leafValues>
            6.4511799812316895e-01 -2.3868948221206665e-01</leafValues></_>
        <_>
          <internalNodes>
            0 -1 84 -1.1306279152631760e-01</internalNodes>
          <leafValues>
            2.5752961635589600e-01 -6.2774175405502319e-01</leafValues></_>
        <_>
          <internalNodes>
            0 -1 28 -9.6370942890644073e-02</internalNodes>
          <leafValues>
            2.7127346396446228e-01 -4.0885275602340698e-01</leafValues></_>
        <_>
          <internalNodes>
            0 -1 190 -1.8248695880174637e-02</internalNodes>
          <leafValues>
            3.1623262166976929e-01 -3.4542781114578247e-01</leafValues></_>
        <_>
          <internalNodes>
            0 -1 71 -1.3524252176284790e-01</internalNodes>
          <leafValues>
            -5.7244950532913208e-01 1.8150132894515991e-01</leafValues></_>
        <_>
          <internalNodes>
            0 -1 175 -1.4748994261026382e-02</internalNodes>
          <leafValues>
            3.0175724625587463e-01 -3.7292766571044922e-01</leafValues></_>
        <_>
          <internalNodes>
            0 -1 96 1.1131566949188709e-02</internalNodes>
          <leafValues>
            -4.8208770155906677e-01 1.7527839541435242e-01</leafValues></_>
        <_>
          <internalNodes>
            0 -1 151 1.1364455521106720e-01</internalNodes>
          <leafValues>
            -1.3049778342247009e-01 6.2033700942993164e-01</leafValues></_>
        <_>
          <internalNodes>
            0 -1 141 1.4056602958589792e-03</internalNodes>
          <leafValues>
            -1.5731932222843170e-01 4.4389113783836365e-01</leafValues></_>
        <_>
          <internalNodes>
            0 -1 177 4.4226674363017082e-03</internalNodes>
          <leafValues>
            -3.4506902098655701e-01 2.0368091762065887e-01</leafValues></_>
        <_>
          <internalNodes>
            0 -1 86 2.4949751794338226e-02</internalNodes>
          <leafValues>
            -1.7085301876068115e-01 4.6193468570709229e-01</leafValues></_>
        <_>
          <internalNodes>
            0 -1 57 -1.3198021333664656e-03</internalNodes>
          <leafValues>
            7.6031297445297241e-01 -9.4099037349224091e-02</leafValues></_></weakClassifiers></_>
    <!-- stage 3 -->
    <_>
      <maxWeakCount>11</maxWeakCount>
      <stageThreshold>-1.3931510448455811e+00</stageThreshold>
      <weakClassifiers>
        <_>
          <internalNodes>
            0 -1 173 1.2536077201366425e-01</internalNodes>
          <leafValues>
            -5.0632911920547485e-01 7.0890837907791138e-01</leafValues></_>
        <_>
          <internalNodes>
            0 -1 131 1.6746586188673973e-02</internalNodes>
          <leafValues>
            -3.8366922736167908e-01 5.0976961851119995e-01</leafValues></_>
        <_>
          <internalNodes>
            0 -1 194 -5.2858255803585052e-02</internalNodes>
          <leafValues>
            2.3725937306880951e-01 -7.9443132877349854e-01</leafValues></_>
        <_>
          <internalNodes>
            0 -1 107 1.5540899476036429e-03</internalNodes>
          <leafValues>
            -3.4397393465042114e-01 4.6519196033477783e-01</leafValues></_>
        <_>
          <internalNodes>
            0 -1 240 1.2954009696841240e-02</internalNodes>
          <leafValues>
            -3.0581888556480408e-01 4.0338721871376038e-01</leafValues></_>
        <_>
          <internalNodes>
            0 -1 95 -2.9857564717531204e-02</internalNodes>
          <leafValues>
            6.3865876197814941e-01 -1.9380927085876465e-01</leafValues></_>
        <_>
          <internalNodes>
            0 -1 169 2.1230798214673996e-02</internalNodes>
          <leafValues>
            -1.9048090279102325e-01 6.0915529727935791e-01</leafValues></_>
        <_>
          <internalNodes>
            0 -1 138 1.0001872479915619e-01</internalNodes>
          <leafValues>
            -2.2995226085186005e-01 3.9249396324157715e-01</leafValues></_>
        <_>
          <internalNodes>
            0 -1 88 -6.6016204655170441e-03</internalNodes>
          <leafValues>
            2.6472881436347961e-01 -4.0776708722114563e-01</leafValues></_>
        <_>
          <internalNodes>
            0 -1 238 -2.9000256210565567e-02</internalNodes>
          <leafValues>
            5.9843486547470093e-01 -1.5304172039031982e-01</leafValues></_>
        <_>
          <internalNodes>
            0 -1 246 1.0768675711005926e-03</internalNodes>
          <leafValues>
            -2.4722033739089966e-01 3.5038289427757263e-01</leafValues></_></weakClassifiers></_>
    <!-- stage 4 -->
    <_>
      <maxWeakCount>15</maxWeakCount>
      <stageThreshold>-1.5544867515563965e+00</stageThreshold>
      <weakClassifiers>
        <_>
          <internalNodes>
            0 -1 156 4.4126175343990326e-02</internalNodes>
          <leafValues>
            -3.9877301454544067e-01 6.1929595470428467e-01</leafValues></_>
        <_>
          <internalNodes>
            0 -1 76 -7.7015841379761696e-03</internalNodes>
          <leafValues>
            7.1925121545791626e-01 -2.6179054379463196e-01</leafValues></_>
        <_>
          <internalNodes>
            0 -1 83 -1.3733865320682526e-01</internalNodes>
          <leafValues>
            4.8229026794433594e-01 -3.7852418422698975e-01</leafValues></_>
        <_>
          <internalNodes>
            0 -1 10 1.9848202355206013e-03</internalNodes>
          <leafValues>
            2.4139983952045441e-01 -5.4308259487152100e-01</leafValues></_>
        <_>
          <internalNodes>
            0 -1 22 -1.6014652792364359e-03</internalNodes>
          <leafValues>
            -5.8283299207687378e-01 2.0083296298980713e-01</leafValues></_>
        <_>
          <internalNodes>
            0 -1 111 -4.7630935907363892e-02</internalNodes>
          <leafValues>
            2.0006765425205231e-01 -4.8174846172332764e-01</leafValues></_>
        <_>
          <internalNodes>
            0 -1 183 -1.2539410963654518e-02</internalNodes>
          <leafValues>
            3.6527907848358154e-01 -2.9601624608039856e-01</leafValues></_>
        <_>
          <internalNodes>
            0 -1 120 2.3501560091972351e-02</internalNodes>
          <leafValues>
            -4.7633406519889832e-01 1.7764708399772644e-01</leafValues></_>
        <_>
          <internalNodes>
            0 -1 79 2.3800875060260296e-03</internalNodes>
          <leafValues>
            2.0457868278026581e-01 -4.6394845843315125e-01</leafValues></_>
        <_>
          <internalNodes>
            0 -1 198 8.1044691614806652e-04</internalNodes>
          <leafValues>
            1.1063732951879501e-01 -7.8866600990295410e-01</leafValues></_>
        <_>
          <internalNodes>
            0 -1 212 -1.2210611021146178e-03</internalNodes>
          <leafValues>
            2.7679672837257385e-01 -3.1640270352363586e-01</leafValues></_>
        <_>
          <internalNodes>
            0 -1 47 9.3068063259124756e-02</internalNodes>
          <leafValues>
            1.0733278840780258e-01 -8.4912669658660889e-01</leafValues></_>
        <_>
          <internalNodes>
            0 -1 154 -3.8768653757870197e-04</internalNodes>
          <leafValues>
            -4.3983331322669983e-01 1.9395564496517181e-01</leafValues></_>
        <_>
          <internalNodes>
            0 -1 100 -1.1932297609746456e-02</internalNodes>
          <leafValues>
            5.8441299200057983e-01 -1.7373093962669373e-01</leafValues></_>
        <_>
          <internalNodes>
            0 -1 136 4.3592946603894234e-03</internalNodes>
          <leafValues>
            -3.8952687382698059e-01 2.5257033109664917e-01</leafValues></_></weakClassifiers></_>
    <!-- stage 5 -->
    <_>
      <maxWeakCount>12</maxWeakCount>
      <stageThreshold>-1.2499163150787354e+00</stageThreshold>
      <weakClassifiers>
        <_>
          <internalNodes>
            0 -1 157 1.3122737407684326e-01</internalNodes>
          <leafValues>
            -4.7426068782806396e-01 6.2259614467620850e-01</leafValues></_>
        <_>
          <internalNodes>
            0 -1 66 -1.5570303658023477e-03</internalNodes>
          <leafValues>
            -7.1554213762283325e-01 3.0748233199119568e-01</leafValues></_>
        <_>
          <internalNodes>
            0 -1 78 7.7252823393791914e-04</internalNodes>
          <leafValues>
            3.5167652368545532e-01 -7.2268640995025635e-01</leafValues></_>
        <_>
          <internalNodes>
            0 -1 65 1.7008508741855621e-01</internalNodes>
          <leafValues>
            -4.4714510440826416e-01 3.7126177549362183e-01</leafValues></_>
        <_>
          <internalNodes>
            0 -1 127 -2.6099221780896187e-02</internalNodes>
          <leafValues>
            3.1018769741058350e-01 -4.6370348334312439e-01</leafValues></_>
        <_>
          <internalNodes>
            0 -1 110 -1.4630556106567383e-02</internalNodes>
          <leafValues>
            3.4431776404380798e-01 -3.8960242271423340e-01</leafValues></_>
        <_>
          <internalNodes>
            0 -1 48 -4.3098405003547668e-02</internalNodes>
          <leafValues>
            3.9672112464904785e-01 -3.1844031810760498e-01</leafValues></_>
        <_>
          <internalNodes>
            0 -1 230 -4.1170435724779963e-04</internalNodes>
          <leafValues>
            -5.2057582139968872e-01 1.7733088135719299e-01</leafValues></_>
        <_>
          <internalNodes>
            0 -1 235 1.8748603179119527e-04</internalNodes>
          <leafValues>
            2.3846362531185150e-01 -4.6326902508735657e-01</leafValues></_>
        <_>
          <internalNodes>
            0 -1 217 -4.4926963746547699e-02</internalNodes>
          <leafValues>
            3.7957295775413513e-01 -2.9021635651588440e-01</leafValues></_>
        <_>
          <internalNodes>
            0 -1 184 -3.4728462342172861e-03</internalNodes>
          <leafValues>
            -6.7435002326965332e-01 2.0630386471748352e-01</leafValues></_>
        <_>
          <internalNodes>
            0 -1 99 -3.0546687543392181e-02</internalNodes>
          <leafValues>
            4.2919847369194031e-01 -2.7384889125823975e-01</leafValues></_></weakClassifiers></_>
    <!-- stage 6 -->
    <_>
      <maxWeakCount>15</maxWeakCount>
      <stageThreshold>-1.4594327211380005e+00</stageThreshold>
      <weakClassifiers>
        <_>
          <internalNodes>
            0 -1 148 6.6355518996715546e-02</internalNodes>
          <leafValues>
            -6.0176992416381836e-01 4.6204310655593872e-01</leafValues></_>
        <_>
          <internalNodes>
            0 -1 6 1.3594399206340313e-03</internalNodes>
          <leafValues>
            3.1374093890190125e-01 -6.9112652540206909e-01</leafValues></_>
        <_>
          <internalNodes>
            0 -1 6 -3.6024561268277466e-04</internalNodes>
          <leafValues>
            -7.2444224357604980e-01 4.7608497738838196e-01</leafValues></_>
        <_>
          <internalNodes>
            0 -1 93 9.7760990262031555e-02</internalNodes>
          <leafValues>
            -6.2617987394332886e-01 1.9234205782413483e-01</leafValues></_>
        <_>
          <internalNodes>
            0 -1 7 3.8884421810507774e-03</internalNodes>
          <leafValues>
            2.3317813873291016e-01 -5.9869694709777832e-01</leafValues></_>
        <_>
          <internalNodes>
            0 -1 34 1.5806530136615038e-03</internalNodes>
          <leafValues>
            2.5663563609123230e-01 -5.4483038187026978e-01</leafValues></_>
        <_>
          <internalNodes>
            0 -1 64 -1.1466803262010217e-03</internalNodes>
          <leafValues>
            -4.7833451628684998e-01 2.2695372998714447e-01</leafValues></_>
        <_>
          <internalNodes>
            0 -1 64 7.3949230136349797e-04</internalNodes>
          <leafValues>
            2.2842362523078918e-01 -4.9533602595329285e-01</leafValues></_>
        <_>
          <internalNodes>
            0 -1 113 -1.7872458323836327e-02</internalNodes>
          <leafValues>
            3.5238242149353027e-01 -2.8872007131576538e-01</leafValues></_>
        <_>
          <internalNodes>
            0 -1 181 3.2821879722177982e-03</internalNodes>
          <leafValues>
            -1.7828384041786194e-01 6.6462934017181396e-01</leafValues></_>
        <_>
          <internalNodes>
            0 -1 126 2.5644807144999504e-02</internalNodes>
          <leafValues>
            -1.9349032640457153e-01 5.4345804452896118e-01</leafValues></_>
        <_>
          <internalNodes>
            0 -1 52 2.9301329050213099e-04</internalNodes>
          <leafValues>
            2.4504555761814117e-01 -4.3690413236618042e-01</leafValues></_>
        <_>
          <internalNodes>
            0 -1 187 -1.7767358571290970e-02</internalNodes>
          <leafValues>
            5.9149938821792603e-01 -1.7636807262897491e-01</leafValues></_>
        <_>
          <internalNodes>
            0 -1 211 2.0820844918489456e-02</internalNodes>
          <leafValues>
            -4.0463191270828247e-01 2.8798568248748779e-01</leafValues></_>
        <_>
          <internalNodes>
            0 -1 209 1.4273601118475199e-04</internalNodes>
          <leafValues>
            1.8451178073883057e-01 -5.7336038351058960e-01</leafValues></_></weakClassifiers></_>
    <!-- stage 7 -->
    <_>
      <maxWeakCount>13</maxWeakCount>
      <stageThreshold>-1.2276502847671509e+00</stageThreshold>
      <weakClassifiers>
        <_>
          <internalNodes>
            0 -1 118 7.3001708369702101e-04</internalNodes>
          <leafValues>
            3.6612021923065186e-01 -8.2758623361587524e-01</leafValues></_>
        <_>
          <internalNodes>
            0 -1 12 -9.6313212998211384e-04</internalNodes>
          <leafValues>
            -7.6678496599197388e-01 2.9923033714294434e-01</leafValues></_>
        <_>
          <internalNodes>
            0 -1 119 -5.6764075998216867e-04</internalNodes>
          <leafValues>
            -6.8386203050613403e-01 2.6638719439506531e-01</leafValues></_>
        <_>
          <internalNodes>
            0 -1 130 1.5040328726172447e-02</internalNodes>
          <leafValues>
            -3.4517326951026917e-01 5.0756424665451050e-01</leafValues></_>
        <_>
          <internalNodes>
            0 -1 58 -2.0828741253353655e-04</internalNodes>
          <leafValues>
            -5.6134176254272461e-01 2.4440801143646240e-01</leafValues></_>
        <_>
          <internalNodes>
            0 -1 58 2.1413306239992380e-04</internalNodes>
          <leafValues>
            3.0065542459487915e-01 -4.4876515865325928e-01</leafValues></_>
        <_>
          <internalNodes>
            0 -1 221 -3.0021779239177704e-03</internalNodes>
          <leafValues>
            5.3389722108840942e-01 -2.2247251868247986e-01</leafValues></_>
        <_>
          <internalNodes>
            0 -1 109 4.0443011675961316e-04</internalNodes>
          <leafValues>
            2.7750086784362793e-01 -4.3101671338081360e-01</leafValues></_>
        <_>
          <internalNodes>
            0 -1 91 -1.4713063836097717e-02</internalNodes>
          <leafValues>
            3.1624388694763184e-01 -4.1941884160041809e-01</leafValues></_>
        <_>
          <internalNodes>
            0 -1 231 -1.0690936818718910e-02</internalNodes>
          <leafValues>
            4.1948059201240540e-01 -2.6521503925323486e-01</leafValues></_>
        <_>
          <internalNodes>
            0 -1 50 4.0299318730831146e-02</internalNodes>
          <leafValues>
            -2.7251550555229187e-01 3.9110618829727173e-01</leafValues></_>
        <_>
          <internalNodes>
            0 -1 13 3.5441326908767223e-03</internalNodes>
          <leafValues>
            -2.3820535838603973e-01 4.9694755673408508e-01</leafValues></_>
        <_>
          <internalNodes>
            0 -1 201 2.2599630057811737e-02</internalNodes>
          <leafValues>
            -3.4257763624191284e-01 3.2198005914688110e-01</leafValues></_></weakClassifiers></_>
    <!-- stage 8 -->
    <_>
      <maxWeakCount>14</maxWeakCount>
      <stageThreshold>-1.4109231233596802e+00</stageThreshold>
      <weakClassifiers>
        <_>
          <internalNodes>
            0 -1 3 -8.7712268577888608e-04</internalNodes>
          <leafValues>
            -7.7272725105285645e-01 3.6399683356285095e-01</leafValues></_>
        <_>
          <internalNodes>
            0 -1 3 5.6766602210700512e-04</internalNodes>
          <leafValues>
            3.2968053221702576e-01 -7.5821346044540405e-01</leafValues></_>
        <_>
          <internalNodes>
            0 -1 33 1.9217438530176878e-03</internalNodes>
          <leafValues>
            2.2790458798408508e-01 -5.9354245662689209e-01</leafValues></_>
        <_>
          <internalNodes>
            0 -1 35 -1.8444663146510720e-03</internalNodes>
          <leafValues>
            -7.7995073795318604e-01 2.7003693580627441e-01</leafValues></_>
        <_>
          <internalNodes>
            0 -1 165 2.2563528269529343e-02</internalNodes>
          <leafValues>
            -6.4656132459640503e-01 1.4786222577095032e-01</leafValues></_>
        <_>
          <internalNodes>
            0 -1 27 -1.1582467705011368e-03</internalNodes>
          <leafValues>
            -4.3807929754257202e-01 2.8531670570373535e-01</leafValues></_>
        <_>
          <internalNodes>
            0 -1 31 1.3945673126727343e-03</internalNodes>
          <leafValues>
            2.0243450999259949e-01 -5.7238852977752686e-01</leafValues></_>
        <_>
          <internalNodes>
            0 -1 60 2.8331391513347626e-03</internalNodes>
          <leafValues>
            -2.3094834387302399e-01 4.5353806018829346e-01</leafValues></_>
        <_>
          <internalNodes>
            0 -1 29 3.5888671409338713e-03</internalNodes>
          <leafValues>
            -1.9228450953960419e-01 4.8123088479042053e-01</leafValues></_>
        <_>
          <internalNodes>
            0 -1 188 3.4889965318143368e-03</internalNodes>
          <leafValues>
            1.2868972122669220e-01 -7.1309518814086914e-01</leafValues></_>
        <_>
          <internalNodes>
            0 -1 205 9.5040351152420044e-04</internalNodes>
          <leafValues>
            -2.8589934110641479e-01 3.1488955020904541e-01</leafValues></_>
        <_>
          <internalNodes>
            0 -1 218 -2.4003330618143082e-02</internalNodes>
          <leafValues>
            3.8186305761337280e-01 -2.3315520584583282e-01</leafValues></_>
        <_>
          <internalNodes>
            0 -1 39 6.3202634919434786e-05</internalNodes>
          <leafValues>
            2.5564068555831909e-01 -3.5700064897537231e-01</leafValues></_>
        <_>
          <internalNodes>
            0 -1 125 4.5598263386636972e-04</internalNodes>
          <leafValues>
            -3.1945252418518066e-01 2.6399222016334534e-01</leafValues></_></weakClassifiers></_>
    <!-- stage 9 -->
    <_>
      <maxWeakCount>13</maxWeakCount>
      <stageThreshold>-1.0604321956634521e+00</stageThreshold>
      <weakClassifiers>
        <_>
          <internalNodes>
            0 -1 8 1.5395679511129856e-03</internalNodes>
          <leafValues>
            3.0105900764465332e-01 -7.3995274305343628e-01</leafValues></_>
        <_>
          <internalNodes>
            0 -1 19 -1.1705780634656549e-03</internalNodes>
          <leafValues>
            -8.1961786746978760e-01 3.2656484842300415e-01</leafValues></_>
        <_>
          <internalNodes>
            0 -1 167 -2.2268345579504967e-02</internalNodes>
          <leafValues>
            4.7149053215980530e-01 -3.2927137613296509e-01</leafValues></_>
        <_>
          <internalNodes>
            0 -1 74 -8.7030220311135054e-04</internalNodes>
          <leafValues>
            4.3386048078536987e-01 -2.7457237243652344e-01</leafValues></_>
        <_>
          <internalNodes>
            0 -1 38 6.6854956094175577e-04</internalNodes>
          <leafValues>
            1.9258686900138855e-01 -4.8297837376594543e-01</leafValues></_>
        <_>
          <internalNodes>
            0 -1 41 -1.8151792464777827e-03</internalNodes>
          <leafValues>
            -5.6608891487121582e-01 1.9430552423000336e-01</leafValues></_>
        <_>
          <internalNodes>
            0 -1 87 1.5274718403816223e-02</internalNodes>
          <leafValues>
            9.6146374940872192e-02 -5.8804565668106079e-01</leafValues></_>
        <_>
          <internalNodes>
            0 -1 237 -1.8474538810551167e-03</internalNodes>
          <leafValues>
            1.6671271622180939e-01 -5.8440560102462769e-01</leafValues></_>
        <_>
          <internalNodes>
            0 -1 247 -5.0275388639420271e-04</internalNodes>
          <leafValues>
            4.4347405433654785e-01 -2.0534813404083252e-01</leafValues></_>
        <_>
          <internalNodes>
            0 -1 82 7.3873817920684814e-02</internalNodes>
          <leafValues>
            -4.9573585391044617e-01 2.1301801502704620e-01</leafValues></_>
        <_>
          <internalNodes>
            0 -1 233 -3.4409551881253719e-03</internalNodes>
          <leafValues>
            2.2814176976680756e-01 -3.6047974228858948e-01</leafValues></_>
        <_>
          <internalNodes>
            0 -1 132 -1.3716085813939571e-03</internalNodes>
          <leafValues>
            4.5606139302253723e-01 -1.5627740323543549e-01</leafValues></_>
        <_>
          <internalNodes>
            0 -1 140 2.6022262871265411e-02</internalNodes>
          <leafValues>
            -5.5574303865432739e-01 1.4055724442005157e-01</leafValues></_></weakClassifiers></_>
    <!-- stage 10 -->
    <_>
      <maxWeakCount>14</maxWeakCount>
      <stageThreshold>-1.3680866956710815e+00</stageThreshold>
      <weakClassifiers>
        <_>
          <internalNodes>
            0 -1 155 1.6558142006397247e-01</internalNodes>
          <leafValues>
            -5.2513968944549561e-01 4.4800776243209839e-01</leafValues></_>
        <_>
          <internalNodes>
            0 -1 19 1.6753356903791428e-03</internalNodes>
          <leafValues>
            2.6560273766517639e-01 -7.2585481405258179e-01</leafValues></_>
        <_>
          <internalNodes>
            0 -1 9 -4.4411729322746396e-04</internalNodes>
          <leafValues>
            -6.7800104618072510e-01 3.9926597476005554e-01</leafValues></_>
        <_>
          <internalNodes>
            0 -1 49 -4.0544496732763946e-04</internalNodes>
          <leafValues>
            -6.7913872003555298e-01 1.0888990759849548e-01</leafValues></_>
        <_>
          <internalNodes>
            0 -1 174 5.6013050198089331e-05</internalNodes>
          <leafValues>
            -4.7787398099899292e-01 2.6324257254600525e-01</leafValues></_>
        <_>
          <internalNodes>
            0 -1 46 8.1164581933990121e-04</internalNodes>
          <leafValues>
            2.1799160540103912e-01 -4.8746582865715027e-01</leafValues></_>
        <_>
          <internalNodes>
            0 -1 59 4.5663636410608888e-04</internalNodes>
          <leafValues>
            -2.7602833509445190e-01 3.8377025723457336e-01</leafValues></_>
        <_>
          <internalNodes>
            0 -1 164 1.0212989291176200e-03</internalNodes>
          <leafValues>
            1.2753902375698090e-01 -5.8761918544769287e-01</leafValues></_>
        <_>
          <internalNodes>
            0 -1 42 -4.9628550186753273e-04</internalNodes>
          <leafValues>
            -4.7086435556411743e-01 2.1238623559474945e-01</leafValues></_>
        <_>
          <internalNodes>
            0 -1 163 -1.7686806619167328e-02</internalNodes>
          <leafValues>
            3.0799254775047302e-01 -2.8280457854270935e-01</leafValues></_>
        <_>
          <internalNodes>
            0 -1 229 -1.5187587123364210e-03</internalNodes>
          <leafValues>
            2.5442245602607727e-01 -3.6338686943054199e-01</leafValues></_>
        <_>
          <internalNodes>
            0 -1 133 1.1266192886978388e-03</internalNodes>
          <leafValues>
            -2.5573810935020447e-01 2.9776972532272339e-01</leafValues></_>
        <_>
          <internalNodes>
            0 -1 203 -5.3889123955741525e-04</internalNodes>
          <leafValues>
            -6.9705003499984741e-01 1.2080239504575729e-01</leafValues></_>
        <_>
          <internalNodes>
            0 -1 248 6.2134710606187582e-04</internalNodes>
          <leafValues>
            -2.5142845511436462e-01 3.3728420734405518e-01</leafValues></_></weakClassifiers></_>
    <!-- stage 11 -->
    <_>
      <maxWeakCount>16</maxWeakCount>
      <stageThreshold>-1.3927000761032104e+00</stageThreshold>
      <weakClassifiers>
        <_>
          <internalNodes>
            0 -1 11 2.5632977485656738e-03</internalNodes>
          <leafValues>
            3.2817336916923523e-01 -7.4834436178207397e-01</leafValues></_>
        <_>
          <internalNodes>
            0 -1 20 -1.1173839448019862e-03</internalNodes>
          <leafValues>
            -8.4874463081359863e-01 3.0384552478790283e-01</leafValues></_>
        <_>
          <internalNodes>
            0 -1 61 1.1206985451281071e-02</internalNodes>
          <leafValues>
            -2.9397121071815491e-01 5.6471318006515503e-01</leafValues></_>
        <_>
          <internalNodes>
            0 -1 161 -1.9713145494461060e-01</internalNodes>
          <leafValues>
            3.7717765569686890e-01 -3.1344151496887207e-01</leafValues></_>
        <_>
          <internalNodes>
            0 -1 150 3.1299202237278223e-03</internalNodes>
          <leafValues>
            -3.9063608646392822e-01 2.3315754532814026e-01</leafValues></_>
        <_>
          <internalNodes>
            0 -1 37 5.3459324408322573e-04</internalNodes>
          <leafValues>
            1.1496348679065704e-01 -5.2518993616104126e-01</leafValues></_>
        <_>
          <internalNodes>
            0 -1 72 5.2484184503555298e-02</internalNodes>
          <leafValues>
            1.2558616697788239e-01 -6.5215593576431274e-01</leafValues></_>
        <_>
          <internalNodes>
            0 -1 226 -6.2711001373827457e-04</internalNodes>
          <leafValues>
            -5.7866221666336060e-01 1.4258323609828949e-01</leafValues></_>
        <_>
          <internalNodes>
            0 -1 197 -7.9490744974464178e-04</internalNodes>
          <leafValues>
            -2.8481930494308472e-01 3.0219811201095581e-01</leafValues></_>
        <_>
          <internalNodes>
            0 -1 208 3.0590829555876553e-04</internalNodes>
          <leafValues>
            1.5868851542472839e-01 -4.7078445553779602e-01</leafValues></_>
        <_>
          <internalNodes>
            0 -1 241 -3.9163725450634956e-03</internalNodes>
          <leafValues>
            4.0776696801185608e-01 -2.1511961519718170e-01</leafValues></_>
        <_>
          <internalNodes>
            0 -1 40 -1.1426054697949439e-04</internalNodes>
          <leafValues>
            -3.9392057061195374e-01 2.6868033409118652e-01</leafValues></_>
        <_>
          <internalNodes>
            0 -1 15 -2.0025019347667694e-01</internalNodes>
          <leafValues>
            -5.4126387834548950e-01 9.5616079866886139e-02</leafValues></_>
        <_>
          <internalNodes>
            0 -1 144 4.4968249276280403e-03</internalNodes>
          <leafValues>
            -2.0555441081523895e-01 3.5130092501640320e-01</leafValues></_>
        <_>
          <internalNodes>
            0 -1 2 -2.4826789740473032e-04</internalNodes>
          <leafValues>
            -4.1989734768867493e-01 1.7143997550010681e-01</leafValues></_>
        <_>
          <internalNodes>
            0 -1 114 4.6825053868815303e-04</internalNodes>
          <leafValues>
            -2.2546474635601044e-01 3.6013871431350708e-01</leafValues></_></weakClassifiers></_>
    <!-- stage 12 -->
    <_>
      <maxWeakCount>16</maxWeakCount>
      <stageThreshold>-1.4604092836380005e+00</stageThreshold>
      <weakClassifiers>
        <_>
          <internalNodes>
            0 -1 31 -5.5932288523763418e-04</internalNodes>
          <leafValues>
            -6.6060608625411987e-01 3.2960000634193420e-01</leafValues></_>
        <_>
          <internalNodes>
            0 -1 25 4.2891889461316168e-04</internalNodes>
          <leafValues>
            2.7365779876708984e-01 -6.8129932880401611e-01</leafValues></_>
        <_>
          <internalNodes>
            0 -1 193 -1.7646927153691649e-03</internalNodes>
          <leafValues>
            -7.3980462551116943e-01 1.8765257298946381e-01</leafValues></_>
        <_>
          <internalNodes>
            0 -1 166 9.4784260727465153e-04</internalNodes>
          <leafValues>
            2.2984512150287628e-01 -5.8164620399475098e-01</leafValues></_>
        <_>
          <internalNodes>
            0 -1 54 2.1824077703058720e-03</internalNodes>
          <leafValues>
            -2.6941490173339844e-01 5.1301431655883789e-01</leafValues></_>
        <_>
          <internalNodes>
            0 -1 137 1.2798530980944633e-02</internalNodes>
          <leafValues>
            -4.6197673678398132e-01 2.5782930850982666e-01</leafValues></_>
        <_>
          <internalNodes>
            0 -1 239 -1.0378836886957288e-03</internalNodes>
          <leafValues>
            2.6897850632667542e-01 -3.8589861989021301e-01</leafValues></_>
        <_>
          <internalNodes>
            0 -1 213 4.6409917995333672e-03</internalNodes>
          <leafValues>
            -3.0054599046707153e-01 3.3403718471527100e-01</leafValues></_>
        <_>
          <internalNodes>
            0 -1 129 8.6584031581878662e-02</internalNodes>
          <leafValues>
            -4.2730298638343811e-01 2.3116685450077057e-01</leafValues></_>
        <_>
          <internalNodes>
            0 -1 195 4.6886358177289367e-04</internalNodes>
          <leafValues>
            1.5600247681140900e-01 -5.9748286008834839e-01</leafValues></_>
        <_>
          <internalNodes>
            0 -1 116 -2.9637303669005632e-04</internalNodes>
          <leafValues>
            1.4360523223876953e-01 -5.2508413791656494e-01</leafValues></_>
        <_>
          <internalNodes>
            0 -1 145 -1.5556419384665787e-05</internalNodes>
          <leafValues>
            2.4574038386344910e-01 -3.3297809958457947e-01</leafValues></_>
        <_>
          <internalNodes>
            0 -1 97 9.0236194431781769e-02</internalNodes>
          <leafValues>
            1.2053941935300827e-01 -6.9185394048690796e-01</leafValues></_>
        <_>
          <internalNodes>
            0 -1 121 2.8955463320016861e-02</internalNodes>
          <leafValues>
            -2.4490128457546234e-01 3.4684017300605774e-01</leafValues></_>
        <_>
          <internalNodes>
            0 -1 115 4.6471407404169440e-04</internalNodes>
          <leafValues>
            -3.0654540657997131e-01 3.0033162236213684e-01</leafValues></_>
        <_>
          <internalNodes>
            0 -1 16 5.0807907246053219e-04</internalNodes>
          <leafValues>
            1.5899795293807983e-01 -5.4281526803970337e-01</leafValues></_></weakClassifiers></_>
    <!-- stage 13 -->
    <_>
      <maxWeakCount>15</maxWeakCount>
      <stageThreshold>-1.3556026220321655e+00</stageThreshold>
      <weakClassifiers>
        <_>
          <internalNodes>
            0 -1 32 -1.6617404762655497e-03</internalNodes>
          <leafValues>
            -7.4089068174362183e-01 3.6051160097122192e-01</leafValues></_>
        <_>
          <internalNodes>
            0 -1 92 -4.1747125214897096e-04</internalNodes>
          <leafValues>
            5.9569358825683594e-01 -3.0302685499191284e-01</leafValues></_>
        <_>
          <internalNodes>
            0 -1 36 4.4158054515719414e-04</internalNodes>
          <leafValues>
            2.4301086366176605e-01 -6.8013352155685425e-01</leafValues></_>
        <_>
          <internalNodes>
            0 -1 159 6.6964402794837952e-03</internalNodes>
          <leafValues>
            -4.1125360131263733e-01 3.2278776168823242e-01</leafValues></_>
        <_>
          <internalNodes>
            0 -1 1 -1.6786626656539738e-04</internalNodes>
          <leafValues>
            -6.3905018568038940e-01 1.7193439602851868e-01</leafValues></_>
        <_>
          <internalNodes>
            0 -1 45 5.2802823483943939e-03</internalNodes>
          <leafValues>
            -1.7395968735218048e-01 7.4033313989639282e-01</leafValues></_>
        <_>
          <internalNodes>
            0 -1 196 -2.1573014091700315e-03</internalNodes>
          <leafValues>
            2.8949168324470520e-01 -3.6566644906997681e-01</leafValues></_>
        <_>
          <internalNodes>
            0 -1 243 4.0434193797409534e-03</internalNodes>
          <leafValues>
            -2.6928883790969849e-01 4.1425019502639771e-01</leafValues></_>
        <_>
          <internalNodes>
            0 -1 89 5.6184292770922184e-04</internalNodes>
          <leafValues>
            -3.2048550248146057e-01 3.1311342120170593e-01</leafValues></_>
        <_>
          <internalNodes>
            0 -1 244 -2.7704521198756993e-04</internalNodes>
          <leafValues>
            -6.5626460313796997e-01 1.4840911328792572e-01</leafValues></_>
        <_>
          <internalNodes>
            0 -1 124 2.3905955255031586e-02</internalNodes>
          <leafValues>
            -3.2696136832237244e-01 2.9858365654945374e-01</leafValues></_>
        <_>
          <internalNodes>
            0 -1 104 -4.5113795204088092e-04</internalNodes>
          <leafValues>
            3.8547372817993164e-01 -2.3295931518077850e-01</leafValues></_>
        <_>
          <internalNodes>
            0 -1 191 -2.1780692040920258e-02</internalNodes>
          <leafValues>
            1.4507032930850983e-01 -6.9580113887786865e-01</leafValues></_>
        <_>
          <internalNodes>
            0 -1 242 -8.1331981346011162e-04</internalNodes>
          <leafValues>
            4.7617441415786743e-01 -2.2441205382347107e-01</leafValues></_>
        <_>
          <internalNodes>
            0 -1 30 -1.8487713532522321e-03</internalNodes>
          <leafValues>
            -6.0003417730331421e-01 1.8150632083415985e-01</leafValues></_></weakClassifiers></_>
    <!-- stage 14 -->
    <_>
      <maxWeakCount>16</maxWeakCount>
      <stageThreshold>-1.3803608417510986e+00</stageThreshold>
      <weakClassifiers>
        <_>
          <internalNodes>
            0 -1 215 -1.4890381135046482e-04</internalNodes>
          <leafValues>
            -6.7338711023330688e-01 3.3546838164329529e-01</leafValues></_>
        <_>
          <internalNodes>
            0 -1 63 1.6903382493183017e-04</internalNodes>
          <leafValues>
            2.2491949796676636e-01 -6.6367018222808838e-01</leafValues></_>
        <_>
          <internalNodes>
            0 -1 63 -1.6269585466943681e-04</internalNodes>
          <leafValues>
            -6.7552185058593750e-01 2.7621051669120789e-01</leafValues></_>
        <_>
          <internalNodes>
            0 -1 51 1.3073892332613468e-03</internalNodes>
          <leafValues>
            -2.8947865962982178e-01 4.5391047000885010e-01</leafValues></_>
        <_>
          <internalNodes>
            0 -1 228 -6.5522626973688602e-03</internalNodes>
          <leafValues>
            3.9733317494392395e-01 -2.7779531478881836e-01</leafValues></_>
        <_>
          <internalNodes>
            0 -1 182 -2.5635142810642719e-04</internalNodes>
          <leafValues>
            1.8726959824562073e-01 -4.6084535121917725e-01</leafValues></_>
        <_>
          <internalNodes>
            0 -1 179 -2.2713086218573153e-04</internalNodes>
          <leafValues>
            -4.9579221010208130e-01 2.0866504311561584e-01</leafValues></_>
        <_>
          <internalNodes>
            0 -1 172 -1.0497478069737554e-04</internalNodes>
          <leafValues>
            4.9033039808273315e-01 -2.0713275671005249e-01</leafValues></_>
        <_>
          <internalNodes>
            0 -1 98 -3.5578687675297260e-03</internalNodes>
          <leafValues>
            3.4665796160697937e-01 -2.9344490170478821e-01</leafValues></_>
        <_>
          <internalNodes>
            0 -1 153 -7.6401076512411237e-04</internalNodes>
          <leafValues>
            -5.1828998327255249e-01 1.9271396100521088e-01</leafValues></_>
        <_>
          <internalNodes>
            0 -1 246 9.7171019297093153e-04</internalNodes>
          <leafValues>
            -3.0415967106819153e-01 2.8937023878097534e-01</leafValues></_>
        <_>
          <internalNodes>
            0 -1 149 8.9812383521348238e-04</internalNodes>
          <leafValues>
            -3.8101097941398621e-01 2.3374773561954498e-01</leafValues></_>
        <_>
          <internalNodes>
            0 -1 17 -6.3659920124337077e-04</internalNodes>
          <leafValues>
            -4.8838818073272705e-01 1.9841141998767853e-01</leafValues></_>
        <_>
          <internalNodes>
            0 -1 55 9.1732916189357638e-04</internalNodes>
          <leafValues>
            -3.0467090010643005e-01 3.0068790912628174e-01</leafValues></_>
        <_>
          <internalNodes>
            0 -1 122 7.8252248466014862e-02</internalNodes>
          <leafValues>
            -3.8729590177536011e-01 2.0880308747291565e-01</leafValues></_>
        <_>
          <internalNodes>
            0 -1 216 4.2274552397429943e-03</internalNodes>
          <leafValues>
            -1.6441869735717773e-01 6.1868166923522949e-01</leafValues></_></weakClassifiers></_>
    <!-- stage 15 -->
    <_>
      <maxWeakCount>17</maxWeakCount>
      <stageThreshold>-1.1783765554428101e+00</stageThreshold>
      <weakClassifiers>
        <_>
          <internalNodes>
            0 -1 14 1.4435516204684973e-03</internalNodes>
          <leafValues>
            3.1034481525421143e-01 -8.0048662424087524e-01</leafValues></_>
        <_>
          <internalNodes>
            0 -1 94 -7.5684260809794068e-04</internalNodes>
          <leafValues>
            -7.8439348936080933e-01 2.5700142979621887e-01</leafValues></_>
        <_>
          <internalNodes>
            0 -1 236 1.7981238488573581e-04</internalNodes>
          <leafValues>
            1.7796896398067474e-01 -5.5345791578292847e-01</leafValues></_>
        <_>
          <internalNodes>
            0 -1 236 -9.6867457614280283e-05</internalNodes>
          <leafValues>
            -5.7936137914657593e-01 2.0140179991722107e-01</leafValues></_>
        <_>
          <internalNodes>
            0 -1 117 -7.5265168561600149e-05</internalNodes>
          <leafValues>
            3.3993062376976013e-01 -2.9046711325645447e-01</leafValues></_>
        <_>
          <internalNodes>
            0 -1 189 -1.7707148566842079e-02</internalNodes>
          <leafValues>
            5.6021094322204590e-01 -1.4583201706409454e-01</leafValues></_>
        <_>
          <internalNodes>
            0 -1 245 1.8850835040211678e-03</internalNodes>
          <leafValues>
            -2.4308727681636810e-01 3.0620086193084717e-01</leafValues></_>
        <_>
          <internalNodes>
            0 -1 68 3.3719360828399658e-02</internalNodes>
          <leafValues>
            -1.6884355247020721e-01 4.5770895481109619e-01</leafValues></_>
        <_>
          <internalNodes>
            0 -1 142 6.0764359659515321e-05</internalNodes>
          <leafValues>
            1.8571479618549347e-01 -4.3249684572219849e-01</leafValues></_>
        <_>
          <internalNodes>
            0 -1 206 1.1501974659040570e-03</internalNodes>
          <leafValues>
            1.1021066457033157e-01 -5.6575411558151245e-01</leafValues></_>
        <_>
          <internalNodes>
            0 -1 204 2.5268860626965761e-03</internalNodes>
          <leafValues>
            -1.2372326105833054e-01 6.6106367111206055e-01</leafValues></_>
        <_>
          <internalNodes>
            0 -1 143 8.7638705736026168e-05</internalNodes>
          <leafValues>
            2.2272844612598419e-01 -3.8255882263183594e-01</leafValues></_>
        <_>
          <internalNodes>
            0 -1 202 -1.2192202731966972e-02</internalNodes>
          <leafValues>
            2.7979794144630432e-01 -2.4814023077487946e-01</leafValues></_>
        <_>
          <internalNodes>
            0 -1 251 5.1532890647649765e-03</internalNodes>
          <leafValues>
            -1.8253087997436523e-01 4.5125412940979004e-01</leafValues></_>
        <_>
          <internalNodes>
            0 -1 26 -2.1066931076347828e-03</internalNodes>
          <leafValues>
            3.4283602237701416e-01 -2.1732991933822632e-01</leafValues></_>
        <_>
          <internalNodes>
            0 -1 0 -3.7191747105680406e-04</internalNodes>
          <leafValues>
            -8.9828568696975708e-01 8.4564402699470520e-02</leafValues></_>
        <_>
          <internalNodes>
            0 -1 210 1.4903487637639046e-02</internalNodes>
          <leafValues>
            -2.3732107877731323e-01 3.1349638104438782e-01</leafValues></_></weakClassifiers></_>
    <!-- stage 16 -->
    <_>
      <maxWeakCount>15</maxWeakCount>
      <stageThreshold>-1.1965776681900024e+00</stageThreshold>
      <weakClassifiers>
        <_>
          <internalNodes>
            0 -1 227 1.6082414367701858e-04</internalNodes>
          <leafValues>
            3.9026471972465515e-01 -6.4808362722396851e-01</leafValues></_>
        <_>
          <internalNodes>
            0 -1 73 5.4209781810641289e-03</internalNodes>
          <leafValues>
            -3.0221450328826904e-01 6.8194025754928589e-01</leafValues></_>
        <_>
          <internalNodes>
            0 -1 225 -1.1220206506550312e-03</internalNodes>
          <leafValues>
            3.6042082309722900e-01 -4.5279607176780701e-01</leafValues></_>
        <_>
          <internalNodes>
            0 -1 227 -4.0344172157347202e-04</internalNodes>
          <leafValues>
            -7.3649823665618896e-01 1.8964402377605438e-01</leafValues></_>
        <_>
          <internalNodes>
            0 -1 102 -2.7295635081827641e-03</internalNodes>
          <leafValues>
            5.0505703687667847e-01 -2.5941225886344910e-01</leafValues></_>
        <_>
          <internalNodes>
            0 -1 21 -1.1581557191675529e-04</internalNodes>
          <leafValues>
            4.7650295495986938e-01 -2.2697068750858307e-01</leafValues></_>
        <_>
          <internalNodes>
            0 -1 185 -2.8132833540439606e-04</internalNodes>
          <leafValues>
            4.4477805495262146e-01 -2.6822066307067871e-01</leafValues></_>
        <_>
          <internalNodes>
            0 -1 199 -2.1123860031366348e-02</internalNodes>
          <leafValues>
            -8.2806003093719482e-01 1.5154071152210236e-01</leafValues></_>
        <_>
          <internalNodes>
            0 -1 53 -2.5865604402497411e-04</internalNodes>
          <leafValues>
            -5.2745020389556885e-01 1.8919828534126282e-01</leafValues></_>
        <_>
          <internalNodes>
            0 -1 4 -1.0868432000279427e-03</internalNodes>
          <leafValues>
            5.8116829395294189e-01 -2.1304941177368164e-01</leafValues></_>
        <_>
          <internalNodes>
            0 -1 56 5.6252372451126575e-04</internalNodes>
          <leafValues>
            2.0017547905445099e-01 -6.1968058347702026e-01</leafValues></_>
        <_>
          <internalNodes>
            0 -1 249 -3.1704504508525133e-03</internalNodes>
          <leafValues>
            7.5121778249740601e-01 -1.6142484545707703e-01</leafValues></_>
        <_>
          <internalNodes>
            0 -1 176 4.5436117798089981e-03</internalNodes>
          <leafValues>
            1.7579236626625061e-01 -6.5440642833709717e-01</leafValues></_>
        <_>
          <internalNodes>
            0 -1 43 -1.2070257216691971e-01</internalNodes>
          <leafValues>
            -9.8215329647064209e-01 7.7875502407550812e-02</leafValues></_>
        <_>
          <internalNodes>
            0 -1 44 -1.9911816707463004e-05</internalNodes>
          <leafValues>
            3.7700632214546204e-01 -2.5445771217346191e-01</leafValues></_></weakClassifiers></_>
    <!-- stage 17 -->
    <_>
      <maxWeakCount>13</maxWeakCount>
      <stageThreshold>-1.4540615081787109e+00</stageThreshold>
      <weakClassifiers>
        <_>
          <internalNodes>
            0 -1 200 -3.2641988946124911e-04</internalNodes>
          <leafValues>
            -6.8654173612594604e-01 4.2141622304916382e-01</leafValues></_>
        <_>
          <internalNodes>
            0 -1 200 1.7541326815262437e-04</internalNodes>
          <leafValues>
            2.4402551352977753e-01 -7.3308527469635010e-01</leafValues></_>
        <_>
          <internalNodes>
            0 -1 160 1.3324915198609233e-03</internalNodes>
          <leafValues>
            -5.5783355236053467e-01 2.9479071497917175e-01</leafValues></_>
        <_>
          <internalNodes>
            0 -1 67 -2.2608917206525803e-03</internalNodes>
          <leafValues>
            -7.1319162845611572e-01 1.7756485939025879e-01</leafValues></_>
        <_>
          <internalNodes>
            0 -1 81 1.0200391989201307e-03</internalNodes>
          <leafValues>
            2.7083456516265869e-01 -5.7473796606063843e-01</leafValues></_>
        <_>
          <internalNodes>
            0 -1 178 -3.8390117697417736e-04</internalNodes>
          <leafValues>
            6.4229619503021240e-01 -2.0226973295211792e-01</leafValues></_>
        <_>
          <internalNodes>
            0 -1 105 1.0670075193047523e-02</internalNodes>
          <leafValues>
            2.2755464911460876e-01 -5.2182435989379883e-01</leafValues></_>
        <_>
          <internalNodes>
            0 -1 135 -2.1873125806450844e-03</internalNodes>
          <leafValues>
            -6.0244029760360718e-01 1.8382889032363892e-01</leafValues></_>
        <_>
          <internalNodes>
            0 -1 219 1.4456756412982941e-02</internalNodes>
          <leafValues>
            -4.2501372098922729e-01 2.2584825754165649e-01</leafValues></_>
        <_>
          <internalNodes>
            0 -1 101 6.4481338486075401e-03</internalNodes>
          <leafValues>
            -4.0711036324501038e-01 3.0813491344451904e-01</leafValues></_>
        <_>
          <internalNodes>
            0 -1 77 -1.1154302046634257e-04</internalNodes>
          <leafValues>
            -5.6975561380386353e-01 1.5406194329261780e-01</leafValues></_>
        <_>
          <internalNodes>
            0 -1 207 -6.7528610816225410e-04</internalNodes>
          <leafValues>
            2.7301692962646484e-01 -3.5398969054222107e-01</leafValues></_>
        <_>
          <internalNodes>
            0 -1 128 -1.1291587725281715e-03</internalNodes>
          <leafValues>
            5.9818404912948608e-01 -1.7372366786003113e-01</leafValues></_></weakClassifiers></_>
    <!-- stage 18 -->
    <_>
      <maxWeakCount>12</maxWeakCount>
      <stageThreshold>-1.5006372928619385e+00</stageThreshold>
      <weakClassifiers>
        <_>
          <internalNodes>
            0 -1 18 1.0021661873906851e-03</internalNodes>
          <leafValues>
            3.9628732204437256e-01 -8.0237156152725220e-01</leafValues></_>
        <_>
          <internalNodes>
            0 -1 23 -4.4891922152601182e-04</internalNodes>
          <leafValues>
            4.6283754706382751e-01 -3.8277214765548706e-01</leafValues></_>
        <_>
          <internalNodes>
            0 -1 5 -6.7667337134480476e-04</internalNodes>
          <leafValues>
            -7.9294663667678833e-01 1.9689790904521942e-01</leafValues></_>
        <_>
          <internalNodes>
            0 -1 70 -2.0222635939717293e-02</internalNodes>
          <leafValues>
            7.0403385162353516e-01 -1.9294403493404388e-01</leafValues></_>
        <_>
          <internalNodes>
            0 -1 214 -3.4409877844154835e-03</internalNodes>
          <leafValues>
            6.0722595453262329e-01 -2.1835580468177795e-01</leafValues></_>
        <_>
          <internalNodes>
            0 -1 192 -7.3653872823342681e-04</internalNodes>
          <leafValues>
            6.2372738122940063e-01 -1.7451433837413788e-01</leafValues></_>
        <_>
          <internalNodes>
            0 -1 168 -1.2689650058746338e-01</internalNodes>
          <leafValues>
            1.9560013711452484e-01 -5.5233675241470337e-01</leafValues></_>
        <_>
          <internalNodes>
            0 -1 252 1.0550092702032998e-04</internalNodes>
          <leafValues>
            -2.9759880900382996e-01 3.4108161926269531e-01</leafValues></_>
        <_>
          <internalNodes>
            0 -1 250 7.5565488077700138e-03</internalNodes>
          <leafValues>
            -1.9488161802291870e-01 5.3097242116928101e-01</leafValues></_>
        <_>
          <internalNodes>
            0 -1 223 -9.1861207038164139e-03</internalNodes>
          <leafValues>
            3.7985205650329590e-01 -2.7906802296638489e-01</leafValues></_>
        <_>
          <internalNodes>
            0 -1 134 1.3460461050271988e-02</internalNodes>
          <leafValues>
            -4.0947410464286804e-01 2.4486245214939117e-01</leafValues></_>
        <_>
          <internalNodes>
            0 -1 171 1.0917528998106718e-03</internalNodes>
          <leafValues>
            -2.5921767950057983e-01 3.8374963402748108e-01</leafValues></_></weakClassifiers></_>
    <!-- stage 19 -->
    <_>
      <maxWeakCount>12</maxWeakCount>
      <stageThreshold>-1.4628061056137085e+00</stageThreshold>
      <weakClassifiers>
        <_>
          <internalNodes>
            0 -1 108 -1.1818511411547661e-03</internalNodes>
          <leafValues>
            5.8947366476058960e-01 -3.6852791905403137e-01</leafValues></_>
        <_>
          <internalNodes>
            0 -1 170 -2.7801474556326866e-02</internalNodes>
          <leafValues>
            5.3534758090972900e-01 -4.4763413071632385e-01</leafValues></_>
        <_>
          <internalNodes>
            0 -1 80 6.8883283529430628e-04</internalNodes>
          <leafValues>
            2.7933964133262634e-01 -6.2172418832778931e-01</leafValues></_>
        <_>
          <internalNodes>
            0 -1 139 7.7931536361575127e-04</internalNodes>
          <leafValues>
            -5.5872857570648193e-01 3.4872823953628540e-01</leafValues></_>
        <_>
          <internalNodes>
            0 -1 119 -5.6731881340965629e-04</internalNodes>
          <leafValues>
            -7.3035514354705811e-01 2.0459710061550140e-01</leafValues></_>
        <_>
          <internalNodes>
            0 -1 24 -1.1960390256717801e-03</internalNodes>
          <leafValues>
            4.3787944316864014e-01 -3.8803899288177490e-01</leafValues></_>
        <_>
          <internalNodes>
            0 -1 254 -1.3169383630156517e-02</internalNodes>
          <leafValues>
            -8.2041931152343750e-01 1.9618760049343109e-01</leafValues></_>
        <_>
          <internalNodes>
            0 -1 186 -2.8408906655386090e-04</internalNodes>
          <leafValues>
            -5.5847316980361938e-01 3.0438515543937683e-01</leafValues></_>
        <_>
          <internalNodes>
            0 -1 112 -4.2629756033420563e-02</internalNodes>
          <leafValues>
            4.3093541264533997e-01 -3.2380336523056030e-01</leafValues></_>
        <_>
          <internalNodes>
            0 -1 103 -1.6804404556751251e-02</internalNodes>
          <leafValues>
            8.0376589298248291e-01 -1.1217761784791946e-01</leafValues></_>
        <_>
          <internalNodes>
            0 -1 146 9.7462907433509827e-04</internalNodes>
          <leafValues>
            2.2850236296653748e-01 -4.9448576569557190e-01</leafValues></_>
        <_>
          <internalNodes>
            0 -1 62 -4.9643521197140217e-04</internalNodes>
          <leafValues>
            3.7955796718597412e-01 -2.8140807151794434e-01</leafValues></_></weakClassifiers></_></stages>
  <features>
    <_>
      <rects>
        <_>
          0 0 2 1 -1.</_>
        <_>
          1 0 1 1 2.</_></rects>
      <tilted>0</tilted></_>
    <_>
      <rects>
        <_>
          0 0 1 4 -1.</_>
        <_>
          0 2 1 2 2.</_></rects>
      <tilted>0</tilted></_>
    <_>
      <rects>
        <_>
          0 0 1 8 -1.</_>
        <_>
          0 4 1 4 2.</_></rects>
      <tilted>0</tilted></_>
    <_>
      <rects>
        <_>
          0 0 1 15 -1.</_>
        <_>
          0 5 1 5 3.</_></rects>
      <tilted>0</tilted></_>
    <_>
      <rects>
        <_>
          0 0 2 10 -1.</_>
        <_>
          0 0 1 5 2.</_>
        <_>
          1 5 1 5 2.</_></rects>
      <tilted>0</tilted></_>
    <_>
      <rects>
        <_>
          0 0 1 12 -1.</_>
        <_>
          0 6 1 6 2.</_></rects>
      <tilted>0</tilted></_>
    <_>
      <rects>
        <_>
          0 0 1 18 -1.</_>
        <_>
          0 9 1 9 2.</_></rects>
      <tilted>0</tilted></_>
    <_>
      <rects>
        <_>
          0 0 1 27 -1.</_>
        <_>
          0 9 1 9 3.</_></rects>
      <tilted>0</tilted></_>
    <_>
      <rects>
        <_>
          0 0 1 22 -1.</_>
        <_>
          0 11 1 11 2.</_></rects>
      <tilted>0</tilted></_>
    <_>
      <rects>
        <_>
          0 0 1 26 -1.</_>
        <_>
          0 13 1 13 2.</_></rects>
      <tilted>0</tilted></_>
    <_>
      <rects>
        <_>
          0 0 1 28 -1.</_>
        <_>
          0 14 1 14 2.</_></rects>
      <tilted>0</tilted></_>
    <_>
      <rects>
        <_>
          0 0 1 30 -1.</_>
        <_>
          0 15 1 15 2.</_></rects>
      <tilted>0</tilted></_>
    <_>
      <rects>
        <_>
          0 0 18 1 -1.</_>
        <_>
          6 0 6 1 3.</_></rects>
      <tilted>0</tilted></_>
    <_>
      <rects>
        <_>
          0 0 20 2 -1.</_>
        <_>
          0 0 10 1 2.</_>
        <_>
          10 1 10 1 2.</_></rects>
      <tilted>0</tilted></_>
    <_>
      <rects>
        <_>
          0 0 22 1 -1.</_>
        <_>
          11 0 11 1 2.</_></rects>
      <tilted>0</tilted></_>
    <_>
      <rects>
        <_>
          0 0 32 30 -1.</_>
        <_>
          16 0 16 30 2.</_></rects>
      <tilted>0</tilted></_>
    <_>
      <rects>
        <_>
          0 1 1 9 -1.</_>
        <_>
          0 4 1 3 3.</_></rects>
      <tilted>0</tilted></_>
    <_>
      <rects>
        <_>
          0 1 1 15 -1.</_>
        <_>
          0 6 1 5 3.</_></rects>
      <tilted>0</tilted></_>
    <_>
      <rects>
        <_>
          0 1 1 16 -1.</_>
        <_>
          0 9 1 8 2.</_></rects>
      <tilted>0</tilted></_>
    <_>
      <rects>
        <_>
          0 1 1 22 -1.</_>
        <_>
          0 12 1 11 2.</_></rects>
      <tilted>0</tilted></_>
    <_>
      <rects>
        <_>
          0 1 1 30 -1.</_>
        <_>
          0 16 1 15 2.</_></rects>
      <tilted>0</tilted></_>
    <_>
      <rects>
        <_>
          0 2 2 1 -1.</_>
        <_>
          1 2 1 1 2.</_></rects>
      <tilted>0</tilted></_>
    <_>
      <rects>
        <_>
          0 2 1 30 -1.</_>
        <_>
          0 17 1 15 2.</_></rects>
      <tilted>0</tilted></_>
    <_>
      <rects>
        <_>
          0 2 4 2 -1.</_>
        <_>
          2 2 2 2 2.</_></rects>
      <tilted>0</tilted></_>
    <_>
      <rects>
        <_>
          0 2 6 5 -1.</_>
        <_>
          2 2 2 5 3.</_></rects>
      <tilted>0</tilted></_>
    <_>
      <rects>
        <_>
          0 3 1 27 -1.</_>
        <_>
          0 12 1 9 3.</_></rects>
      <tilted>0</tilted></_>
    <_>
      <rects>
        <_>
          0 3 8 6 -1.</_>
        <_>
          0 5 8 2 3.</_></rects>
      <tilted>0</tilted></_>
    <_>
      <rects>
        <_>
          0 4 1 24 -1.</_>
        <_>
          0 12 1 8 3.</_></rects>
      <tilted>0</tilted></_>
    <_>
      <rects>
        <_>
          0 4 18 22 -1.</_>
        <_>
          0 4 9 11 2.</_>
        <_>
          9 15 9 11 2.</_></rects>
      <tilted>0</tilted></_>
    <_>
      <rects>
        <_>
          0 5 3 25 -1.</_>
        <_>
          1 5 1 25 3.</_></rects>
      <tilted>0</tilted></_>
    <_>
      <rects>
        <_>
          0 6 1 26 -1.</_>
        <_>
          0 19 1 13 2.</_></rects>
      <tilted>0</tilted></_>
    <_>
      <rects>
        <_>
          0 7 1 18 -1.</_>
        <_>
          0 13 1 6 3.</_></rects>
      <tilted>0</tilted></_>
    <_>
      <rects>
        <_>
          0 8 1 24 -1.</_>
        <_>
          0 16 1 8 3.</_></rects>
      <tilted>0</tilted></_>
    <_>
      <rects>
        <_>
          0 8 1 24 -1.</_>
        <_>
          0 20 1 12 2.</_></rects>
      <tilted>0</tilted></_>
    <_>
      <rects>
        <_>
          0 9 1 18 -1.</_>
        <_>
          0 18 1 9 2.</_></rects>
      <tilted>0</tilted></_>
    <_>
      <rects>
        <_>
          0 9 1 22 -1.</_>
        <_>
          0 20 1 11 2.</_></rects>
      <tilted>0</tilted></_>
    <_>
      <rects>
        <_>
          0 12 1 18 -1.</_>
        <_>
          0 18 1 6 3.</_></rects>
      <tilted>0</tilted></_>
    <_>
      <rects>
        <_>
          0 14 1 8 -1.</_>
        <_>
          0 18 1 4 2.</_></rects>
      <tilted>0</tilted></_>
    <_>
      <rects>
        <_>
          0 14 1 18 -1.</_>
        <_>
          0 20 1 6 3.</_></rects>
      <tilted>0</tilted></_>
    <_>
      <rects>
        <_>
          0 15 1 4 -1.</_>
        <_>
          0 17 1 2 2.</_></rects>
      <tilted>0</tilted></_>
    <_>
      <rects>
        <_>
          0 15 1 6 -1.</_>
        <_>
          0 18 1 3 2.</_></rects>
      <tilted>0</tilted></_>
    <_>
      <rects>
        <_>
          0 15 1 15 -1.</_>
        <_>
          0 20 1 5 3.</_></rects>
      <tilted>0</tilted></_>
    <_>
      <rects>
        <_>
          0 15 1 16 -1.</_>
        <_>
          0 23 1 8 2.</_></rects>
      <tilted>0</tilted></_>
    <_>
      <rects>
        <_>
          0 16 30 8 -1.</_>
        <_>
          15 16 15 8 2.</_></rects>
      <tilted>0</tilted></_>
    <_>
      <rects>
        <_>
          0 18 2 1 -1.</_>
        <_>
          1 18 1 1 2.</_></rects>
      <tilted>0</tilted></_>
    <_>
      <rects>
        <_>
          0 18 2 14 -1.</_>
        <_>
          1 18 1 14 2.</_></rects>
      <tilted>0</tilted></_>
    <_>
      <rects>
        <_>
          0 19 1 12 -1.</_>
        <_>
          0 25 1 6 2.</_></rects>
      <tilted>0</tilted></_>
    <_>
      <rects>
        <_>
          0 19 32 10 -1.</_>
        <_>
          16 19 16 10 2.</_></rects>
      <tilted>0</tilted></_>
    <_>
      <rects>
        <_>
          0 19 27 12 -1.</_>
        <_>
          0 23 27 4 3.</_></rects>
      <tilted>0</tilted></_>
    <_>
      <rects>
        <_>
          0 20 1 12 -1.</_>
        <_>
          0 26 1 6 2.</_></rects>
      <tilted>0</tilted></_>
    <_>
      <rects>
        <_>
          0 21 32 10 -1.</_>
        <_>
          0 26 32 5 2.</_></rects>
      <tilted>0</tilted></_>
    <_>
      <rects>
        <_>
          0 23 2 9 -1.</_>
        <_>
          1 23 1 9 2.</_></rects>
      <tilted>0</tilted></_>
    <_>
      <rects>
        <_>
          0 24 1 4 -1.</_>
        <_>
          0 26 1 2 2.</_></rects>
      <tilted>0</tilted></_>
    <_>
      <rects>
        <_>
          0 24 1 8 -1.</_>
        <_>
          0 28 1 4 2.</_></rects>
      <tilted>0</tilted></_>
    <_>
      <rects>
        <_>
          0 24 2 8 -1.</_>
        <_>
          1 24 1 8 2.</_></rects>
      <tilted>0</tilted></_>
    <_>
      <rects>
        <_>
          0 24 12 4 -1.</_>
        <_>
          0 24 6 2 2.</_>
        <_>
          6 26 6 2 2.</_></rects>
      <tilted>0</tilted></_>
    <_>
      <rects>
        <_>
          0 25 1 4 -1.</_>
        <_>
          0 27 1 2 2.</_></rects>
      <tilted>0</tilted></_>
    <_>
      <rects>
        <_>
          0 25 1 6 -1.</_>
        <_>
          0 27 1 2 3.</_></rects>
      <tilted>0</tilted></_>
    <_>
      <rects>
        <_>
          0 26 1 6 -1.</_>
        <_>
          0 29 1 3 2.</_></rects>
      <tilted>0</tilted></_>
    <_>
      <rects>
        <_>
          0 28 2 4 -1.</_>
        <_>
          1 28 1 4 2.</_></rects>
      <tilted>0</tilted></_>
    <_>
      <rects>
        <_>
          0 28 4 4 -1.</_>
        <_>
          2 28 2 4 2.</_></rects>
      <tilted>0</tilted></_>
    <_>
      <rects>
        <_>
          0 29 31 3 -1.</_>
        <_>
          0 30 31 1 3.</_></rects>
      <tilted>0</tilted></_>
    <_>
      <rects>
        <_>
          1 0 2 6 -1.</_>
        <_>
          1 2 2 2 3.</_></rects>
      <tilted>0</tilted></_>
    <_>
      <rects>
        <_>
          1 0 8 1 -1.</_>
        <_>
          5 0 4 1 2.</_></rects>
      <tilted>0</tilted></_>
    <_>
      <rects>
        <_>
          1 0 12 1 -1.</_>
        <_>
          5 0 4 1 3.</_></rects>
      <tilted>0</tilted></_>
    <_>
      <rects>
        <_>
          1 0 27 15 -1.</_>
        <_>
          10 0 9 15 3.</_></rects>
      <tilted>0</tilted></_>
    <_>
      <rects>
        <_>
          1 0 22 1 -1.</_>
        <_>
          12 0 11 1 2.</_></rects>
      <tilted>0</tilted></_>
    <_>
      <rects>
        <_>
          1 0 30 1 -1.</_>
        <_>
          16 0 15 1 2.</_></rects>
      <tilted>0</tilted></_>
    <_>
      <rects>
        <_>
          1 3 16 6 -1.</_>
        <_>
          1 3 8 3 2.</_>
        <_>
          9 6 8 3 2.</_></rects>
      <tilted>0</tilted></_>
    <_>
      <rects>
        <_>
          1 4 30 5 -1.</_>
        <_>
          11 4 10 5 3.</_></rects>
      <tilted>0</tilted></_>
    <_>
      <rects>
        <_>
          1 11 9 11 -1.</_>
        <_>
          4 11 3 11 3.</_></rects>
      <tilted>0</tilted></_>
    <_>
      <rects>
        <_>
          1 17 30 15 -1.</_>
        <_>
          16 17 15 15 2.</_></rects>
      <tilted>0</tilted></_>
    <_>
      <rects>
        <_>
          1 20 30 12 -1.</_>
        <_>
          16 20 15 12 2.</_></rects>
      <tilted>0</tilted></_>
    <_>
      <rects>
        <_>
          1 29 12 3 -1.</_>
        <_>
          1 30 12 1 3.</_></rects>
      <tilted>0</tilted></_>
    <_>
      <rects>
        <_>
          1 30 4 2 -1.</_>
        <_>
          1 31 4 1 2.</_></rects>
      <tilted>0</tilted></_>
    <_>
      <rects>
        <_>
          1 30 10 2 -1.</_>
        <_>
          1 31 10 1 2.</_></rects>
      <tilted>0</tilted></_>
    <_>
      <rects>
        <_>
          1 30 31 2 -1.</_>
        <_>
          1 31 31 1 2.</_></rects>
      <tilted>0</tilted></_>
    <_>
      <rects>
        <_>
          2 0 4 1 -1.</_>
        <_>
          4 0 2 1 2.</_></rects>
      <tilted>0</tilted></_>
    <_>
      <rects>
        <_>
          2 0 18 1 -1.</_>
        <_>
          11 0 9 1 2.</_></rects>
      <tilted>0</tilted></_>
    <_>
      <rects>
        <_>
          2 0 22 1 -1.</_>
        <_>
          13 0 11 1 2.</_></rects>
      <tilted>0</tilted></_>
    <_>
      <rects>
        <_>
          2 0 24 1 -1.</_>
        <_>
          14 0 12 1 2.</_></rects>
      <tilted>0</tilted></_>
    <_>
      <rects>
        <_>
          2 0 30 1 -1.</_>
        <_>
          17 0 15 1 2.</_></rects>
      <tilted>0</tilted></_>
    <_>
      <rects>
        <_>
          2 1 27 9 -1.</_>
        <_>
          11 1 9 9 3.</_></rects>
      <tilted>0</tilted></_>
    <_>
      <rects>
        <_>
          2 2 16 30 -1.</_>
        <_>
          2 2 8 15 2.</_>
        <_>
          10 17 8 15 2.</_></rects>
      <tilted>0</tilted></_>
    <_>
      <rects>
        <_>
          2 5 22 20 -1.</_>
        <_>
          2 15 22 10 2.</_></rects>
      <tilted>0</tilted></_>
    <_>
      <rects>
        <_>
          2 6 8 18 -1.</_>
        <_>
          2 6 4 9 2.</_>
        <_>
          6 15 4 9 2.</_></rects>
      <tilted>0</tilted></_>
    <_>
      <rects>
        <_>
          2 9 15 4 -1.</_>
        <_>
          7 9 5 4 3.</_></rects>
      <tilted>0</tilted></_>
    <_>
      <rects>
        <_>
          2 9 30 9 -1.</_>
        <_>
          17 9 15 9 2.</_></rects>
      <tilted>0</tilted></_>
    <_>
      <rects>
        <_>
          2 15 16 16 -1.</_>
        <_>
          2 15 8 8 2.</_>
        <_>
          10 23 8 8 2.</_></rects>
      <tilted>0</tilted></_>
    <_>
      <rects>
        <_>
          2 22 1 10 -1.</_>
        <_>
          2 27 1 5 2.</_></rects>
      <tilted>0</tilted></_>
    <_>
      <rects>
        <_>
          2 27 8 2 -1.</_>
        <_>
          2 28 8 1 2.</_></rects>
      <tilted>0</tilted></_>
    <_>
      <rects>
        <_>
          2 28 30 3 -1.</_>
        <_>
          12 28 10 3 3.</_></rects>
      <tilted>0</tilted></_>
    <_>
      <rects>
        <_>
          3 0 2 2 -1.</_>
        <_>
          3 1 2 1 2.</_></rects>
      <tilted>0</tilted></_>
    <_>
      <rects>
        <_>
          3 0 24 17 -1.</_>
        <_>
          11 0 8 17 3.</_></rects>
      <tilted>0</tilted></_>
    <_>
      <rects>
        <_>
          3 0 20 1 -1.</_>
        <_>
          13 0 10 1 2.</_></rects>
      <tilted>0</tilted></_>
    <_>
      <rects>
        <_>
          3 0 17 6 -1.</_>
        <_>
          3 2 17 2 3.</_></rects>
      <tilted>0</tilted></_>
    <_>
      <rects>
        <_>
          3 0 24 6 -1.</_>
        <_>
          3 3 24 3 2.</_></rects>
      <tilted>0</tilted></_>
    <_>
      <rects>
        <_>
          3 1 26 9 -1.</_>
        <_>
          16 1 13 9 2.</_></rects>
      <tilted>0</tilted></_>
    <_>
      <rects>
        <_>
          3 2 6 8 -1.</_>
        <_>
          5 2 2 8 3.</_></rects>
      <tilted>0</tilted></_>
    <_>
      <rects>
        <_>
          3 3 6 28 -1.</_>
        <_>
          3 3 3 14 2.</_>
        <_>
          6 17 3 14 2.</_></rects>
      <tilted>0</tilted></_>
    <_>
      <rects>
        <_>
          3 6 4 16 -1.</_>
        <_>
          3 6 2 8 2.</_>
        <_>
          5 14 2 8 2.</_></rects>
      <tilted>0</tilted></_>
    <_>
      <rects>
        <_>
          3 6 8 12 -1.</_>
        <_>
          3 10 8 4 3.</_></rects>
      <tilted>0</tilted></_>
    <_>
      <rects>
        <_>
          3 11 6 2 -1.</_>
        <_>
          5 11 2 2 3.</_></rects>
      <tilted>0</tilted></_>
    <_>
      <rects>
        <_>
          3 11 6 16 -1.</_>
        <_>
          5 11 2 16 3.</_></rects>
      <tilted>0</tilted></_>
    <_>
      <rects>
        <_>
          3 22 3 5 -1.</_>
        <_>
          4 22 1 5 3.</_></rects>
      <tilted>0</tilted></_>
    <_>
      <rects>
        <_>
          3 24 26 6 -1.</_>
        <_>
          3 24 13 3 2.</_>
        <_>
          16 27 13 3 2.</_></rects>
      <tilted>0</tilted></_>
    <_>
      <rects>
        <_>
          3 25 24 3 -1.</_>
        <_>
          11 25 8 3 3.</_></rects>
      <tilted>0</tilted></_>
    <_>
      <rects>
        <_>
          3 29 8 3 -1.</_>
        <_>
          3 30 8 1 3.</_></rects>
      <tilted>0</tilted></_>
    <_>
      <rects>
        <_>
          3 30 4 2 -1.</_>
        <_>
          3 31 4 1 2.</_></rects>
      <tilted>0</tilted></_>
    <_>
      <rects>
        <_>
          4 0 21 1 -1.</_>
        <_>
          11 0 7 1 3.</_></rects>
      <tilted>0</tilted></_>
    <_>
      <rects>
        <_>
          4 4 18 8 -1.</_>
        <_>
          4 4 9 4 2.</_>
        <_>
          13 8 9 4 2.</_></rects>
      <tilted>0</tilted></_>
    <_>
      <rects>
        <_>
          4 7 11 20 -1.</_>
        <_>
          4 17 11 10 2.</_></rects>
      <tilted>0</tilted></_>
    <_>
      <rects>
        <_>
          4 9 16 12 -1.</_>
        <_>
          4 13 16 4 3.</_></rects>
      <tilted>0</tilted></_>
    <_>
      <rects>
        <_>
          4 10 6 22 -1.</_>
        <_>
          4 10 3 11 2.</_>
        <_>
          7 21 3 11 2.</_></rects>
      <tilted>0</tilted></_>
    <_>
      <rects>
        <_>
          4 20 10 3 -1.</_>
        <_>
          4 21 10 1 3.</_></rects>
      <tilted>0</tilted></_>
    <_>
      <rects>
        <_>
          4 22 6 8 -1.</_>
        <_>
          6 22 2 8 3.</_></rects>
      <tilted>0</tilted></_>
    <_>
      <rects>
        <_>
          4 23 20 5 -1.</_>
        <_>
          14 23 10 5 2.</_></rects>
      <tilted>0</tilted></_>
    <_>
      <rects>
        <_>
          5 0 1 2 -1.</_>
        <_>
          5 1 1 1 2.</_></rects>
      <tilted>0</tilted></_>
    <_>
      <rects>
        <_>
          5 0 12 1 -1.</_>
        <_>
          9 0 4 1 3.</_></rects>
      <tilted>0</tilted></_>
    <_>
      <rects>
        <_>
          5 0 12 1 -1.</_>
        <_>
          11 0 6 1 2.</_></rects>
      <tilted>0</tilted></_>
    <_>
      <rects>
        <_>
          5 0 24 7 -1.</_>
        <_>
          13 0 8 7 3.</_></rects>
      <tilted>0</tilted></_>
    <_>
      <rects>
        <_>
          5 1 12 8 -1.</_>
        <_>
          5 1 6 4 2.</_>
        <_>
          11 5 6 4 2.</_></rects>
      <tilted>0</tilted></_>
    <_>
      <rects>
        <_>
          5 1 11 21 -1.</_>
        <_>
          5 8 11 7 3.</_></rects>
      <tilted>0</tilted></_>
    <_>
      <rects>
        <_>
          5 3 10 9 -1.</_>
        <_>
          10 3 5 9 2.</_></rects>
      <tilted>0</tilted></_>
    <_>
      <rects>
        <_>
          5 5 9 12 -1.</_>
        <_>
          5 9 9 4 3.</_></rects>
      <tilted>0</tilted></_>
    <_>
      <rects>
        <_>
          5 7 13 2 -1.</_>
        <_>
          5 8 13 1 2.</_></rects>
      <tilted>0</tilted></_>
    <_>
      <rects>
        <_>
          5 21 7 10 -1.</_>
        <_>
          5 26 7 5 2.</_></rects>
      <tilted>0</tilted></_>
    <_>
      <rects>
        <_>
          5 22 27 6 -1.</_>
        <_>
          14 22 9 6 3.</_></rects>
      <tilted>0</tilted></_>
    <_>
      <rects>
        <_>
          5 26 6 2 -1.</_>
        <_>
          5 26 3 1 2.</_>
        <_>
          8 27 3 1 2.</_></rects>
      <tilted>0</tilted></_>
    <_>
      <rects>
        <_>
          6 0 10 18 -1.</_>
        <_>
          6 6 10 6 3.</_></rects>
      <tilted>0</tilted></_>
    <_>
      <rects>
        <_>
          6 1 10 6 -1.</_>
        <_>
          6 1 5 3 2.</_>
        <_>
          11 4 5 3 2.</_></rects>
      <tilted>0</tilted></_>
    <_>
      <rects>
        <_>
          6 5 6 9 -1.</_>
        <_>
          9 5 3 9 2.</_></rects>
      <tilted>0</tilted></_>
    <_>
      <rects>
        <_>
          6 14 3 9 -1.</_>
        <_>
          7 14 1 9 3.</_></rects>
      <tilted>0</tilted></_>
    <_>
      <rects>
        <_>
          6 21 2 6 -1.</_>
        <_>
          6 24 2 3 2.</_></rects>
      <tilted>0</tilted></_>
    <_>
      <rects>
        <_>
          7 0 6 14 -1.</_>
        <_>
          10 0 3 14 2.</_></rects>
      <tilted>0</tilted></_>
    <_>
      <rects>
        <_>
          7 0 24 1 -1.</_>
        <_>
          19 0 12 1 2.</_></rects>
      <tilted>0</tilted></_>
    <_>
      <rects>
        <_>
          7 1 4 13 -1.</_>
        <_>
          9 1 2 13 2.</_></rects>
      <tilted>0</tilted></_>
    <_>
      <rects>
        <_>
          8 0 12 8 -1.</_>
        <_>
          14 0 6 8 2.</_></rects>
      <tilted>0</tilted></_>
    <_>
      <rects>
        <_>
          8 1 9 18 -1.</_>
        <_>
          8 7 9 6 3.</_></rects>
      <tilted>0</tilted></_>
    <_>
      <rects>
        <_>
          8 2 2 10 -1.</_>
        <_>
          9 2 1 10 2.</_></rects>
      <tilted>0</tilted></_>
    <_>
      <rects>
        <_>
          8 4 22 22 -1.</_>
        <_>
          8 4 11 11 2.</_>
        <_>
          19 15 11 11 2.</_></rects>
      <tilted>0</tilted></_>
    <_>
      <rects>
        <_>
          8 19 4 5 -1.</_>
        <_>
          10 19 2 5 2.</_></rects>
      <tilted>0</tilted></_>
    <_>
      <rects>
        <_>
          9 0 3 1 -1.</_>
        <_>
          10 0 1 1 3.</_></rects>
      <tilted>0</tilted></_>
    <_>
      <rects>
        <_>
          9 0 6 1 -1.</_>
        <_>
          12 0 3 1 2.</_></rects>
      <tilted>0</tilted></_>
    <_>
      <rects>
        <_>
          9 4 14 3 -1.</_>
        <_>
          9 5 14 1 3.</_></rects>
      <tilted>0</tilted></_>
    <_>
      <rects>
        <_>
          9 14 1 2 -1.</_>
        <_>
          9 15 1 1 2.</_></rects>
      <tilted>0</tilted></_>
    <_>
      <rects>
        <_>
          10 0 20 1 -1.</_>
        <_>
          20 0 10 1 2.</_></rects>
      <tilted>0</tilted></_>
    <_>
      <rects>
        <_>
          10 0 12 18 -1.</_>
        <_>
          10 6 12 6 3.</_></rects>
      <tilted>0</tilted></_>
    <_>
      <rects>
        <_>
          10 0 16 10 -1.</_>
        <_>
          10 5 16 5 2.</_></rects>
      <tilted>0</tilted></_>
    <_>
      <rects>
        <_>
          10 1 2 8 -1.</_>
        <_>
          11 1 1 8 2.</_></rects>
      <tilted>0</tilted></_>
    <_>
      <rects>
        <_>
          10 2 4 8 -1.</_>
        <_>
          12 2 2 8 2.</_></rects>
      <tilted>0</tilted></_>
    <_>
      <rects>
        <_>
          10 2 8 15 -1.</_>
        <_>
          10 7 8 5 3.</_></rects>
      <tilted>0</tilted></_>
    <_>
      <rects>
        <_>
          10 5 18 12 -1.</_>
        <_>
          19 5 9 12 2.</_></rects>
      <tilted>0</tilted></_>
    <_>
      <rects>
        <_>
          10 11 3 4 -1.</_>
        <_>
          11 11 1 4 3.</_></rects>
      <tilted>0</tilted></_>
    <_>
      <rects>
        <_>
          11 0 10 1 -1.</_>
        <_>
          16 0 5 1 2.</_></rects>
      <tilted>0</tilted></_>
    <_>
      <rects>
        <_>
          11 0 18 18 -1.</_>
        <_>
          11 6 18 6 3.</_></rects>
      <tilted>0</tilted></_>
    <_>
      <rects>
        <_>
          11 1 12 6 -1.</_>
        <_>
          11 4 12 3 2.</_></rects>
      <tilted>0</tilted></_>
    <_>
      <rects>
        <_>
          11 1 14 15 -1.</_>
        <_>
          11 6 14 5 3.</_></rects>
      <tilted>0</tilted></_>
    <_>
      <rects>
        <_>
          11 2 6 4 -1.</_>
        <_>
          14 2 3 4 2.</_></rects>
      <tilted>0</tilted></_>
    <_>
      <rects>
        <_>
          11 3 12 3 -1.</_>
        <_>
          15 3 4 3 3.</_></rects>
      <tilted>0</tilted></_>
    <_>
      <rects>
        <_>
          11 4 6 3 -1.</_>
        <_>
          14 4 3 3 2.</_></rects>
      <tilted>0</tilted></_>
    <_>
      <rects>
        <_>
          11 4 12 24 -1.</_>
        <_>
          11 16 12 12 2.</_></rects>
      <tilted>0</tilted></_>
    <_>
      <rects>
        <_>
          11 5 9 20 -1.</_>
        <_>
          11 15 9 10 2.</_></rects>
      <tilted>0</tilted></_>
    <_>
      <rects>
        <_>
          11 6 10 11 -1.</_>
        <_>
          16 6 5 11 2.</_></rects>
      <tilted>0</tilted></_>
    <_>
      <rects>
        <_>
          11 21 7 4 -1.</_>
        <_>
          11 23 7 2 2.</_></rects>
      <tilted>0</tilted></_>
    <_>
      <rects>
        <_>
          12 0 16 32 -1.</_>
        <_>
          12 0 8 16 2.</_>
        <_>
          20 16 8 16 2.</_></rects>
      <tilted>0</tilted></_>
    <_>
      <rects>
        <_>
          12 0 20 1 -1.</_>
        <_>
          22 0 10 1 2.</_></rects>
      <tilted>0</tilted></_>
    <_>
      <rects>
        <_>
          12 0 11 6 -1.</_>
        <_>
          12 2 11 2 3.</_></rects>
      <tilted>0</tilted></_>
    <_>
      <rects>
        <_>
          12 0 14 32 -1.</_>
        <_>
          12 16 14 16 2.</_></rects>
      <tilted>0</tilted></_>
    <_>
      <rects>
        <_>
          12 1 12 6 -1.</_>
        <_>
          12 3 12 2 3.</_></rects>
      <tilted>0</tilted></_>
    <_>
      <rects>
        <_>
          12 5 20 2 -1.</_>
        <_>
          22 5 10 2 2.</_></rects>
      <tilted>0</tilted></_>
    <_>
      <rects>
        <_>
          12 23 20 2 -1.</_>
        <_>
          12 23 10 1 2.</_>
        <_>
          22 24 10 1 2.</_></rects>
      <tilted>0</tilted></_>
    <_>
      <rects>
        <_>
          13 0 1 2 -1.</_>
        <_>
          13 1 1 1 2.</_></rects>
      <tilted>0</tilted></_>
    <_>
      <rects>
        <_>
          13 0 14 15 -1.</_>
        <_>
          13 5 14 5 3.</_></rects>
      <tilted>0</tilted></_>
    <_>
      <rects>
        <_>
          13 1 2 5 -1.</_>
        <_>
          14 1 1 5 2.</_></rects>
      <tilted>0</tilted></_>
    <_>
      <rects>
        <_>
          13 5 8 26 -1.</_>
        <_>
          17 5 4 26 2.</_></rects>
      <tilted>0</tilted></_>
    <_>
      <rects>
        <_>
          13 24 6 6 -1.</_>
        <_>
          15 24 2 6 3.</_></rects>
      <tilted>0</tilted></_>
    <_>
      <rects>
        <_>
          13 24 18 3 -1.</_>
        <_>
          22 24 9 3 2.</_></rects>
      <tilted>0</tilted></_>
    <_>
      <rects>
        <_>
          14 0 2 2 -1.</_>
        <_>
          14 1 2 1 2.</_></rects>
      <tilted>0</tilted></_>
    <_>
      <rects>
        <_>
          14 0 9 1 -1.</_>
        <_>
          17 0 3 1 3.</_></rects>
      <tilted>0</tilted></_>
    <_>
      <rects>
        <_>
          14 0 12 15 -1.</_>
        <_>
          14 5 12 5 3.</_></rects>
      <tilted>0</tilted></_>
    <_>
      <rects>
        <_>
          14 1 7 3 -1.</_>
        <_>
          14 2 7 1 3.</_></rects>
      <tilted>0</tilted></_>
    <_>
      <rects>
        <_>
          14 13 6 7 -1.</_>
        <_>
          17 13 3 7 2.</_></rects>
      <tilted>0</tilted></_>
    <_>
      <rects>
        <_>
          14 14 18 5 -1.</_>
        <_>
          20 14 6 5 3.</_></rects>
      <tilted>0</tilted></_>
    <_>
      <rects>
        <_>
          14 24 6 4 -1.</_>
        <_>
          16 24 2 4 3.</_></rects>
      <tilted>0</tilted></_>
    <_>
      <rects>
        <_>
          14 29 2 3 -1.</_>
        <_>
          14 30 2 1 3.</_></rects>
      <tilted>0</tilted></_>
    <_>
      <rects>
        <_>
          15 0 14 1 -1.</_>
        <_>
          22 0 7 1 2.</_></rects>
      <tilted>0</tilted></_>
    <_>
      <rects>
        <_>
          15 1 14 4 -1.</_>
        <_>
          15 1 7 2 2.</_>
        <_>
          22 3 7 2 2.</_></rects>
      <tilted>0</tilted></_>
    <_>
      <rects>
        <_>
          15 2 4 4 -1.</_>
        <_>
          17 2 2 4 2.</_></rects>
      <tilted>0</tilted></_>
    <_>
      <rects>
        <_>
          15 2 12 4 -1.</_>
        <_>
          15 2 6 2 2.</_>
        <_>
          21 4 6 2 2.</_></rects>
      <tilted>0</tilted></_>
    <_>
      <rects>
        <_>
          15 20 10 12 -1.</_>
        <_>
          15 24 10 4 3.</_></rects>
      <tilted>0</tilted></_>
    <_>
      <rects>
        <_>
          16 0 3 28 -1.</_>
        <_>
          16 14 3 14 2.</_></rects>
      <tilted>0</tilted></_>
    <_>
      <rects>
        <_>
          16 0 4 2 -1.</_>
        <_>
          16 1 4 1 2.</_></rects>
      <tilted>0</tilted></_>
    <_>
      <rects>
        <_>
          16 0 16 1 -1.</_>
        <_>
          24 0 8 1 2.</_></rects>
      <tilted>0</tilted></_>
    <_>
      <rects>
        <_>
          16 3 10 24 -1.</_>
        <_>
          16 15 10 12 2.</_></rects>
      <tilted>0</tilted></_>
    <_>
      <rects>
        <_>
          16 12 2 5 -1.</_>
        <_>
          17 12 1 5 2.</_></rects>
      <tilted>0</tilted></_>
    <_>
      <rects>
        <_>
          16 14 8 8 -1.</_>
        <_>
          20 14 4 8 2.</_></rects>
      <tilted>0</tilted></_>
    <_>
      <rects>
        <_>
          16 15 7 4 -1.</_>
        <_>
          16 17 7 2 2.</_></rects>
      <tilted>0</tilted></_>
    <_>
      <rects>
        <_>
          16 26 2 5 -1.</_>
        <_>
          17 26 1 5 2.</_></rects>
      <tilted>0</tilted></_>
    <_>
      <rects>
        <_>
          17 0 4 16 -1.</_>
        <_>
          19 0 2 16 2.</_></rects>
      <tilted>0</tilted></_>
    <_>
      <rects>
        <_>
          17 0 12 1 -1.</_>
        <_>
          21 0 4 1 3.</_></rects>
      <tilted>0</tilted></_>
    <_>
      <rects>
        <_>
          17 0 11 12 -1.</_>
        <_>
          17 4 11 4 3.</_></rects>
      <tilted>0</tilted></_>
    <_>
      <rects>
        <_>
          17 1 8 6 -1.</_>
        <_>
          21 1 4 6 2.</_></rects>
      <tilted>0</tilted></_>
    <_>
      <rects>
        <_>
          17 25 3 2 -1.</_>
        <_>
          18 25 1 2 3.</_></rects>
      <tilted>0</tilted></_>
    <_>
      <rects>
        <_>
          18 3 8 2 -1.</_>
        <_>
          18 3 4 1 2.</_>
        <_>
          22 4 4 1 2.</_></rects>
      <tilted>0</tilted></_>
    <_>
      <rects>
        <_>
          18 4 7 3 -1.</_>
        <_>
          18 5 7 1 3.</_></rects>
      <tilted>0</tilted></_>
    <_>
      <rects>
        <_>
          18 6 3 5 -1.</_>
        <_>
          19 6 1 5 3.</_></rects>
      <tilted>0</tilted></_>
    <_>
      <rects>
        <_>
          18 8 8 2 -1.</_>
        <_>
          18 9 8 1 2.</_></rects>
      <tilted>0</tilted></_>
    <_>
      <rects>
        <_>
          18 10 4 7 -1.</_>
        <_>
          20 10 2 7 2.</_></rects>
      <tilted>0</tilted></_>
    <_>
      <rects>
        <_>
          18 11 4 1 -1.</_>
        <_>
          20 11 2 1 2.</_></rects>
      <tilted>0</tilted></_>
    <_>
      <rects>
        <_>
          18 19 14 12 -1.</_>
        <_>
          18 19 7 6 2.</_>
        <_>
          25 25 7 6 2.</_></rects>
      <tilted>0</tilted></_>
    <_>
      <rects>
        <_>
          18 21 14 11 -1.</_>
        <_>
          25 21 7 11 2.</_></rects>
      <tilted>0</tilted></_>
    <_>
      <rects>
        <_>
          18 26 12 1 -1.</_>
        <_>
          22 26 4 1 3.</_></rects>
      <tilted>0</tilted></_>
    <_>
      <rects>
        <_>
          18 26 6 6 -1.</_>
        <_>
          18 29 6 3 2.</_></rects>
      <tilted>0</tilted></_>
    <_>
      <rects>
        <_>
          18 30 12 2 -1.</_>
        <_>
          18 31 12 1 2.</_></rects>
      <tilted>0</tilted></_>
    <_>
      <rects>
        <_>
          19 0 6 1 -1.</_>
        <_>
          21 0 2 1 3.</_></rects>
      <tilted>0</tilted></_>
    <_>
      <rects>
        <_>
          19 3 8 4 -1.</_>
        <_>
          19 3 4 2 2.</_>
        <_>
          23 5 4 2 2.</_></rects>
      <tilted>0</tilted></_>
    <_>
      <rects>
        <_>
          19 10 12 19 -1.</_>
        <_>
          23 10 4 19 3.</_></rects>
      <tilted>0</tilted></_>
    <_>
      <rects>
        <_>
          19 17 12 10 -1.</_>
        <_>
          23 17 4 10 3.</_></rects>
      <tilted>0</tilted></_>
    <_>
      <rects>
        <_>
          19 18 12 13 -1.</_>
        <_>
          25 18 6 13 2.</_></rects>
      <tilted>0</tilted></_>
    <_>
      <rects>
        <_>
          19 26 12 1 -1.</_>
        <_>
          25 26 6 1 2.</_></rects>
      <tilted>0</tilted></_>
    <_>
      <rects>
        <_>
          20 0 10 3 -1.</_>
        <_>
          20 1 10 1 3.</_></rects>
      <tilted>0</tilted></_>
    <_>
      <rects>
        <_>
          20 2 4 6 -1.</_>
        <_>
          22 2 2 6 2.</_></rects>
      <tilted>0</tilted></_>
    <_>
      <rects>
        <_>
          20 2 10 6 -1.</_>
        <_>
          20 2 5 3 2.</_>
        <_>
          25 5 5 3 2.</_></rects>
      <tilted>0</tilted></_>
    <_>
      <rects>
        <_>
          20 6 6 8 -1.</_>
        <_>
          20 10 6 4 2.</_></rects>
      <tilted>0</tilted></_>
    <_>
      <rects>
        <_>
          20 9 3 4 -1.</_>
        <_>
          20 11 3 2 2.</_></rects>
      <tilted>0</tilted></_>
    <_>
      <rects>
        <_>
          21 0 6 1 -1.</_>
        <_>
          24 0 3 1 2.</_></rects>
      <tilted>0</tilted></_>
    <_>
      <rects>
        <_>
          21 0 10 1 -1.</_>
        <_>
          26 0 5 1 2.</_></rects>
      <tilted>0</tilted></_>
    <_>
      <rects>
        <_>
          21 2 6 6 -1.</_>
        <_>
          21 2 3 3 2.</_>
        <_>
          24 5 3 3 2.</_></rects>
      <tilted>0</tilted></_>
    <_>
      <rects>
        <_>
          21 3 4 4 -1.</_>
        <_>
          23 3 2 4 2.</_></rects>
      <tilted>0</tilted></_>
    <_>
      <rects>
        <_>
          22 0 6 1 -1.</_>
        <_>
          25 0 3 1 2.</_></rects>
      <tilted>0</tilted></_>
    <_>
      <rects>
        <_>
          22 3 6 6 -1.</_>
        <_>
          25 3 3 6 2.</_></rects>
      <tilted>0</tilted></_>
    <_>
      <rects>
        <_>
          22 3 8 13 -1.</_>
        <_>
          26 3 4 13 2.</_></rects>
      <tilted>0</tilted></_>
    <_>
      <rects>
        <_>
          22 20 2 12 -1.</_>
        <_>
          22 24 2 4 3.</_></rects>
      <tilted>0</tilted></_>
    <_>
      <rects>
        <_>
          22 26 1 6 -1.</_>
        <_>
          22 29 1 3 2.</_></rects>
      <tilted>0</tilted></_>
    <_>
      <rects>
        <_>
          23 0 4 1 -1.</_>
        <_>
          25 0 2 1 2.</_></rects>
      <tilted>0</tilted></_>
    <_>
      <rects>
        <_>
          23 0 8 1 -1.</_>
        <_>
          27 0 4 1 2.</_></rects>
      <tilted>0</tilted></_>
    <_>
      <rects>
        <_>
          23 3 1 22 -1.</_>
        <_>
          23 14 1 11 2.</_></rects>
      <tilted>0</tilted></_>
    <_>
      <rects>
        <_>
          23 4 9 14 -1.</_>
        <_>
          26 4 3 14 3.</_></rects>
      <tilted>0</tilted></_>
    <_>
      <rects>
        <_>
          23 9 3 4 -1.</_>
        <_>
          23 11 3 2 2.</_></rects>
      <tilted>0</tilted></_>
    <_>
      <rects>
        <_>
          23 12 8 12 -1.</_>
        <_>
          27 12 4 12 2.</_></rects>
      <tilted>0</tilted></_>
    <_>
      <rects>
        <_>
          23 13 6 5 -1.</_>
        <_>
          25 13 2 5 3.</_></rects>
      <tilted>0</tilted></_>
    <_>
      <rects>
        <_>
          23 26 9 2 -1.</_>
        <_>
          23 27 9 1 2.</_></rects>
      <tilted>0</tilted></_>
    <_>
      <rects>
        <_>
          24 8 6 6 -1.</_>
        <_>
          24 8 3 3 2.</_>
        <_>
          27 11 3 3 2.</_></rects>
      <tilted>0</tilted></_>
    <_>
      <rects>
        <_>
          25 0 6 1 -1.</_>
        <_>
          28 0 3 1 2.</_></rects>
      <tilted>0</tilted></_>
    <_>
      <rects>
        <_>
          25 18 6 3 -1.</_>
        <_>
          28 18 3 3 2.</_></rects>
      <tilted>0</tilted></_>
    <_>
      <rects>
        <_>
          25 26 4 2 -1.</_>
        <_>
          27 26 2 2 2.</_></rects>
      <tilted>0</tilted></_>
    <_>
      <rects>
        <_>
          26 13 3 2 -1.</_>
        <_>
          27 13 1 2 3.</_></rects>
      <tilted>0</tilted></_>
    <_>
      <rects>
        <_>
          27 13 2 6 -1.</_>
        <_>
          28 13 1 6 2.</_></rects>
      <tilted>0</tilted></_>
    <_>
      <rects>
        <_>
          28 10 2 10 -1.</_>
        <_>
          29 10 1 10 2.</_></rects>
      <tilted>0</tilted></_>
    <_>
      <rects>
        <_>
          29 0 3 31 -1.</_>
        <_>
          30 0 1 31 3.</_></rects>
      <tilted>0</tilted></_>
    <_>
      <rects>
        <_>
          29 8 3 21 -1.</_>
        <_>
          30 8 1 21 3.</_></rects>
      <tilted>0</tilted></_>
    <_>
      <rects>
        <_>
          30 1 2 2 -1.</_>
        <_>
          31 1 1 2 2.</_></rects>
      <tilted>0</tilted></_>
    <_>
      <rects>
        <_>
          30 22 2 10 -1.</_>
        <_>
          31 22 1 10 2.</_></rects>
      <tilted>0</tilted></_>
    <_>
      <rects>
        <_>
          31 1 1 28 -1.</_>
        <_>
          31 15 1 14 2.</_></rects>
      <tilted>0</tilted></_></features></cascade>
</opencv_storage>
