<?xml version="1.0"?>
<opencv_storage>
<cascade>
  <stageType>BOOST</stageType>
  <featureType>HAAR</featureType>
  <height>24</height>
  <width>24</width>
  <stageParams>
    <boostType>GAB</boostType>
    <minHitRate>9.9500000476837158e-01</minHitRate>
    <maxFalseAlarm>5.0000000000000000e-01</maxFalseAlarm>
    <weightTrimRate>9.4999998807907104e-01</weightTrimRate>
    <maxDepth>1</maxDepth>
    <maxWeakCount>100</maxWeakCount></stageParams>
  <featureParams>
    <maxCatCount>0</maxCatCount>
    <featSize>1</featSize>
    <mode>BASIC</mode></featureParams>
  <stageNum>20</stageNum>
  <stages>
    <!-- stage 0 -->
    <_>
      <maxWeakCount>14</maxWeakCount>
      <stageThreshold>-1.0484546422958374e+00</stageThreshold>
      <weakClassifiers>
        <_>
          <internalNodes>
            0 -1 55 -3.8206972181797028e-02</internalNodes>
          <leafValues>
            6.2500000000000000e-01 -3.7033492326736450e-01</leafValues></_>
        <_>
          <internalNodes>
            0 -1 60 1.1111837625503540e-01</internalNodes>
          <leafValues>
            -3.4344717860221863e-01 4.7016742825508118e-01</leafValues></_>
        <_>
          <internalNodes>
            0 -1 409 -1.9350234419107437e-02</internalNodes>
          <leafValues>
            5.1381027698516846e-01 -3.1447121500968933e-01</leafValues></_>
        <_>
          <internalNodes>
            0 -1 538 -1.9174756016582251e-04</internalNodes>
          <leafValues>
            3.9180314540863037e-01 -2.6964089274406433e-01</leafValues></_>
        <_>
          <internalNodes>
            0 -1 177 -7.6862964779138565e-03</internalNodes>
          <leafValues>
            3.1092396378517151e-01 -3.1206586956977844e-01</leafValues></_>
        <_>
          <internalNodes>
            0 -1 434 -1.1916223913431168e-02</internalNodes>
          <leafValues>
            5.3123033046722412e-01 -1.4431558549404144e-01</leafValues></_>
        <_>
          <internalNodes>
            0 -1 612 1.7304047942161560e-02</internalNodes>
          <leafValues>
            -1.2763656675815582e-01 5.2584916353225708e-01</leafValues></_>
        <_>
          <internalNodes>
            0 -1 95 -8.9648533612489700e-03</internalNodes>
          <leafValues>
            4.1547873616218567e-01 -1.9102196395397186e-01</leafValues></_>
        <_>
          <internalNodes>
            0 -1 364 -8.2285550888627768e-04</internalNodes>
          <leafValues>
            3.9784064888954163e-01 -1.9256146252155304e-01</leafValues></_>
        <_>
          <internalNodes>
            0 -1 665 -1.1430235579609871e-02</internalNodes>
          <leafValues>
            4.7512939572334290e-01 -1.5422128140926361e-01</leafValues></_>
        <_>
          <internalNodes>
            0 -1 282 1.2604310177266598e-03</internalNodes>
          <leafValues>
            -1.5712296962738037e-01 4.7519636154174805e-01</leafValues></_>
        <_>
          <internalNodes>
            0 -1 382 5.8412805199623108e-02</internalNodes>
          <leafValues>
            -8.2375846803188324e-02 8.6403983831405640e-01</leafValues></_>
        <_>
          <internalNodes>
            0 -1 576 2.5499064475297928e-02</internalNodes>
          <leafValues>
            -1.4844186604022980e-01 4.8078617453575134e-01</leafValues></_>
        <_>
          <internalNodes>
            0 -1 333 -1.1325834691524506e-01</internalNodes>
          <leafValues>
            6.8894451856613159e-01 -1.3796979188919067e-01</leafValues></_></weakClassifiers></_>
    <!-- stage 1 -->
    <_>
      <maxWeakCount>19</maxWeakCount>
      <stageThreshold>-9.7064417600631714e-01</stageThreshold>
      <weakClassifiers>
        <_>
          <internalNodes>
            0 -1 208 -1.7699563503265381e-01</internalNodes>
          <leafValues>
            5.1945853233337402e-01 -2.9566854238510132e-01</leafValues></_>
        <_>
          <internalNodes>
            0 -1 43 -2.4071073532104492e-01</internalNodes>
          <leafValues>
            4.9630925059318542e-01 -1.9144691526889801e-01</leafValues></_>
        <_>
          <internalNodes>
            0 -1 621 -8.4498394280672073e-03</internalNodes>
          <leafValues>
            3.0996027588844299e-01 -2.7583801746368408e-01</leafValues></_>
        <_>
          <internalNodes>
            0 -1 278 -4.3737366795539856e-02</internalNodes>
          <leafValues>
            -7.8338187932968140e-01 7.2455272078514099e-02</leafValues></_>
        <_>
          <internalNodes>
            0 -1 353 -5.1534362137317657e-02</internalNodes>
          <leafValues>
            5.8588248491287231e-01 -1.1824862658977509e-01</leafValues></_>
        <_>
          <internalNodes>
            0 -1 117 1.8232159316539764e-02</internalNodes>
          <leafValues>
            -2.4080683290958405e-01 3.1190156936645508e-01</leafValues></_>
        <_>
          <internalNodes>
            0 -1 189 -4.6387901529669762e-03</internalNodes>
          <leafValues>
            3.1247666478157043e-01 -1.8065701425075531e-01</leafValues></_>
        <_>
          <internalNodes>
            0 -1 414 6.2390837818384171e-02</internalNodes>
          <leafValues>
            -1.5120775997638702e-01 4.9387386441230774e-01</leafValues></_>
        <_>
          <internalNodes>
            0 -1 97 -1.4851385727524757e-02</internalNodes>
          <leafValues>
            5.4035723209381104e-01 -6.3220724463462830e-02</leafValues></_>
        <_>
          <internalNodes>
            0 -1 246 -2.1251966245472431e-03</internalNodes>
          <leafValues>
            2.8340497612953186e-01 -2.1527270972728729e-01</leafValues></_>
        <_>
          <internalNodes>
            0 -1 626 1.0179901495575905e-02</internalNodes>
          <leafValues>
            -1.7764775454998016e-01 3.6652359366416931e-01</leafValues></_>
        <_>
          <internalNodes>
            0 -1 326 1.0971314273774624e-02</internalNodes>
          <leafValues>
            -7.3568642139434814e-02 7.0393878221511841e-01</leafValues></_>
        <_>
          <internalNodes>
            0 -1 347 1.1855699121952057e-01</internalNodes>
          <leafValues>
            -6.8681396543979645e-02 7.6779919862747192e-01</leafValues></_>
        <_>
          <internalNodes>
            0 -1 348 -1.4580173228750937e-05</internalNodes>
          <leafValues>
            2.7880507707595825e-01 -2.2866298258304596e-01</leafValues></_>
        <_>
          <internalNodes>
            0 -1 430 -8.6033456027507782e-03</internalNodes>
          <leafValues>
            2.7629333734512329e-01 -1.6111937165260315e-01</leafValues></_>
        <_>
          <internalNodes>
            0 -1 480 -3.6920377169735730e-05</internalNodes>
          <leafValues>
            2.1120253205299377e-01 -2.9999151825904846e-01</leafValues></_>
        <_>
          <internalNodes>
            0 -1 690 4.2749546468257904e-02</internalNodes>
          <leafValues>
            -1.8145234882831573e-01 2.9453563690185547e-01</leafValues></_>
        <_>
          <internalNodes>
            0 -1 332 -1.3553726673126221e-01</internalNodes>
          <leafValues>
            5.8764648437500000e-01 -7.0012956857681274e-02</leafValues></_>
        <_>
          <internalNodes>
            0 -1 129 -2.0137047767639160e-01</internalNodes>
          <leafValues>
            -6.9970053434371948e-01 9.3965277075767517e-02</leafValues></_></weakClassifiers></_>
    <!-- stage 2 -->
    <_>
      <maxWeakCount>30</maxWeakCount>
      <stageThreshold>-1.0321402549743652e+00</stageThreshold>
      <weakClassifiers>
        <_>
          <internalNodes>
            0 -1 106 -1.2275025993585587e-01</internalNodes>
          <leafValues>
            4.4600939750671387e-01 -2.8796842694282532e-01</leafValues></_>
        <_>
          <internalNodes>
            0 -1 123 3.8272753357887268e-02</internalNodes>
          <leafValues>
            -2.2401255369186401e-01 3.0812045931816101e-01</leafValues></_>
        <_>
          <internalNodes>
            0 -1 642 -1.5204450115561485e-02</internalNodes>
          <leafValues>
            3.5546821355819702e-01 -1.6570986807346344e-01</leafValues></_>
        <_>
          <internalNodes>
            0 -1 628 -1.5262430533766747e-02</internalNodes>
          <leafValues>
            4.2089587450027466e-01 -1.5678037703037262e-01</leafValues></_>
        <_>
          <internalNodes>
            0 -1 702 -1.0526583064347506e-03</internalNodes>
          <leafValues>
            5.5846929550170898e-01 -9.5403708517551422e-02</leafValues></_>
        <_>
          <internalNodes>
            0 -1 30 1.0849633812904358e-01</internalNodes>
          <leafValues>
            1.1752410978078842e-01 -5.5548542737960815e-01</leafValues></_>
        <_>
          <internalNodes>
            0 -1 564 6.0696541331708431e-03</internalNodes>
          <leafValues>
            -1.3184596598148346e-01 3.6408022046089172e-01</leafValues></_>
        <_>
          <internalNodes>
            0 -1 139 -4.0153466165065765e-02</internalNodes>
          <leafValues>
            3.7438553571701050e-01 -1.2553316354751587e-01</leafValues></_>
        <_>
          <internalNodes>
            0 -1 260 2.3469420149922371e-02</internalNodes>
          <leafValues>
            -9.2659659683704376e-02 5.3378009796142578e-01</leafValues></_>
        <_>
          <internalNodes>
            0 -1 641 1.9107066094875336e-02</internalNodes>
          <leafValues>
            -1.6415371000766754e-01 2.4242298305034637e-01</leafValues></_>
        <_>
          <internalNodes>
            0 -1 519 -3.8120590033940971e-05</internalNodes>
          <leafValues>
            1.9962500035762787e-01 -2.1553495526313782e-01</leafValues></_>
        <_>
          <internalNodes>
            0 -1 368 -1.0842747287824750e-03</internalNodes>
          <leafValues>
            2.9406118392944336e-01 -1.6773386299610138e-01</leafValues></_>
        <_>
          <internalNodes>
            0 -1 269 -3.4148292616009712e-03</internalNodes>
          <leafValues>
            5.1020884513854980e-01 -8.0472797155380249e-02</leafValues></_>
        <_>
          <internalNodes>
            0 -1 736 5.8443695306777954e-03</internalNodes>
          <leafValues>
            -1.4459668099880219e-01 2.8353726863861084e-01</leafValues></_>
        <_>
          <internalNodes>
            0 -1 403 5.0161801278591156e-02</internalNodes>
          <leafValues>
            -8.3691351115703583e-02 4.1332709789276123e-01</leafValues></_>
        <_>
          <internalNodes>
            0 -1 330 -3.6985773476772010e-05</internalNodes>
          <leafValues>
            2.0273283123970032e-01 -2.6033523678779602e-01</leafValues></_>
        <_>
          <internalNodes>
            0 -1 334 -5.0485087558627129e-04</internalNodes>
          <leafValues>
            2.3172648251056671e-01 -2.3716032505035400e-01</leafValues></_>
        <_>
          <internalNodes>
            0 -1 111 -1.1413583531975746e-02</internalNodes>
          <leafValues>
            4.3980568647384644e-01 -1.0013259202241898e-01</leafValues></_>
        <_>
          <internalNodes>
            0 -1 357 -3.6269170232117176e-03</internalNodes>
          <leafValues>
            3.9147832989692688e-01 -1.0782971233129501e-01</leafValues></_>
        <_>
          <internalNodes>
            0 -1 609 -3.7542503327131271e-02</internalNodes>
          <leafValues>
            5.2515447139739990e-01 -8.3903305232524872e-02</leafValues></_>
        <_>
          <internalNodes>
            0 -1 262 -3.2549019670113921e-04</internalNodes>
          <leafValues>
            2.0386843383312225e-01 -2.1544477343559265e-01</leafValues></_>
        <_>
          <internalNodes>
            0 -1 227 -1.8330854363739491e-03</internalNodes>
          <leafValues>
            3.4151065349578857e-01 -1.2867622077465057e-01</leafValues></_>
        <_>
          <internalNodes>
            0 -1 552 4.3941037729382515e-03</internalNodes>
          <leafValues>
            -1.5331245958805084e-01 2.9104733467102051e-01</leafValues></_>
        <_>
          <internalNodes>
            0 -1 392 -2.4395342916250229e-02</internalNodes>
          <leafValues>
            -5.7427483797073364e-01 8.3854287862777710e-02</leafValues></_>
        <_>
          <internalNodes>
            0 -1 657 -4.2387438006699085e-03</internalNodes>
          <leafValues>
            4.1123557090759277e-01 -1.2346874177455902e-01</leafValues></_>
        <_>
          <internalNodes>
            0 -1 497 3.7253579648677260e-05</internalNodes>
          <leafValues>
            -1.7389725148677826e-01 2.5315588712692261e-01</leafValues></_>
        <_>
          <internalNodes>
            0 -1 73 2.4162400513887405e-02</internalNodes>
          <leafValues>
            -1.0953125357627869e-01 3.9543613791465759e-01</leafValues></_>
        <_>
          <internalNodes>
            0 -1 655 2.4862638674676418e-03</internalNodes>
          <leafValues>
            -1.0038273781538010e-01 4.3998613953590393e-01</leafValues></_>
        <_>
          <internalNodes>
            0 -1 672 1.1055401992052794e-03</internalNodes>
          <leafValues>
            -1.2705042958259583e-01 3.1879323720932007e-01</leafValues></_>
        <_>
          <internalNodes>
            0 -1 313 1.9152753520756960e-03</internalNodes>
          <leafValues>
            -1.1655288934707642e-01 3.5452359914779663e-01</leafValues></_></weakClassifiers></_>
    <!-- stage 3 -->
    <_>
      <maxWeakCount>35</maxWeakCount>
      <stageThreshold>-1.0005472898483276e+00</stageThreshold>
      <weakClassifiers>
        <_>
          <internalNodes>
            0 -1 45 -1.8279668688774109e-01</internalNodes>
          <leafValues>
            3.6421725153923035e-01 -2.2882181406021118e-01</leafValues></_>
        <_>
          <internalNodes>
            0 -1 230 1.9262968003749847e-01</internalNodes>
          <leafValues>
            -9.5704339444637299e-02 6.6146236658096313e-01</leafValues></_>
        <_>
          <internalNodes>
            0 -1 592 -6.6877214703708887e-04</internalNodes>
          <leafValues>
            2.7350834012031555e-01 -1.8376941978931427e-01</leafValues></_>
        <_>
          <internalNodes>
            0 -1 24 3.5166490823030472e-02</internalNodes>
          <leafValues>
            -1.1024596542119980e-01 4.5192348957061768e-01</leafValues></_>
        <_>
          <internalNodes>
            0 -1 454 -6.0454662889242172e-03</internalNodes>
          <leafValues>
            -3.6096337437629700e-01 1.4831058681011200e-01</leafValues></_>
        <_>
          <internalNodes>
            0 -1 565 -2.9691886084037833e-05</internalNodes>
          <leafValues>
            2.3540651798248291e-01 -1.5849351882934570e-01</leafValues></_>
        <_>
          <internalNodes>
            0 -1 600 -9.6012577414512634e-03</internalNodes>
          <leafValues>
            2.3071332275867462e-01 -2.0268629491329193e-01</leafValues></_>
        <_>
          <internalNodes>
            0 -1 624 -1.1360585689544678e-02</internalNodes>
          <leafValues>
            3.8341647386550903e-01 -1.1525213718414307e-01</leafValues></_>
        <_>
          <internalNodes>
            0 -1 75 6.1690896749496460e-02</internalNodes>
          <leafValues>
            -1.2600664794445038e-01 3.0123734474182129e-01</leafValues></_>
        <_>
          <internalNodes>
            0 -1 78 -1.6794510185718536e-02</internalNodes>
          <leafValues>
            2.5966003537178040e-01 -1.7934195697307587e-01</leafValues></_>
        <_>
          <internalNodes>
            0 -1 354 3.8266897201538086e-02</internalNodes>
          <leafValues>
            6.4732968807220459e-02 -7.0317548513412476e-01</leafValues></_>
        <_>
          <internalNodes>
            0 -1 297 -2.0919986069202423e-02</internalNodes>
          <leafValues>
            -6.4607685804367065e-01 5.9191398322582245e-02</leafValues></_>
        <_>
          <internalNodes>
            0 -1 400 -1.5557543374598026e-02</internalNodes>
          <leafValues>
            -6.5335768461227417e-01 3.6134514957666397e-02</leafValues></_>
        <_>
          <internalNodes>
            0 -1 235 1.2632764875888824e-02</internalNodes>
          <leafValues>
            -1.4739181101322174e-01 3.0800589919090271e-01</leafValues></_>
        <_>
          <internalNodes>
            0 -1 22 -3.0384941026568413e-02</internalNodes>
          <leafValues>
            5.4862558841705322e-01 -5.1055036485195160e-02</leafValues></_>
        <_>
          <internalNodes>
            0 -1 57 -1.9661019742488861e-01</internalNodes>
          <leafValues>
            5.0023442506790161e-01 -7.1028798818588257e-02</leafValues></_>
        <_>
          <internalNodes>
            0 -1 268 -6.0795997269451618e-03</internalNodes>
          <leafValues>
            3.2556471228599548e-01 -1.1833668500185013e-01</leafValues></_>
        <_>
          <internalNodes>
            0 -1 42 4.0653336793184280e-02</internalNodes>
          <leafValues>
            -4.3986242264509201e-02 7.6310855150222778e-01</leafValues></_>
        <_>
          <internalNodes>
            0 -1 498 -5.0464935600757599e-02</internalNodes>
          <leafValues>
            -6.8490129709243774e-01 6.1812408268451691e-02</leafValues></_>
        <_>
          <internalNodes>
            0 -1 515 -1.0071741417050362e-03</internalNodes>
          <leafValues>
            -3.8823267817497253e-01 8.7872676551342010e-02</leafValues></_>
        <_>
          <internalNodes>
            0 -1 372 -3.6052857467439026e-05</internalNodes>
          <leafValues>
            1.7714133858680725e-01 -1.9821847975254059e-01</leafValues></_>
        <_>
          <internalNodes>
            0 -1 619 -8.6878408910706639e-04</internalNodes>
          <leafValues>
            2.8675952553749084e-01 -1.2414808571338654e-01</leafValues></_>
        <_>
          <internalNodes>
            0 -1 608 1.8733736127614975e-02</internalNodes>
          <leafValues>
            4.8808660358190536e-02 -7.1767836809158325e-01</leafValues></_>
        <_>
          <internalNodes>
            0 -1 722 7.9024501610547304e-04</internalNodes>
          <leafValues>
            1.0441368073225021e-01 -3.0015686154365540e-01</leafValues></_>
        <_>
          <internalNodes>
            0 -1 667 -1.8035500543192029e-03</internalNodes>
          <leafValues>
            3.7926453351974487e-01 -9.3709349632263184e-02</leafValues></_>
        <_>
          <internalNodes>
            0 -1 666 3.0765181872993708e-03</internalNodes>
          <leafValues>
            -1.0164842009544373e-01 3.4648001194000244e-01</leafValues></_>
        <_>
          <internalNodes>
            0 -1 126 1.1393645778298378e-02</internalNodes>
          <leafValues>
            -8.5276357829570770e-02 4.1937682032585144e-01</leafValues></_>
        <_>
          <internalNodes>
            0 -1 548 -1.5067138010635972e-03</internalNodes>
          <leafValues>
            1.9467037916183472e-01 -1.9881641864776611e-01</leafValues></_>
        <_>
          <internalNodes>
            0 -1 56 -1.1888263747096062e-02</internalNodes>
          <leafValues>
            1.8028450012207031e-01 -2.1538628637790680e-01</leafValues></_>
        <_>
          <internalNodes>
            0 -1 318 7.2111070156097412e-02</internalNodes>
          <leafValues>
            -1.2489561736583710e-01 4.0567567944526672e-01</leafValues></_>
        <_>
          <internalNodes>
            0 -1 103 -8.3130747079849243e-03</internalNodes>
          <leafValues>
            2.1055103838443756e-01 -2.2146956622600555e-01</leafValues></_>
        <_>
          <internalNodes>
            0 -1 304 -1.2988296337425709e-02</internalNodes>
          <leafValues>
            -4.3050915002822876e-01 8.4515720605850220e-02</leafValues></_>
        <_>
          <internalNodes>
            0 -1 545 6.6656261682510376e-02</internalNodes>
          <leafValues>
            -7.7798686921596527e-02 4.6465927362442017e-01</leafValues></_>
        <_>
          <internalNodes>
            0 -1 456 1.8870476633310318e-02</internalNodes>
          <leafValues>
            -5.2951153367757797e-02 5.7803416252136230e-01</leafValues></_>
        <_>
          <internalNodes>
            0 -1 305 7.1088010445237160e-03</internalNodes>
          <leafValues>
            -8.7167054414749146e-02 4.3342036008834839e-01</leafValues></_></weakClassifiers></_>
    <!-- stage 4 -->
    <_>
      <maxWeakCount>35</maxWeakCount>
      <stageThreshold>-9.6856659650802612e-01</stageThreshold>
      <weakClassifiers>
        <_>
          <internalNodes>
            0 -1 317 -1.9003611803054810e-01</internalNodes>
          <leafValues>
            3.8486841320991516e-01 -2.3062200844287872e-01</leafValues></_>
        <_>
          <internalNodes>
            0 -1 194 -8.8033735752105713e-02</internalNodes>
          <leafValues>
            3.7560963630676270e-01 -1.2624627351760864e-01</leafValues></_>
        <_>
          <internalNodes>
            0 -1 308 1.7776165902614594e-01</internalNodes>
          <leafValues>
            -1.0437253117561340e-01 6.2948119640350342e-01</leafValues></_>
        <_>
          <internalNodes>
            0 -1 316 -4.4342536479234695e-02</internalNodes>
          <leafValues>
            3.6475390195846558e-01 -1.3626013696193695e-01</leafValues></_>
        <_>
          <internalNodes>
            0 -1 322 4.8718312755227089e-03</internalNodes>
          <leafValues>
            -9.9593244493007660e-02 4.2121872305870056e-01</leafValues></_>
        <_>
          <internalNodes>
            0 -1 184 -2.2112354636192322e-03</internalNodes>
          <leafValues>
            2.8885507583618164e-01 -1.1070661991834641e-01</leafValues></_>
        <_>
          <internalNodes>
            0 -1 371 -7.3238611221313477e-02</internalNodes>
          <leafValues>
            3.7961506843566895e-01 -1.0173143446445465e-01</leafValues></_>
        <_>
          <internalNodes>
            0 -1 523 -3.4637061617104337e-05</internalNodes>
          <leafValues>
            1.8680949509143829e-01 -2.0916615426540375e-01</leafValues></_>
        <_>
          <internalNodes>
            0 -1 679 -3.5636406391859055e-03</internalNodes>
          <leafValues>
            3.5945865511894226e-01 -8.7485678493976593e-02</leafValues></_>
        <_>
          <internalNodes>
            0 -1 84 -2.2369112819433212e-02</internalNodes>
          <leafValues>
            4.8812982439994812e-01 -8.1691436469554901e-02</leafValues></_>
        <_>
          <internalNodes>
            0 -1 444 -2.6627015322446823e-03</internalNodes>
          <leafValues>
            -6.8343800306320190e-01 5.4826714098453522e-02</leafValues></_>
        <_>
          <internalNodes>
            0 -1 180 6.8693188950419426e-03</internalNodes>
          <leafValues>
            -6.7833185195922852e-02 5.0839447975158691e-01</leafValues></_>
        <_>
          <internalNodes>
            0 -1 258 1.4762017130851746e-01</internalNodes>
          <leafValues>
            -5.0311584025621414e-02 7.7533400058746338e-01</leafValues></_>
        <_>
          <internalNodes>
            0 -1 656 -3.6433818750083447e-03</internalNodes>
          <leafValues>
            3.3393919467926025e-01 -9.9007874727249146e-02</leafValues></_>
        <_>
          <internalNodes>
            0 -1 707 1.3215089216828346e-02</internalNodes>
          <leafValues>
            -1.6966088116168976e-01 2.2367951273918152e-01</leafValues></_>
        <_>
          <internalNodes>
            0 -1 632 -7.9073263332247734e-03</internalNodes>
          <leafValues>
            -4.0666595101356506e-01 1.0078909248113632e-01</leafValues></_>
        <_>
          <internalNodes>
            0 -1 116 4.3264307081699371e-02</internalNodes>
          <leafValues>
            -1.1325395107269287e-01 3.5999339818954468e-01</leafValues></_>
        <_>
          <internalNodes>
            0 -1 491 -1.5224581584334373e-02</internalNodes>
          <leafValues>
            -8.1139135360717773e-01 5.6338820606470108e-02</leafValues></_>
        <_>
          <internalNodes>
            0 -1 21 5.6807184591889381e-03</internalNodes>
          <leafValues>
            -1.7158503830432892e-01 1.9319219887256622e-01</leafValues></_>
        <_>
          <internalNodes>
            0 -1 27 2.3739853873848915e-02</internalNodes>
          <leafValues>
            -8.7135404348373413e-02 4.2323395609855652e-01</leafValues></_>
        <_>
          <internalNodes>
            0 -1 394 3.1480886042118073e-02</internalNodes>
          <leafValues>
            7.3564924299716949e-02 -5.0020909309387207e-01</leafValues></_>
        <_>
          <internalNodes>
            0 -1 290 -1.3630369212478399e-03</internalNodes>
          <leafValues>
            1.6863873600959778e-01 -1.9420742988586426e-01</leafValues></_>
        <_>
          <internalNodes>
            0 -1 381 -4.1085395961999893e-02</internalNodes>
          <leafValues>
            4.4841003417968750e-01 -8.7366446852684021e-02</leafValues></_>
        <_>
          <internalNodes>
            0 -1 431 4.3722350150346756e-02</internalNodes>
          <leafValues>
            -2.0141893625259399e-01 2.0701991021633148e-01</leafValues></_>
        <_>
          <internalNodes>
            0 -1 167 -5.4404912516474724e-03</internalNodes>
          <leafValues>
            3.5275205969810486e-01 -1.0093982517719269e-01</leafValues></_>
        <_>
          <internalNodes>
            0 -1 339 -6.6107790917158127e-04</internalNodes>
          <leafValues>
            1.6766493022441864e-01 -2.1830776333808899e-01</leafValues></_>
        <_>
          <internalNodes>
            0 -1 470 -1.4370804652571678e-02</internalNodes>
          <leafValues>
            3.0311849713325500e-01 -1.4555214345455170e-01</leafValues></_>
        <_>
          <internalNodes>
            0 -1 507 1.2848975136876106e-02</internalNodes>
          <leafValues>
            -9.9895372986793518e-02 3.7476223707199097e-01</leafValues></_>
        <_>
          <internalNodes>
            0 -1 222 9.3016959726810455e-02</internalNodes>
          <leafValues>
            -2.3032981157302856e-01 1.7424479126930237e-01</leafValues></_>
        <_>
          <internalNodes>
            0 -1 118 -1.6588751226663589e-02</internalNodes>
          <leafValues>
            2.2206085920333862e-01 -2.0343381166458130e-01</leafValues></_>
        <_>
          <internalNodes>
            0 -1 664 3.7745409645140171e-03</internalNodes>
          <leafValues>
            -8.2591898739337921e-02 4.3165701627731323e-01</leafValues></_>
        <_>
          <internalNodes>
            0 -1 40 1.4236859977245331e-01</internalNodes>
          <leafValues>
            -6.9656386971473694e-02 5.2390152215957642e-01</leafValues></_>
        <_>
          <internalNodes>
            0 -1 405 -6.9861682131886482e-03</internalNodes>
          <leafValues>
            -8.2459270954132080e-01 4.7893948853015900e-02</leafValues></_>
        <_>
          <internalNodes>
            0 -1 547 -4.5003785635344684e-04</internalNodes>
          <leafValues>
            -3.6815366148948669e-01 8.2803457975387573e-02</leafValues></_>
        <_>
          <internalNodes>
            0 -1 526 -1.1319972574710846e-02</internalNodes>
          <leafValues>
            2.7444574236869812e-01 -1.1915364116430283e-01</leafValues></_></weakClassifiers></_>
    <!-- stage 5 -->
    <_>
      <maxWeakCount>41</maxWeakCount>
      <stageThreshold>-9.0328663587570190e-01</stageThreshold>
      <weakClassifiers>
        <_>
          <internalNodes>
            0 -1 200 -3.1673657894134521e-01</internalNodes>
          <leafValues>
            3.8888889551162720e-01 -1.4332515001296997e-01</leafValues></_>
        <_>
          <internalNodes>
            0 -1 650 1.7004847526550293e-02</internalNodes>
          <leafValues>
            -1.6440086066722870e-01 2.6031056046485901e-01</leafValues></_>
        <_>
          <internalNodes>
            0 -1 383 1.8506901687942445e-04</internalNodes>
          <leafValues>
            8.1601440906524658e-02 -3.2796409726142883e-01</leafValues></_>
        <_>
          <internalNodes>
            0 -1 593 2.2606773301959038e-02</internalNodes>
          <leafValues>
            -2.1629494428634644e-01 1.6234511137008667e-01</leafValues></_>
        <_>
          <internalNodes>
            0 -1 280 1.3744817115366459e-03</internalNodes>
          <leafValues>
            -1.0025779902935028e-01 3.3206656575202942e-01</leafValues></_>
        <_>
          <internalNodes>
            0 -1 120 -3.1776171177625656e-02</internalNodes>
          <leafValues>
            2.4765807390213013e-01 -1.3958594202995300e-01</leafValues></_>
        <_>
          <internalNodes>
            0 -1 344 1.5343129634857178e-01</internalNodes>
          <leafValues>
            -5.8925244957208633e-02 6.1207228899002075e-01</leafValues></_>
        <_>
          <internalNodes>
            0 -1 487 -2.7886308729648590e-02</internalNodes>
          <leafValues>
            3.7380528450012207e-01 -1.1197812855243683e-01</leafValues></_>
        <_>
          <internalNodes>
            0 -1 6 -2.0292632281780243e-02</internalNodes>
          <leafValues>
            3.2505416870117188e-01 -8.2583010196685791e-02</leafValues></_>
        <_>
          <internalNodes>
            0 -1 188 1.5288295689970255e-03</internalNodes>
          <leafValues>
            -1.1827422678470612e-01 3.0367407202720642e-01</leafValues></_>
        <_>
          <internalNodes>
            0 -1 291 -3.1477350275963545e-03</internalNodes>
          <leafValues>
            -5.5423462390899658e-01 5.9953857213258743e-02</leafValues></_>
        <_>
          <internalNodes>
            0 -1 739 2.9947888106107712e-03</internalNodes>
          <leafValues>
            -1.1145351082086563e-01 3.3676278591156006e-01</leafValues></_>
        <_>
          <internalNodes>
            0 -1 524 -1.7530190234538168e-05</internalNodes>
          <leafValues>
            1.8973885476589203e-01 -2.0184227824211121e-01</leafValues></_>
        <_>
          <internalNodes>
            0 -1 739 -2.7684741653501987e-03</internalNodes>
          <leafValues>
            3.6061742901802063e-01 -1.1422588676214218e-01</leafValues></_>
        <_>
          <internalNodes>
            0 -1 618 -6.8791219964623451e-03</internalNodes>
          <leafValues>
            2.7590042352676392e-01 -1.2881675362586975e-01</leafValues></_>
        <_>
          <internalNodes>
            0 -1 599 1.3687567785382271e-02</internalNodes>
          <leafValues>
            -8.2331337034702301e-02 3.7837594747543335e-01</leafValues></_>
        <_>
          <internalNodes>
            0 -1 623 5.5249508470296860e-02</internalNodes>
          <leafValues>
            -1.2494990974664688e-01 2.8193312883377075e-01</leafValues></_>
        <_>
          <internalNodes>
            0 -1 358 6.4423501491546631e-02</internalNodes>
          <leafValues>
            -7.1871504187583923e-02 5.0854158401489258e-01</leafValues></_>
        <_>
          <internalNodes>
            0 -1 267 1.7261207103729248e-02</internalNodes>
          <leafValues>
            -9.7022585570812225e-02 3.3025360107421875e-01</leafValues></_>
        <_>
          <internalNodes>
            0 -1 15 -7.1430020034313202e-03</internalNodes>
          <leafValues>
            2.9400688409805298e-01 -1.2295319139957428e-01</leafValues></_>
        <_>
          <internalNodes>
            0 -1 214 -3.8951733149588108e-03</internalNodes>
          <leafValues>
            1.8143762648105621e-01 -1.9678047299385071e-01</leafValues></_>
        <_>
          <internalNodes>
            0 -1 176 -4.9823790788650513e-02</internalNodes>
          <leafValues>
            -8.4674626588821411e-01 5.0348389893770218e-02</leafValues></_>
        <_>
          <internalNodes>
            0 -1 181 1.2425299733877182e-02</internalNodes>
          <leafValues>
            -5.9752486646175385e-02 6.2093734741210938e-01</leafValues></_>
        <_>
          <internalNodes>
            0 -1 638 -6.3276682049036026e-03</internalNodes>
          <leafValues>
            3.3063510060310364e-01 -1.0231801122426987e-01</leafValues></_>
        <_>
          <internalNodes>
            0 -1 511 4.7128181904554367e-03</internalNodes>
          <leafValues>
            4.8180684447288513e-02 -6.5982288122177124e-01</leafValues></_>
        <_>
          <internalNodes>
            0 -1 162 1.1320082470774651e-02</internalNodes>
          <leafValues>
            4.9541141837835312e-02 -5.3760164976119995e-01</leafValues></_>
        <_>
          <internalNodes>
            0 -1 286 -6.8566938862204552e-03</internalNodes>
          <leafValues>
            3.7001812458038330e-01 -1.0270436853170395e-01</leafValues></_>
        <_>
          <internalNodes>
            0 -1 18 -2.2003604471683502e-01</internalNodes>
          <leafValues>
            -6.7177432775497437e-01 5.1572389900684357e-02</leafValues></_>
        <_>
          <internalNodes>
            0 -1 484 -1.7270478565478697e-05</internalNodes>
          <leafValues>
            1.4364701509475708e-01 -2.1816763281822205e-01</leafValues></_>
        <_>
          <internalNodes>
            0 -1 494 -2.1496838890016079e-03</internalNodes>
          <leafValues>
            -5.5812627077102661e-01 4.7184731811285019e-02</leafValues></_>
        <_>
          <internalNodes>
            0 -1 199 -8.2406662404537201e-03</internalNodes>
          <leafValues>
            5.2649497985839844e-01 -6.6631443798542023e-02</leafValues></_>
        <_>
          <internalNodes>
            0 -1 5 6.6806226968765259e-03</internalNodes>
          <leafValues>
            1.0357095301151276e-01 -3.2547059655189514e-01</leafValues></_>
        <_>
          <internalNodes>
            0 -1 157 -6.3213068060576916e-03</internalNodes>
          <leafValues>
            2.6787582039833069e-01 -1.1210358142852783e-01</leafValues></_>
        <_>
          <internalNodes>
            0 -1 649 -3.6918139085173607e-03</internalNodes>
          <leafValues>
            2.4491548538208008e-01 -1.2491280585527420e-01</leafValues></_>
        <_>
          <internalNodes>
            0 -1 658 1.9404848571866751e-03</internalNodes>
          <leafValues>
            -1.3144831359386444e-01 2.8486034274101257e-01</leafValues></_>
        <_>
          <internalNodes>
            0 -1 433 2.7208786923438311e-03</internalNodes>
          <leafValues>
            -7.9371869564056396e-02 3.9341312646865845e-01</leafValues></_>
        <_>
          <internalNodes>
            0 -1 469 -9.7666902001947165e-04</internalNodes>
          <leafValues>
            2.7809941768646240e-01 -1.2780916690826416e-01</leafValues></_>
        <_>
          <internalNodes>
            0 -1 187 7.9564638435840607e-03</internalNodes>
          <leafValues>
            -6.8638958036899567e-02 3.9169517159461975e-01</leafValues></_>
        <_>
          <internalNodes>
            0 -1 219 -1.4253862900659442e-05</internalNodes>
          <leafValues>
            1.7687624692916870e-01 -1.6811986267566681e-01</leafValues></_>
        <_>
          <internalNodes>
            0 -1 112 -6.4067710191011429e-03</internalNodes>
          <leafValues>
            -2.7443581819534302e-01 1.1496835201978683e-01</leafValues></_>
        <_>
          <internalNodes>
            0 -1 550 3.7798795383423567e-03</internalNodes>
          <leafValues>
            -1.2199584394693375e-01 2.3668892681598663e-01</leafValues></_></weakClassifiers></_>
    <!-- stage 6 -->
    <_>
      <maxWeakCount>43</maxWeakCount>
      <stageThreshold>-9.2788606882095337e-01</stageThreshold>
      <weakClassifiers>
        <_>
          <internalNodes>
            0 -1 100 -3.9611734449863434e-02</internalNodes>
          <leafValues>
            2.2458100318908691e-01 -2.7440634369850159e-01</leafValues></_>
        <_>
          <internalNodes>
            0 -1 377 1.1394921690225601e-01</internalNodes>
          <leafValues>
            -5.0096627324819565e-02 7.3282778263092041e-01</leafValues></_>
        <_>
          <internalNodes>
            0 -1 41 1.1839856207370758e-01</internalNodes>
          <leafValues>
            -1.0515680164098740e-01 3.9927873015403748e-01</leafValues></_>
        <_>
          <internalNodes>
            0 -1 500 4.0194880217313766e-02</internalNodes>
          <leafValues>
            -1.1122401803731918e-01 2.8914222121238708e-01</leafValues></_>
        <_>
          <internalNodes>
            0 -1 228 9.3724094331264496e-03</internalNodes>
          <leafValues>
            4.3714411556720734e-02 -8.1506997346878052e-01</leafValues></_>
        <_>
          <internalNodes>
            0 -1 217 -1.2400643900036812e-03</internalNodes>
          <leafValues>
            1.5447834134101868e-01 -1.9473096728324890e-01</leafValues></_>
        <_>
          <internalNodes>
            0 -1 170 -5.3898118436336517e-02</internalNodes>
          <leafValues>
            -4.3352541327476501e-01 8.3917826414108276e-02</leafValues></_>
        <_>
          <internalNodes>
            0 -1 244 -2.2629147861152887e-03</internalNodes>
          <leafValues>
            2.1773360669612885e-01 -1.6712492704391479e-01</leafValues></_>
        <_>
          <internalNodes>
            0 -1 560 7.2278752923011780e-02</internalNodes>
          <leafValues>
            -2.4081751704216003e-01 1.6524490714073181e-01</leafValues></_>
        <_>
          <internalNodes>
            0 -1 173 4.0896991267800331e-03</internalNodes>
          <leafValues>
            -1.0486364364624023e-01 3.2082325220108032e-01</leafValues></_>
        <_>
          <internalNodes>
            0 -1 132 -2.3952858522534370e-02</internalNodes>
          <leafValues>
            1.9240954518318176e-01 -1.6579931974411011e-01</leafValues></_>
        <_>
          <internalNodes>
            0 -1 299 -1.5514698810875416e-02</internalNodes>
          <leafValues>
            -4.8101982474327087e-01 1.0066753625869751e-01</leafValues></_>
        <_>
          <internalNodes>
            0 -1 584 -1.0612055193632841e-03</internalNodes>
          <leafValues>
            1.9900780916213989e-01 -1.5926440060138702e-01</leafValues></_>
        <_>
          <internalNodes>
            0 -1 393 -3.8852188736200333e-02</internalNodes>
          <leafValues>
            -8.0447894334793091e-01 2.0324686542153358e-02</leafValues></_>
        <_>
          <internalNodes>
            0 -1 397 1.0549101047217846e-02</internalNodes>
          <leafValues>
            -6.5451502799987793e-02 4.9075382947921753e-01</leafValues></_>
        <_>
          <internalNodes>
            0 -1 613 -4.4164722785353661e-03</internalNodes>
          <leafValues>
            2.0486865937709808e-01 -1.4271278679370880e-01</leafValues></_>
        <_>
          <internalNodes>
            0 -1 614 -2.0423661917448044e-03</internalNodes>
          <leafValues>
            -6.2251269817352295e-01 4.6666793525218964e-02</leafValues></_>
        <_>
          <internalNodes>
            0 -1 266 -2.5257056578993797e-02</internalNodes>
          <leafValues>
            2.4250376224517822e-01 -1.3900595903396606e-01</leafValues></_>
        <_>
          <internalNodes>
            0 -1 508 -4.0454346686601639e-02</internalNodes>
          <leafValues>
            3.8670817017555237e-01 -7.6496385037899017e-02</leafValues></_>
        <_>
          <internalNodes>
            0 -1 627 -3.7188692658673972e-05</internalNodes>
          <leafValues>
            1.8289552628993988e-01 -1.7027214169502258e-01</leafValues></_>
        <_>
          <internalNodes>
            0 -1 595 -1.8151379190385342e-03</internalNodes>
          <leafValues>
            1.7083223164081573e-01 -1.8059109151363373e-01</leafValues></_>
        <_>
          <internalNodes>
            0 -1 522 -5.1732854917645454e-03</internalNodes>
          <leafValues>
            -6.3461357355117798e-01 5.8566398918628693e-02</leafValues></_>
        <_>
          <internalNodes>
            0 -1 2 3.0964368488639593e-04</internalNodes>
          <leafValues>
            -1.8951079249382019e-01 1.5331262350082397e-01</leafValues></_>
        <_>
          <internalNodes>
            0 -1 94 6.3321813941001892e-03</internalNodes>
          <leafValues>
            -5.6379973888397217e-02 5.2395105361938477e-01</leafValues></_>
        <_>
          <internalNodes>
            0 -1 295 -6.8307325243949890e-02</internalNodes>
          <leafValues>
            5.1104843616485596e-01 -5.0095938146114349e-02</leafValues></_>
        <_>
          <internalNodes>
            0 -1 50 -2.0944599062204361e-02</internalNodes>
          <leafValues>
            3.2136279344558716e-01 -8.9453950524330139e-02</leafValues></_>
        <_>
          <internalNodes>
            0 -1 331 -3.5714328987523913e-04</internalNodes>
          <leafValues>
            1.4743137359619141e-01 -2.3072201013565063e-01</leafValues></_>
        <_>
          <internalNodes>
            0 -1 172 1.2903310358524323e-01</internalNodes>
          <leafValues>
            -7.6321236789226532e-02 4.1463887691497803e-01</leafValues></_>
        <_>
          <internalNodes>
            0 -1 175 -8.8873118162155151e-02</internalNodes>
          <leafValues>
            -6.8734538555145264e-01 5.3264550864696503e-02</leafValues></_>
        <_>
          <internalNodes>
            0 -1 663 1.1427416466176510e-03</internalNodes>
          <leafValues>
            -9.4012185931205750e-02 3.5802233219146729e-01</leafValues></_>
        <_>
          <internalNodes>
            0 -1 656 -4.7656283713877201e-03</internalNodes>
          <leafValues>
            3.7198054790496826e-01 -9.2818327248096466e-02</leafValues></_>
        <_>
          <internalNodes>
            0 -1 390 1.2357343733310699e-01</internalNodes>
          <leafValues>
            -4.4681899249553680e-02 6.3960504531860352e-01</leafValues></_>
        <_>
          <internalNodes>
            0 -1 678 1.3680163770914078e-02</internalNodes>
          <leafValues>
            -6.2535509467124939e-02 4.6781259775161743e-01</leafValues></_>
        <_>
          <internalNodes>
            0 -1 483 2.4978927103802562e-04</internalNodes>
          <leafValues>
            9.2594750225543976e-02 -3.6287695169448853e-01</leafValues></_>
        <_>
          <internalNodes>
            0 -1 675 5.1620364189147949e-02</internalNodes>
          <leafValues>
            2.9765363782644272e-02 -9.2960178852081299e-01</leafValues></_>
        <_>
          <internalNodes>
            0 -1 715 6.9042169488966465e-03</internalNodes>
          <leafValues>
            -1.4239417016506195e-01 2.3998522758483887e-01</leafValues></_>
        <_>
          <internalNodes>
            0 -1 136 -8.3909276872873306e-03</internalNodes>
          <leafValues>
            3.2524946331977844e-01 -1.1568243056535721e-01</leafValues></_>
        <_>
          <internalNodes>
            0 -1 190 -1.5871889190748334e-03</internalNodes>
          <leafValues>
            3.4203451871871948e-01 -8.0468021333217621e-02</leafValues></_>
        <_>
          <internalNodes>
            0 -1 208 -1.6948351263999939e-01</internalNodes>
          <leafValues>
            2.0305849611759186e-01 -1.6140459477901459e-01</leafValues></_>
        <_>
          <internalNodes>
            0 -1 380 -2.6220611762255430e-03</internalNodes>
          <leafValues>
            2.8471884131431580e-01 -1.2460887432098389e-01</leafValues></_>
        <_>
          <internalNodes>
            0 -1 407 -1.2129876762628555e-02</internalNodes>
          <leafValues>
            -5.4509156942367554e-01 5.8655757457017899e-02</leafValues></_>
        <_>
          <internalNodes>
            0 -1 300 -1.2768516317009926e-02</internalNodes>
          <leafValues>
            -5.7975202798843384e-01 4.8963773995637894e-02</leafValues></_>
        <_>
          <internalNodes>
            0 -1 396 -1.3508835807442665e-02</internalNodes>
          <leafValues>
            2.6841539144515991e-01 -1.1353832483291626e-01</leafValues></_></weakClassifiers></_>
    <!-- stage 7 -->
    <_>
      <maxWeakCount>49</maxWeakCount>
      <stageThreshold>-8.8075792789459229e-01</stageThreshold>
      <weakClassifiers>
        <_>
          <internalNodes>
            0 -1 446 -1.5564962290227413e-02</internalNodes>
          <leafValues>
            1.9285714626312256e-01 -2.0787207782268524e-01</leafValues></_>
        <_>
          <internalNodes>
            0 -1 145 -1.3958334922790527e-02</internalNodes>
          <leafValues>
            2.9875499010086060e-01 -1.3226945698261261e-01</leafValues></_>
        <_>
          <internalNodes>
            0 -1 60 1.2180099636316299e-01</internalNodes>
          <leafValues>
            -2.0422853529453278e-01 1.5063853561878204e-01</leafValues></_>
        <_>
          <internalNodes>
            0 -1 88 3.4513607621192932e-02</internalNodes>
          <leafValues>
            -1.1927051097154617e-01 4.0719088912010193e-01</leafValues></_>
        <_>
          <internalNodes>
            0 -1 205 -8.2831475883722305e-03</internalNodes>
          <leafValues>
            5.1870012283325195e-01 7.5700245797634125e-03</leafValues></_>
        <_>
          <internalNodes>
            0 -1 320 2.4104062467813492e-02</internalNodes>
          <leafValues>
            2.5837614666670561e-03 -5.4915541410446167e-01</leafValues></_>
        <_>
          <internalNodes>
            0 -1 415 4.0243759751319885e-02</internalNodes>
          <leafValues>
            7.2456941008567810e-02 -4.6229374408721924e-01</leafValues></_>
        <_>
          <internalNodes>
            0 -1 519 -1.5789009921718389e-05</internalNodes>
          <leafValues>
            1.7236465215682983e-01 -1.9300320744514465e-01</leafValues></_>
        <_>
          <internalNodes>
            0 -1 684 1.3523962115868926e-03</internalNodes>
          <leafValues>
            -1.1761041730642319e-01 2.6886105537414551e-01</leafValues></_>
        <_>
          <internalNodes>
            0 -1 683 -9.9563598632812500e-04</internalNodes>
          <leafValues>
            3.1581860780715942e-01 -8.3337157964706421e-02</leafValues></_>
        <_>
          <internalNodes>
            0 -1 12 4.0107615292072296e-02</internalNodes>
          <leafValues>
            6.6805005073547363e-02 -5.1337277889251709e-01</leafValues></_>
        <_>
          <internalNodes>
            0 -1 188 2.2927480749785900e-03</internalNodes>
          <leafValues>
            -1.0024055093526840e-01 2.9260888695716858e-01</leafValues></_>
        <_>
          <internalNodes>
            0 -1 44 2.3815166205167770e-02</internalNodes>
          <leafValues>
            2.2327998653054237e-02 -9.4926273822784424e-01</leafValues></_>
        <_>
          <internalNodes>
            0 -1 590 -1.1674183188006282e-03</internalNodes>
          <leafValues>
            1.9995678961277008e-01 -1.2706115841865540e-01</leafValues></_>
        <_>
          <internalNodes>
            0 -1 388 4.2872093617916107e-02</internalNodes>
          <leafValues>
            -3.5909079015254974e-02 6.5016323328018188e-01</leafValues></_>
        <_>
          <internalNodes>
            0 -1 87 -2.7379153762012720e-03</internalNodes>
          <leafValues>
            2.0704509317874908e-01 -1.2327326089143753e-01</leafValues></_>
        <_>
          <internalNodes>
            0 -1 301 7.9317890107631683e-02</internalNodes>
          <leafValues>
            -5.9198770672082901e-02 4.7827401757240295e-01</leafValues></_>
        <_>
          <internalNodes>
            0 -1 329 5.2239656448364258e-02</internalNodes>
          <leafValues>
            -7.8388243913650513e-02 4.0950787067413330e-01</leafValues></_>
        <_>
          <internalNodes>
            0 -1 420 1.2807651422917843e-02</internalNodes>
          <leafValues>
            -1.0595895349979401e-01 2.8213486075401306e-01</leafValues></_>
        <_>
          <internalNodes>
            0 -1 585 -4.5135440304875374e-03</internalNodes>
          <leafValues>
            2.1853628754615784e-01 -1.3626146316528320e-01</leafValues></_>
        <_>
          <internalNodes>
            0 -1 335 -3.2637575641274452e-03</internalNodes>
          <leafValues>
            1.3867130875587463e-01 -2.3880602419376373e-01</leafValues></_>
        <_>
          <internalNodes>
            0 -1 276 -6.1275353655219078e-03</internalNodes>
          <leafValues>
            3.8728588819503784e-01 -8.8771581649780273e-02</leafValues></_>
        <_>
          <internalNodes>
            0 -1 384 4.1179035906679928e-04</internalNodes>
          <leafValues>
            1.0589940100908279e-01 -2.8498116135597229e-01</leafValues></_>
        <_>
          <internalNodes>
            0 -1 534 -1.1628293432295322e-03</internalNodes>
          <leafValues>
            -3.7869721651077271e-01 7.6246619224548340e-02</leafValues></_>
        <_>
          <internalNodes>
            0 -1 281 5.8241665363311768e-02</internalNodes>
          <leafValues>
            -8.7443739175796509e-02 3.8104626536369324e-01</leafValues></_>
        <_>
          <internalNodes>
            0 -1 596 -1.6171628885786049e-05</internalNodes>
          <leafValues>
            1.6718181967735291e-01 -1.8521504104137421e-01</leafValues></_>
        <_>
          <internalNodes>
            0 -1 252 -6.4210761338472366e-03</internalNodes>
          <leafValues>
            -4.6307611465454102e-01 6.1265457421541214e-02</leafValues></_>
        <_>
          <internalNodes>
            0 -1 711 3.1466188374906778e-05</internalNodes>
          <leafValues>
            -1.6371926665306091e-01 1.6555513441562653e-01</leafValues></_>
        <_>
          <internalNodes>
            0 -1 660 1.2614008970558643e-02</internalNodes>
          <leafValues>
            -1.3270221650600433e-01 2.2003597021102905e-01</leafValues></_>
        <_>
          <internalNodes>
            0 -1 137 -3.7064109928905964e-03</internalNodes>
          <leafValues>
            2.2136850655078888e-01 -1.2172077596187592e-01</leafValues></_>
        <_>
          <internalNodes>
            0 -1 733 -1.9865380600094795e-03</internalNodes>
          <leafValues>
            4.9411988258361816e-01 -5.5795237421989441e-02</leafValues></_>
        <_>
          <internalNodes>
            0 -1 153 6.5028801560401917e-02</internalNodes>
          <leafValues>
            -2.1538442373275757e-01 1.3810566067695618e-01</leafValues></_>
        <_>
          <internalNodes>
            0 -1 93 1.8508119881153107e-01</internalNodes>
          <leafValues>
            -5.5078826844692230e-02 5.3898835182189941e-01</leafValues></_>
        <_>
          <internalNodes>
            0 -1 85 -6.6382414661347866e-04</internalNodes>
          <leafValues>
            -2.7724295854568481e-01 1.2232147157192230e-01</leafValues></_>
        <_>
          <internalNodes>
            0 -1 169 -6.1806682497262955e-03</internalNodes>
          <leafValues>
            3.9605706930160522e-01 -8.0155439674854279e-02</leafValues></_>
        <_>
          <internalNodes>
            0 -1 429 -1.4193472452461720e-03</internalNodes>
          <leafValues>
            2.5808468461036682e-01 -1.1324954777956009e-01</leafValues></_>
        <_>
          <internalNodes>
            0 -1 467 -6.2981164082884789e-03</internalNodes>
          <leafValues>
            -3.0353462696075439e-01 9.7715787589550018e-02</leafValues></_>
        <_>
          <internalNodes>
            0 -1 427 5.1721192896366119e-02</internalNodes>
          <leafValues>
            -6.2851347029209137e-02 4.2450782656669617e-01</leafValues></_>
        <_>
          <internalNodes>
            0 -1 135 -7.1826502680778503e-02</internalNodes>
          <leafValues>
            -8.4834915399551392e-01 3.2715111970901489e-02</leafValues></_>
        <_>
          <internalNodes>
            0 -1 163 -1.0240651667118073e-01</internalNodes>
          <leafValues>
            3.0865064263343811e-01 -9.7679682075977325e-02</leafValues></_>
        <_>
          <internalNodes>
            0 -1 556 -8.9014263357967138e-04</internalNodes>
          <leafValues>
            2.0475110411643982e-01 -1.4733019471168518e-01</leafValues></_>
        <_>
          <internalNodes>
            0 -1 218 -4.5179799199104309e-03</internalNodes>
          <leafValues>
            -4.1730448603630066e-01 7.3294065892696381e-02</leafValues></_>
        <_>
          <internalNodes>
            0 -1 412 -3.5226403269916773e-05</internalNodes>
          <leafValues>
            1.6815541684627533e-01 -1.7875070869922638e-01</leafValues></_>
        <_>
          <internalNodes>
            0 -1 502 1.2507727369666100e-02</internalNodes>
          <leafValues>
            3.6279551684856415e-02 -8.2509499788284302e-01</leafValues></_>
        <_>
          <internalNodes>
            0 -1 160 -4.2835776694118977e-03</internalNodes>
          <leafValues>
            6.5394163131713867e-01 -4.8894688487052917e-02</leafValues></_>
        <_>
          <internalNodes>
            0 -1 528 1.6210457033594139e-05</internalNodes>
          <leafValues>
            -1.4645527303218842e-01 2.0268921554088593e-01</leafValues></_>
        <_>
          <internalNodes>
            0 -1 486 -1.5714282199041918e-05</internalNodes>
          <leafValues>
            1.5642657876014709e-01 -1.7044146358966827e-01</leafValues></_>
        <_>
          <internalNodes>
            0 -1 738 -4.4831809645984322e-05</internalNodes>
          <leafValues>
            2.1119882166385651e-01 -1.3354505598545074e-01</leafValues></_>
        <_>
          <internalNodes>
            0 -1 698 -1.5717346104793251e-04</internalNodes>
          <leafValues>
            1.6348838806152344e-01 -1.6517043113708496e-01</leafValues></_></weakClassifiers></_>
    <!-- stage 8 -->
    <_>
      <maxWeakCount>46</maxWeakCount>
      <stageThreshold>-7.9079020023345947e-01</stageThreshold>
      <weakClassifiers>
        <_>
          <internalNodes>
            0 -1 209 -2.7776253223419189e-01</internalNodes>
          <leafValues>
            3.2149201631546021e-01 -1.7247706651687622e-01</leafValues></_>
        <_>
          <internalNodes>
            0 -1 445 -1.0126305744051933e-02</internalNodes>
          <leafValues>
            -5.9903812408447266e-01 5.3686946630477905e-02</leafValues></_>
        <_>
          <internalNodes>
            0 -1 471 6.0517992824316025e-03</internalNodes>
          <leafValues>
            -7.5148791074752808e-02 3.5466402769088745e-01</leafValues></_>
        <_>
          <internalNodes>
            0 -1 520 5.2290293388068676e-03</internalNodes>
          <leafValues>
            -1.3751566410064697e-01 1.8622910976409912e-01</leafValues></_>
        <_>
          <internalNodes>
            0 -1 289 -7.3006734251976013e-02</internalNodes>
          <leafValues>
            1.9459621608257294e-01 -1.2175380438566208e-01</leafValues></_>
        <_>
          <internalNodes>
            0 -1 549 -2.5249928236007690e-02</internalNodes>
          <leafValues>
            3.4651750326156616e-01 -9.8316535353660583e-02</leafValues></_>
        <_>
          <internalNodes>
            0 -1 309 1.4458695054054260e-01</internalNodes>
          <leafValues>
            -2.8690956532955170e-02 6.2315148115158081e-01</leafValues></_>
        <_>
          <internalNodes>
            0 -1 288 5.3599494276568294e-04</internalNodes>
          <leafValues>
            -1.2161649763584137e-01 2.2504724562168121e-01</leafValues></_>
        <_>
          <internalNodes>
            0 -1 158 -1.7266806960105896e-01</internalNodes>
          <leafValues>
            4.1354545950889587e-01 -7.5036212801933289e-02</leafValues></_>
        <_>
          <internalNodes>
            0 -1 538 -1.9067995890509337e-04</internalNodes>
          <leafValues>
            1.9847442209720612e-01 -1.3678385317325592e-01</leafValues></_>
        <_>
          <internalNodes>
            0 -1 351 -1.0818991810083389e-02</internalNodes>
          <leafValues>
            -7.8025060892105103e-01 6.0109090059995651e-02</leafValues></_>
        <_>
          <internalNodes>
            0 -1 51 -4.8659894615411758e-02</internalNodes>
          <leafValues>
            -9.0004885196685791e-01 8.2849676255136728e-04</leafValues></_>
        <_>
          <internalNodes>
            0 -1 243 1.5143663622438908e-02</internalNodes>
          <leafValues>
            -5.9802588075399399e-02 4.1191411018371582e-01</leafValues></_>
        <_>
          <internalNodes>
            0 -1 216 -1.7742022871971130e-02</internalNodes>
          <leafValues>
            2.1419271826744080e-01 -1.4554868638515472e-01</leafValues></_>
        <_>
          <internalNodes>
            0 -1 279 -4.1184589266777039e-02</internalNodes>
          <leafValues>
            -3.3953115344047546e-01 9.8635822534561157e-02</leafValues></_>
        <_>
          <internalNodes>
            0 -1 476 -5.1801018416881561e-03</internalNodes>
          <leafValues>
            -6.6689598560333252e-01 4.8497404903173447e-02</leafValues></_>
        <_>
          <internalNodes>
            0 -1 544 3.2892577350139618e-02</internalNodes>
          <leafValues>
            1.7472743988037109e-02 -8.5366380214691162e-01</leafValues></_>
        <_>
          <internalNodes>
            0 -1 404 -3.9573875255882740e-03</internalNodes>
          <leafValues>
            2.6631048321723938e-01 -9.9205002188682556e-02</leafValues></_>
        <_>
          <internalNodes>
            0 -1 361 4.8562552779912949e-02</internalNodes>
          <leafValues>
            3.9378244429826736e-02 -7.8317511081695557e-01</leafValues></_>
        <_>
          <internalNodes>
            0 -1 713 8.3039391029160470e-05</internalNodes>
          <leafValues>
            -1.5819674730300903e-01 1.6360272467136383e-01</leafValues></_>
        <_>
          <internalNodes>
            0 -1 691 9.3393330462276936e-04</internalNodes>
          <leafValues>
            1.0982858389616013e-01 -2.7769434452056885e-01</leafValues></_>
        <_>
          <internalNodes>
            0 -1 695 8.0442451871931553e-04</internalNodes>
          <leafValues>
            -8.1035837531089783e-02 3.6332100629806519e-01</leafValues></_>
        <_>
          <internalNodes>
            0 -1 640 -6.9800536148250103e-03</internalNodes>
          <leafValues>
            -2.2739927470684052e-01 1.1727365851402283e-01</leafValues></_>
        <_>
          <internalNodes>
            0 -1 693 1.0040351189672947e-03</internalNodes>
          <leafValues>
            -6.7829027771949768e-02 4.6290117502212524e-01</leafValues></_>
        <_>
          <internalNodes>
            0 -1 732 2.1676598116755486e-03</internalNodes>
          <leafValues>
            -2.1792122721672058e-01 1.4821027219295502e-01</leafValues></_>
        <_>
          <internalNodes>
            0 -1 622 7.9537427518516779e-04</internalNodes>
          <leafValues>
            -1.2021967768669128e-01 2.1178767085075378e-01</leafValues></_>
        <_>
          <internalNodes>
            0 -1 424 -1.1313082650303841e-03</internalNodes>
          <leafValues>
            2.3623163998126984e-01 -1.0492587834596634e-01</leafValues></_>
        <_>
          <internalNodes>
            0 -1 634 -5.0936546176671982e-04</internalNodes>
          <leafValues>
            -3.7523069977760315e-01 6.5391890704631805e-02</leafValues></_>
        <_>
          <internalNodes>
            0 -1 401 1.4424076676368713e-01</internalNodes>
          <leafValues>
            -4.3939232826232910e-02 5.8684980869293213e-01</leafValues></_>
        <_>
          <internalNodes>
            0 -1 694 -3.3748715650290251e-03</internalNodes>
          <leafValues>
            2.4814318120479584e-01 -1.0751089453697205e-01</leafValues></_>
        <_>
          <internalNodes>
            0 -1 697 2.4138307198882103e-03</internalNodes>
          <leafValues>
            -1.4777086675167084e-01 2.3723587393760681e-01</leafValues></_>
        <_>
          <internalNodes>
            0 -1 594 1.8128957599401474e-02</internalNodes>
          <leafValues>
            -4.1792787611484528e-02 6.2987941503524780e-01</leafValues></_>
        <_>
          <internalNodes>
            0 -1 627 -3.1206596759147942e-05</internalNodes>
          <leafValues>
            1.6948759555816650e-01 -1.7251561582088470e-01</leafValues></_>
        <_>
          <internalNodes>
            0 -1 114 3.8372650742530823e-02</internalNodes>
          <leafValues>
            -4.9763828516006470e-02 4.9550655484199524e-01</leafValues></_>
        <_>
          <internalNodes>
            0 -1 65 -1.8451765645295382e-03</internalNodes>
          <leafValues>
            1.8630051612854004e-01 -1.3988494873046875e-01</leafValues></_>
        <_>
          <internalNodes>
            0 -1 225 -7.6320096850395203e-03</internalNodes>
          <leafValues>
            5.1619225740432739e-01 -5.9627790004014969e-02</leafValues></_>
        <_>
          <internalNodes>
            0 -1 464 -1.9085446838289499e-03</internalNodes>
          <leafValues>
            -3.8954046368598938e-01 7.5951166450977325e-02</leafValues></_>
        <_>
          <internalNodes>
            0 -1 195 7.9662185162305832e-03</internalNodes>
          <leafValues>
            -1.0167975723743439e-01 2.9278266429901123e-01</leafValues></_>
        <_>
          <internalNodes>
            0 -1 591 -3.8103924453025684e-05</internalNodes>
          <leafValues>
            1.6724558174610138e-01 -1.5853574872016907e-01</leafValues></_>
        <_>
          <internalNodes>
            0 -1 367 -3.9642816409468651e-03</internalNodes>
          <leafValues>
            2.0197634398937225e-01 -1.3684739172458649e-01</leafValues></_>
        <_>
          <internalNodes>
            0 -1 589 7.0985062047839165e-03</internalNodes>
          <leafValues>
            -4.4976744800806046e-02 5.4511296749114990e-01</leafValues></_>
        <_>
          <internalNodes>
            0 -1 156 1.5907168388366699e-02</internalNodes>
          <leafValues>
            -6.7319348454475403e-02 4.0077367424964905e-01</leafValues></_>
        <_>
          <internalNodes>
            0 -1 451 -3.7157686165301129e-05</internalNodes>
          <leafValues>
            1.4837728440761566e-01 -1.8640057742595673e-01</leafValues></_>
        <_>
          <internalNodes>
            0 -1 294 -4.7512784600257874e-02</internalNodes>
          <leafValues>
            -4.6020072698593140e-01 6.2394279986619949e-02</leafValues></_>
        <_>
          <internalNodes>
            0 -1 223 -2.5824137264862657e-04</internalNodes>
          <leafValues>
            1.5151359140872955e-01 -1.6247010231018066e-01</leafValues></_>
        <_>
          <internalNodes>
            0 -1 146 3.1638413667678833e-02</internalNodes>
          <leafValues>
            -6.8573206663131714e-02 4.0850135684013367e-01</leafValues></_></weakClassifiers></_>
    <!-- stage 9 -->
    <_>
      <maxWeakCount>45</maxWeakCount>
      <stageThreshold>-8.1949239969253540e-01</stageThreshold>
      <weakClassifiers>
        <_>
          <internalNodes>
            0 -1 238 -2.2768451273441315e-01</internalNodes>
          <leafValues>
            2.4469590187072754e-01 -1.9027483463287354e-01</leafValues></_>
        <_>
          <internalNodes>
            0 -1 561 4.3958728201687336e-04</internalNodes>
          <leafValues>
            -2.6479798555374146e-01 1.2868195772171021e-01</leafValues></_>
        <_>
          <internalNodes>
            0 -1 142 2.0575444214046001e-03</internalNodes>
          <leafValues>
            -1.3189284503459930e-01 2.1597090363502502e-01</leafValues></_>
        <_>
          <internalNodes>
            0 -1 418 2.1956842392683029e-02</internalNodes>
          <leafValues>
            1.4119044877588749e-02 -4.9382245540618896e-01</leafValues></_>
        <_>
          <internalNodes>
            0 -1 81 -9.0874526649713516e-03</internalNodes>
          <leafValues>
            -5.0379395484924316e-01 1.1319726705551147e-01</leafValues></_>
        <_>
          <internalNodes>
            0 -1 685 9.0915169566869736e-03</internalNodes>
          <leafValues>
            -1.2910002470016479e-01 3.0422985553741455e-01</leafValues></_>
        <_>
          <internalNodes>
            0 -1 53 7.1135896723717451e-04</internalNodes>
          <leafValues>
            -1.4021129906177521e-01 2.1770919859409332e-01</leafValues></_>
        <_>
          <internalNodes>
            0 -1 110 -4.0740985423326492e-03</internalNodes>
          <leafValues>
            1.9928756356239319e-01 -1.5581992268562317e-01</leafValues></_>
        <_>
          <internalNodes>
            0 -1 212 5.2151824347674847e-03</internalNodes>
          <leafValues>
            -4.0011610835790634e-02 4.3144854903221130e-01</leafValues></_>
        <_>
          <internalNodes>
            0 -1 133 1.0826415382325649e-02</internalNodes>
          <leafValues>
            -1.0981412231922150e-01 2.7635276317596436e-01</leafValues></_>
        <_>
          <internalNodes>
            0 -1 337 4.2378916405141354e-03</internalNodes>
          <leafValues>
            2.7645066380500793e-02 -8.3437669277191162e-01</leafValues></_>
        <_>
          <internalNodes>
            0 -1 254 -1.1930440086871386e-04</internalNodes>
          <leafValues>
            1.5310962498188019e-01 -1.9195656478404999e-01</leafValues></_>
        <_>
          <internalNodes>
            0 -1 671 -2.3051191237755120e-04</internalNodes>
          <leafValues>
            -1.6371555626392365e-01 1.6760765016078949e-01</leafValues></_>
        <_>
          <internalNodes>
            0 -1 492 3.3489326015114784e-03</internalNodes>
          <leafValues>
            1.5737578272819519e-02 -8.5552412271499634e-01</leafValues></_>
        <_>
          <internalNodes>
            0 -1 441 1.3882324099540710e-02</internalNodes>
          <leafValues>
            -7.1302235126495361e-02 3.4684950113296509e-01</leafValues></_>
        <_>
          <internalNodes>
            0 -1 319 3.1355477403849363e-04</internalNodes>
          <leafValues>
            -1.4034822583198547e-01 2.0740309357643127e-01</leafValues></_>
        <_>
          <internalNodes>
            0 -1 410 -5.3303869208320975e-05</internalNodes>
          <leafValues>
            1.2135464698076248e-01 -2.1830977499485016e-01</leafValues></_>
        <_>
          <internalNodes>
            0 -1 273 -5.7896587997674942e-02</internalNodes>
          <leafValues>
            1.7713665962219238e-01 -1.5345911681652069e-01</leafValues></_>
        <_>
          <internalNodes>
            0 -1 366 6.4556021243333817e-03</internalNodes>
          <leafValues>
            -8.8286668062210083e-02 3.9104396104812622e-01</leafValues></_>
        <_>
          <internalNodes>
            0 -1 474 -2.4938471615314484e-03</internalNodes>
          <leafValues>
            -5.9401112794876099e-01 5.2988868206739426e-02</leafValues></_>
        <_>
          <internalNodes>
            0 -1 31 7.3551712557673454e-04</internalNodes>
          <leafValues>
            -1.7139974236488342e-01 1.5398694574832916e-01</leafValues></_>
        <_>
          <internalNodes>
            0 -1 551 1.6724361106753349e-02</internalNodes>
          <leafValues>
            -6.6289991140365601e-02 3.5809388756752014e-01</leafValues></_>
        <_>
          <internalNodes>
            0 -1 554 -4.0010679513216019e-03</internalNodes>
          <leafValues>
            2.5250151753425598e-01 -1.0455957055091858e-01</leafValues></_>
        <_>
          <internalNodes>
            0 -1 488 3.9294168353080750e-02</internalNodes>
          <leafValues>
            -2.0523834228515625e-01 1.5675371885299683e-01</leafValues></_>
        <_>
          <internalNodes>
            0 -1 28 5.7724840939044952e-02</internalNodes>
          <leafValues>
            -4.1398666799068451e-02 8.6589515209197998e-01</leafValues></_>
        <_>
          <internalNodes>
            0 -1 421 -2.4781557731330395e-03</internalNodes>
          <leafValues>
            -8.3684051036834717e-01 4.2315378785133362e-02</leafValues></_>
        <_>
          <internalNodes>
            0 -1 69 1.4323109760880470e-02</internalNodes>
          <leafValues>
            -9.4882562756538391e-02 2.9246085882186890e-01</leafValues></_>
        <_>
          <internalNodes>
            0 -1 712 3.4977942705154419e-03</internalNodes>
          <leafValues>
            -5.5798590183258057e-02 4.3717947602272034e-01</leafValues></_>
        <_>
          <internalNodes>
            0 -1 70 7.5446390546858311e-03</internalNodes>
          <leafValues>
            -9.5128275454044342e-02 3.2118415832519531e-01</leafValues></_>
        <_>
          <internalNodes>
            0 -1 186 -2.0137744024395943e-02</internalNodes>
          <leafValues>
            1.8915534019470215e-01 -1.6167534887790680e-01</leafValues></_>
        <_>
          <internalNodes>
            0 -1 2 1.6072385187726468e-04</internalNodes>
          <leafValues>
            -1.7296335101127625e-01 1.5986296534538269e-01</leafValues></_>
        <_>
          <internalNodes>
            0 -1 46 -2.5254830718040466e-02</internalNodes>
          <leafValues>
            -4.8614767193794250e-01 4.7778975218534470e-02</leafValues></_>
        <_>
          <internalNodes>
            0 -1 292 -3.6319202627055347e-04</internalNodes>
          <leafValues>
            1.8452231585979462e-01 -1.4898283779621124e-01</leafValues></_>
        <_>
          <internalNodes>
            0 -1 439 3.4989728592336178e-03</internalNodes>
          <leafValues>
            -1.0245437175035477e-01 2.7893194556236267e-01</leafValues></_>
        <_>
          <internalNodes>
            0 -1 98 -4.8908232711255550e-03</internalNodes>
          <leafValues>
            -4.2228993773460388e-01 7.3487624526023865e-02</leafValues></_>
        <_>
          <internalNodes>
            0 -1 570 -1.1759352637454867e-03</internalNodes>
          <leafValues>
            -7.4109274148941040e-01 2.6548171415925026e-02</leafValues></_>
        <_>
          <internalNodes>
            0 -1 274 -1.2185904197394848e-02</internalNodes>
          <leafValues>
            -5.2566999197006226e-01 4.9472972750663757e-02</leafValues></_>
        <_>
          <internalNodes>
            0 -1 708 2.8731403872370720e-03</internalNodes>
          <leafValues>
            -7.7067010104656219e-02 3.7993735074996948e-01</leafValues></_>
        <_>
          <internalNodes>
            0 -1 13 8.8947653770446777e-02</internalNodes>
          <leafValues>
            6.4031787216663361e-02 -4.0403756499290466e-01</leafValues></_>
        <_>
          <internalNodes>
            0 -1 96 1.1001703888177872e-01</internalNodes>
          <leafValues>
            -4.4409234076738358e-02 6.0992980003356934e-01</leafValues></_>
        <_>
          <internalNodes>
            0 -1 468 -2.3531362414360046e-02</internalNodes>
          <leafValues>
            1.6099369525909424e-01 -1.8259587883949280e-01</leafValues></_>
        <_>
          <internalNodes>
            0 -1 537 8.1477668136358261e-03</internalNodes>
          <leafValues>
            -1.1936043947935104e-01 2.3996400833129883e-01</leafValues></_>
        <_>
          <internalNodes>
            0 -1 35 -8.2294084131717682e-04</internalNodes>
          <leafValues>
            -1.8848298490047455e-01 1.4915743470191956e-01</leafValues></_>
        <_>
          <internalNodes>
            0 -1 350 1.0521706193685532e-02</internalNodes>
          <leafValues>
            -1.5944130718708038e-01 1.6345533728599548e-01</leafValues></_>
        <_>
          <internalNodes>
            0 -1 422 -1.1816995684057474e-03</internalNodes>
          <leafValues>
            1.8237923085689545e-01 -1.5237414836883545e-01</leafValues></_></weakClassifiers></_>
    <!-- stage 10 -->
    <_>
      <maxWeakCount>30</maxWeakCount>
      <stageThreshold>-9.7631740570068359e-01</stageThreshold>
      <weakClassifiers>
        <_>
          <internalNodes>
            0 -1 62 -9.2239916324615479e-02</internalNodes>
          <leafValues>
            2.6478150486946106e-01 -2.4342857301235199e-01</leafValues></_>
        <_>
          <internalNodes>
            0 -1 365 -3.9343605749309063e-03</internalNodes>
          <leafValues>
            -6.1712211370468140e-01 9.2153839766979218e-02</leafValues></_>
        <_>
          <internalNodes>
            0 -1 559 -6.9603882730007172e-03</internalNodes>
          <leafValues>
            -6.5893787145614624e-01 9.4185896217823029e-02</leafValues></_>
        <_>
          <internalNodes>
            0 -1 340 -4.1124746203422546e-03</internalNodes>
          <leafValues>
            -2.7673271298408508e-01 1.7618390917778015e-01</leafValues></_>
        <_>
          <internalNodes>
            0 -1 402 4.2521748691797256e-03</internalNodes>
          <leafValues>
            8.4613122045993805e-02 -4.9790033698081970e-01</leafValues></_>
        <_>
          <internalNodes>
            0 -1 314 -9.6583031117916107e-03</internalNodes>
          <leafValues>
            -5.7674217224121094e-01 7.1553006768226624e-02</leafValues></_>
        <_>
          <internalNodes>
            0 -1 566 -4.9595855176448822e-02</internalNodes>
          <leafValues>
            4.5707014203071594e-01 -9.8671182990074158e-02</leafValues></_>
        <_>
          <internalNodes>
            0 -1 16 -9.5199398696422577e-02</internalNodes>
          <leafValues>
            4.8708355426788330e-01 -1.1406590044498444e-01</leafValues></_>
        <_>
          <internalNodes>
            0 -1 558 3.8143835263326764e-04</internalNodes>
          <leafValues>
            1.2655808031558990e-01 -3.4699872136116028e-01</leafValues></_>
        <_>
          <internalNodes>
            0 -1 598 -8.9759915135800838e-04</internalNodes>
          <leafValues>
            -6.1248654127120972e-01 8.2880310714244843e-02</leafValues></_>
        <_>
          <internalNodes>
            0 -1 723 -1.6264491714537144e-03</internalNodes>
          <leafValues>
            -3.4170502424240112e-01 1.3016048073768616e-01</leafValues></_>
        <_>
          <internalNodes>
            0 -1 475 2.0022953394800425e-03</internalNodes>
          <leafValues>
            7.3645561933517456e-02 -5.5356585979461670e-01</leafValues></_>
        <_>
          <internalNodes>
            0 -1 583 5.7957641547545791e-04</internalNodes>
          <leafValues>
            1.0070070624351501e-01 -3.7410673499107361e-01</leafValues></_>
        <_>
          <internalNodes>
            0 -1 553 -5.8585312217473984e-03</internalNodes>
          <leafValues>
            -6.3148993253707886e-01 4.5073200017213821e-02</leafValues></_>
        <_>
          <internalNodes>
            0 -1 0 -5.2363541908562183e-04</internalNodes>
          <leafValues>
            -3.0412483215332031e-01 1.2237336486577988e-01</leafValues></_>
        <_>
          <internalNodes>
            0 -1 419 2.2111531870905310e-04</internalNodes>
          <leafValues>
            1.1962052434682846e-01 -2.9544320702552795e-01</leafValues></_>
        <_>
          <internalNodes>
            0 -1 379 1.4291016850620508e-04</internalNodes>
          <leafValues>
            1.3866992294788361e-01 -2.5712519884109497e-01</leafValues></_>
        <_>
          <internalNodes>
            0 -1 105 4.9303866922855377e-02</internalNodes>
          <leafValues>
            -6.8006210029125214e-02 6.2207382917404175e-01</leafValues></_>
        <_>
          <internalNodes>
            0 -1 514 -2.6764091104269028e-02</internalNodes>
          <leafValues>
            2.3074859380722046e-01 -1.6865672171115875e-01</leafValues></_>
        <_>
          <internalNodes>
            0 -1 349 2.6305909268558025e-03</internalNodes>
          <leafValues>
            9.5572233200073242e-02 -4.0689954161643982e-01</leafValues></_>
        <_>
          <internalNodes>
            0 -1 603 -6.4794406294822693e-02</internalNodes>
          <leafValues>
            4.1655617952346802e-01 -9.7298040986061096e-02</leafValues></_>
        <_>
          <internalNodes>
            0 -1 688 -1.9018257444258779e-04</internalNodes>
          <leafValues>
            -3.1732687354087830e-01 1.5831172466278076e-01</leafValues></_>
        <_>
          <internalNodes>
            0 -1 611 2.5418205186724663e-03</internalNodes>
          <leafValues>
            1.6663111746311188e-01 -2.5471484661102295e-01</leafValues></_>
        <_>
          <internalNodes>
            0 -1 72 -5.8518694713711739e-03</internalNodes>
          <leafValues>
            5.0015622377395630e-01 -7.5997248291969299e-02</leafValues></_>
        <_>
          <internalNodes>
            0 -1 529 -8.6143723456189036e-04</internalNodes>
          <leafValues>
            -3.3988213539123535e-01 1.0729158669710159e-01</leafValues></_>
        <_>
          <internalNodes>
            0 -1 461 -4.2429461609572172e-04</internalNodes>
          <leafValues>
            -3.8129442930221558e-01 8.8566385209560394e-02</leafValues></_>
        <_>
          <internalNodes>
            0 -1 61 5.5799614638090134e-02</internalNodes>
          <leafValues>
            -8.9939877390861511e-02 4.2965713143348694e-01</leafValues></_>
        <_>
          <internalNodes>
            0 -1 417 1.5052386152092367e-04</internalNodes>
          <leafValues>
            1.4936412870883942e-01 -2.5462350249290466e-01</leafValues></_>
        <_>
          <internalNodes>
            0 -1 687 4.3594860471785069e-04</internalNodes>
          <leafValues>
            1.1428697407245636e-01 -3.0885943770408630e-01</leafValues></_>
        <_>
          <internalNodes>
            0 -1 573 8.0099321901798248e-02</internalNodes>
          <leafValues>
            -4.8947211354970932e-02 7.3949402570724487e-01</leafValues></_></weakClassifiers></_>
    <!-- stage 11 -->
    <_>
      <maxWeakCount>33</maxWeakCount>
      <stageThreshold>-9.6323370933532715e-01</stageThreshold>
      <weakClassifiers>
        <_>
          <internalNodes>
            0 -1 496 2.3720953613519669e-03</internalNodes>
          <leafValues>
            9.0262971818447113e-02 -5.4471546411514282e-01</leafValues></_>
        <_>
          <internalNodes>
            0 -1 39 -9.8556071519851685e-02</internalNodes>
          <leafValues>
            3.2986178994178772e-01 -1.5682029724121094e-01</leafValues></_>
        <_>
          <internalNodes>
            0 -1 23 1.8643664196133614e-02</internalNodes>
          <leafValues>
            -7.3196344077587128e-02 4.1554951667785645e-01</leafValues></_>
        <_>
          <internalNodes>
            0 -1 210 8.3085998892784119e-02</internalNodes>
          <leafValues>
            -1.2119049578905106e-01 4.7684282064437866e-01</leafValues></_>
        <_>
          <internalNodes>
            0 -1 220 -5.8976810425519943e-02</internalNodes>
          <leafValues>
            1.9755022227764130e-01 -2.2859729826450348e-01</leafValues></_>
        <_>
          <internalNodes>
            0 -1 517 -9.1270908713340759e-02</internalNodes>
          <leafValues>
            4.5667257905006409e-01 -9.8961338400840759e-02</leafValues></_>
        <_>
          <internalNodes>
            0 -1 113 -4.4874887913465500e-02</internalNodes>
          <leafValues>
            2.6319766044616699e-01 -2.0262466371059418e-01</leafValues></_>
        <_>
          <internalNodes>
            0 -1 411 -4.5273778960108757e-04</internalNodes>
          <leafValues>
            -3.8411697745323181e-01 1.4783756434917450e-01</leafValues></_>
        <_>
          <internalNodes>
            0 -1 455 7.6033100485801697e-02</internalNodes>
          <leafValues>
            -1.1512291431427002e-01 4.8341211676597595e-01</leafValues></_>
        <_>
          <internalNodes>
            0 -1 229 6.3317649066448212e-02</internalNodes>
          <leafValues>
            -8.4549427032470703e-02 4.3123999238014221e-01</leafValues></_>
        <_>
          <internalNodes>
            0 -1 729 -1.9264945876784623e-04</internalNodes>
          <leafValues>
            -2.9264673590660095e-01 1.2056133896112442e-01</leafValues></_>
        <_>
          <internalNodes>
            0 -1 460 2.7400685939937830e-03</internalNodes>
          <leafValues>
            8.0758512020111084e-02 -5.7932645082473755e-01</leafValues></_>
        <_>
          <internalNodes>
            0 -1 307 -9.1473469510674477e-03</internalNodes>
          <leafValues>
            -7.5406944751739502e-01 4.4766869395971298e-02</leafValues></_>
        <_>
          <internalNodes>
            0 -1 338 4.9216682091355324e-03</internalNodes>
          <leafValues>
            5.5670958012342453e-02 -5.2593386173248291e-01</leafValues></_>
        <_>
          <internalNodes>
            0 -1 423 1.3782488182187080e-02</internalNodes>
          <leafValues>
            -1.1220371723175049e-01 3.3051487803459167e-01</leafValues></_>
        <_>
          <internalNodes>
            0 -1 11 -8.3984941244125366e-02</internalNodes>
          <leafValues>
            3.9627167582511902e-01 -9.9220193922519684e-02</leafValues></_>
        <_>
          <internalNodes>
            0 -1 284 2.4660560302436352e-04</internalNodes>
          <leafValues>
            -1.6238734126091003e-01 2.2892361879348755e-01</leafValues></_>
        <_>
          <internalNodes>
            0 -1 119 -7.8308710362762213e-04</internalNodes>
          <leafValues>
            2.0464764535427094e-01 -1.6400243341922760e-01</leafValues></_>
        <_>
          <internalNodes>
            0 -1 709 -9.4873731723055243e-04</internalNodes>
          <leafValues>
            -2.5075143575668335e-01 1.4665010571479797e-01</leafValues></_>
        <_>
          <internalNodes>
            0 -1 466 1.2037972919642925e-02</internalNodes>
          <leafValues>
            5.4678458720445633e-02 -6.6338717937469482e-01</leafValues></_>
        <_>
          <internalNodes>
            0 -1 154 -3.2628931105136871e-02</internalNodes>
          <leafValues>
            2.5633129477500916e-01 -1.2993769347667694e-01</leafValues></_>
        <_>
          <internalNodes>
            0 -1 89 1.2643851339817047e-01</internalNodes>
          <leafValues>
            -1.8194805085659027e-01 1.9568511843681335e-01</leafValues></_>
        <_>
          <internalNodes>
            0 -1 37 1.0858101397752762e-01</internalNodes>
          <leafValues>
            -7.2323024272918701e-02 6.4820945262908936e-01</leafValues></_>
        <_>
          <internalNodes>
            0 -1 275 -2.3638656362891197e-02</internalNodes>
          <leafValues>
            1.7065070569515228e-01 -2.2583083808422089e-01</leafValues></_>
        <_>
          <internalNodes>
            0 -1 323 -7.8170798718929291e-02</internalNodes>
          <leafValues>
            4.7748661041259766e-01 -9.0713813900947571e-02</leafValues></_>
        <_>
          <internalNodes>
            0 -1 435 2.3740306496620178e-02</internalNodes>
          <leafValues>
            -8.8519051671028137e-02 4.1860747337341309e-01</leafValues></_>
        <_>
          <internalNodes>
            0 -1 224 -8.9777936227619648e-04</internalNodes>
          <leafValues>
            -2.5917488336563110e-01 1.4392161369323730e-01</leafValues></_>
        <_>
          <internalNodes>
            0 -1 490 -2.7667407266562805e-05</internalNodes>
          <leafValues>
            2.0006202161312103e-01 -1.8044160306453705e-01</leafValues></_>
        <_>
          <internalNodes>
            0 -1 250 9.1960094869136810e-02</internalNodes>
          <leafValues>
            -4.1384492069482803e-02 7.9338967800140381e-01</leafValues></_>
        <_>
          <internalNodes>
            0 -1 221 -3.6757620982825756e-03</internalNodes>
          <leafValues>
            -2.7476349472999573e-01 1.2597769498825073e-01</leafValues></_>
        <_>
          <internalNodes>
            0 -1 516 1.1149901896715164e-02</internalNodes>
          <leafValues>
            3.7098977714776993e-02 -8.3017367124557495e-01</leafValues></_>
        <_>
          <internalNodes>
            0 -1 34 5.7643562555313110e-02</internalNodes>
          <leafValues>
            -8.8117979466915131e-02 4.4717001914978027e-01</leafValues></_>
        <_>
          <internalNodes>
            0 -1 183 1.7262506298720837e-04</internalNodes>
          <leafValues>
            1.4755049347877502e-01 -2.6370778679847717e-01</leafValues></_></weakClassifiers></_>
    <!-- stage 12 -->
    <_>
      <maxWeakCount>35</maxWeakCount>
      <stageThreshold>-8.2192593812942505e-01</stageThreshold>
      <weakClassifiers>
        <_>
          <internalNodes>
            0 -1 543 -1.6106003386084922e-05</internalNodes>
          <leafValues>
            1.8212290108203888e-01 -2.2427441179752350e-01</leafValues></_>
        <_>
          <internalNodes>
            0 -1 730 3.3444329164922237e-03</internalNodes>
          <leafValues>
            -1.6509649157524109e-01 2.4069856107234955e-01</leafValues></_>
        <_>
          <internalNodes>
            0 -1 597 -3.5524198319762945e-03</internalNodes>
          <leafValues>
            -6.1591792106628418e-01 5.9128869324922562e-02</leafValues></_>
        <_>
          <internalNodes>
            0 -1 141 1.5781147778034210e-01</internalNodes>
          <leafValues>
            8.7827414274215698e-02 -5.9107226133346558e-01</leafValues></_>
        <_>
          <internalNodes>
            0 -1 535 3.4638860961422324e-04</internalNodes>
          <leafValues>
            1.0265521705150604e-01 -3.0370381474494934e-01</leafValues></_>
        <_>
          <internalNodes>
            0 -1 4 -1.2690603034570813e-03</internalNodes>
          <leafValues>
            -2.8695616126060486e-01 1.2624086439609528e-01</leafValues></_>
        <_>
          <internalNodes>
            0 -1 150 -1.5208662487566471e-02</internalNodes>
          <leafValues>
            2.7036711573600769e-01 -1.4129145443439484e-01</leafValues></_>
        <_>
          <internalNodes>
            0 -1 406 1.4311270788311958e-02</internalNodes>
          <leafValues>
            -9.9651500582695007e-02 3.7247610092163086e-01</leafValues></_>
        <_>
          <internalNodes>
            0 -1 489 -2.0238327851984650e-04</internalNodes>
          <leafValues>
            -3.0215352773666382e-01 1.2319675832986832e-01</leafValues></_>
        <_>
          <internalNodes>
            0 -1 256 -1.9129861146211624e-02</internalNodes>
          <leafValues>
            1.7168939113616943e-01 -2.0468342304229736e-01</leafValues></_>
        <_>
          <internalNodes>
            0 -1 124 6.6921934485435486e-03</internalNodes>
          <leafValues>
            -6.5365448594093323e-02 6.1363077163696289e-01</leafValues></_>
        <_>
          <internalNodes>
            0 -1 728 -2.4351163301616907e-04</internalNodes>
          <leafValues>
            -2.7017104625701904e-01 1.2530060112476349e-01</leafValues></_>
        <_>
          <internalNodes>
            0 -1 86 8.9817836880683899e-02</internalNodes>
          <leafValues>
            -7.6943993568420410e-02 3.9935454726219177e-01</leafValues></_>
        <_>
          <internalNodes>
            0 -1 99 -7.0413872599601746e-02</internalNodes>
          <leafValues>
            2.7875423431396484e-01 -1.5115600824356079e-01</leafValues></_>
        <_>
          <internalNodes>
            0 -1 699 6.1810929328203201e-03</internalNodes>
          <leafValues>
            -1.1511194705963135e-01 3.4419775009155273e-01</leafValues></_>
        <_>
          <internalNodes>
            0 -1 159 -1.8486045300960541e-02</internalNodes>
          <leafValues>
            5.4420059919357300e-01 -5.1811717450618744e-02</leafValues></_>
        <_>
          <internalNodes>
            0 -1 362 -3.3523041754961014e-02</internalNodes>
          <leafValues>
            3.6758568882942200e-01 -9.3763627111911774e-02</leafValues></_>
        <_>
          <internalNodes>
            0 -1 503 2.0637915004044771e-03</internalNodes>
          <leafValues>
            1.5359355509281158e-01 -2.5826385617256165e-01</leafValues></_>
        <_>
          <internalNodes>
            0 -1 315 5.0686646252870560e-02</internalNodes>
          <leafValues>
            -9.5034919679164886e-02 4.6056753396987915e-01</leafValues></_>
        <_>
          <internalNodes>
            0 -1 513 1.5317093580961227e-02</internalNodes>
          <leafValues>
            -2.5749799609184265e-01 1.3176526129245758e-01</leafValues></_>
        <_>
          <internalNodes>
            0 -1 90 -3.8478593342006207e-04</internalNodes>
          <leafValues>
            -2.7579927444458008e-01 1.1517436802387238e-01</leafValues></_>
        <_>
          <internalNodes>
            0 -1 416 -4.8708803951740265e-03</internalNodes>
          <leafValues>
            -5.9452474117279053e-01 5.1019016653299332e-02</leafValues></_>
        <_>
          <internalNodes>
            0 -1 14 -2.6139956712722778e-01</internalNodes>
          <leafValues>
            -6.2599235773086548e-01 3.7194062024354935e-02</leafValues></_>
        <_>
          <internalNodes>
            0 -1 342 6.2068827450275421e-02</internalNodes>
          <leafValues>
            -9.3074873089790344e-02 3.5649079084396362e-01</leafValues></_>
        <_>
          <internalNodes>
            0 -1 562 -3.3807948231697083e-02</internalNodes>
          <leafValues>
            -7.9406440258026123e-01 4.3832581490278244e-02</leafValues></_>
        <_>
          <internalNodes>
            0 -1 577 -1.2765283696353436e-02</internalNodes>
          <leafValues>
            -6.2954235076904297e-01 4.3363798409700394e-02</leafValues></_>
        <_>
          <internalNodes>
            0 -1 33 -3.4273840487003326e-02</internalNodes>
          <leafValues>
            2.6545101404190063e-01 -1.2981961667537689e-01</leafValues></_>
        <_>
          <internalNodes>
            0 -1 122 4.3488115072250366e-02</internalNodes>
          <leafValues>
            -7.0538587868213654e-02 5.0737953186035156e-01</leafValues></_>
        <_>
          <internalNodes>
            0 -1 10 -2.8176882863044739e-01</internalNodes>
          <leafValues>
            -7.9427641630172729e-01 4.3416779488325119e-02</leafValues></_>
        <_>
          <internalNodes>
            0 -1 348 2.3717203293927014e-04</internalNodes>
          <leafValues>
            1.1011469364166260e-01 -2.5736579298973083e-01</leafValues></_>
        <_>
          <internalNodes>
            0 -1 155 -2.6670154184103012e-02</internalNodes>
          <leafValues>
            6.9687199592590332e-01 -4.0990829467773438e-02</leafValues></_>
        <_>
          <internalNodes>
            0 -1 303 -1.6857429000083357e-04</internalNodes>
          <leafValues>
            1.7210407555103302e-01 -1.7359706759452820e-01</leafValues></_>
        <_>
          <internalNodes>
            0 -1 76 6.5709818154573441e-03</internalNodes>
          <leafValues>
            -6.6550336778163910e-02 5.0999385118484497e-01</leafValues></_>
        <_>
          <internalNodes>
            0 -1 557 6.7090010270476341e-03</internalNodes>
          <leafValues>
            5.0840608775615692e-02 -7.3101371526718140e-01</leafValues></_>
        <_>
          <internalNodes>
            0 -1 473 -3.3340256777592003e-05</internalNodes>
          <leafValues>
            1.6810411214828491e-01 -1.8043838441371918e-01</leafValues></_></weakClassifiers></_>
    <!-- stage 13 -->
    <_>
      <maxWeakCount>40</maxWeakCount>
      <stageThreshold>-8.4139591455459595e-01</stageThreshold>
      <weakClassifiers>
        <_>
          <internalNodes>
            0 -1 472 -1.0824686288833618e-01</internalNodes>
          <leafValues>
            2.0519480109214783e-01 -1.8686296045780182e-01</leafValues></_>
        <_>
          <internalNodes>
            0 -1 48 -4.5127145946025848e-02</internalNodes>
          <leafValues>
            2.8729432821273804e-01 -1.3571672141551971e-01</leafValues></_>
        <_>
          <internalNodes>
            0 -1 359 -5.6667581200599670e-02</internalNodes>
          <leafValues>
            5.3742909431457520e-01 -7.2446338832378387e-02</leafValues></_>
        <_>
          <internalNodes>
            0 -1 501 7.4430163949728012e-03</internalNodes>
          <leafValues>
            -1.5158849954605103e-01 2.5404453277587891e-01</leafValues></_>
        <_>
          <internalNodes>
            0 -1 541 5.1379436627030373e-04</internalNodes>
          <leafValues>
            9.0063579380512238e-02 -3.7666222453117371e-01</leafValues></_>
        <_>
          <internalNodes>
            0 -1 578 1.7247751355171204e-02</internalNodes>
          <leafValues>
            -9.4934791326522827e-02 3.1246182322502136e-01</leafValues></_>
        <_>
          <internalNodes>
            0 -1 719 -3.5198568366467953e-04</internalNodes>
          <leafValues>
            -2.9288578033447266e-01 1.1058215051889420e-01</leafValues></_>
        <_>
          <internalNodes>
            0 -1 360 -1.5379859134554863e-02</internalNodes>
          <leafValues>
            -4.2961350083351135e-01 1.1247505992650986e-01</leafValues></_>
        <_>
          <internalNodes>
            0 -1 722 1.4418178470805287e-03</internalNodes>
          <leafValues>
            5.5094707757234573e-02 -3.7798318266868591e-01</leafValues></_>
        <_>
          <internalNodes>
            0 -1 724 -1.9737376715056598e-04</internalNodes>
          <leafValues>
            -2.6068171858787537e-01 1.3367176055908203e-01</leafValues></_>
        <_>
          <internalNodes>
            0 -1 140 -3.8151748478412628e-02</internalNodes>
          <leafValues>
            2.0168223977088928e-01 -1.8361687660217285e-01</leafValues></_>
        <_>
          <internalNodes>
            0 -1 443 -7.1418218314647675e-02</internalNodes>
          <leafValues>
            5.5200964212417603e-01 -1.0586842894554138e-01</leafValues></_>
        <_>
          <internalNodes>
            0 -1 518 -3.0377312214113772e-05</internalNodes>
          <leafValues>
            1.8039733171463013e-01 -1.6192929446697235e-01</leafValues></_>
        <_>
          <internalNodes>
            0 -1 542 -3.3475102100055665e-05</internalNodes>
          <leafValues>
            1.6044625639915466e-01 -2.0662926137447357e-01</leafValues></_>
        <_>
          <internalNodes>
            0 -1 682 -7.6429883483797312e-04</internalNodes>
          <leafValues>
            2.1186047792434692e-01 -1.6236469149589539e-01</leafValues></_>
        <_>
          <internalNodes>
            0 -1 652 2.2389307618141174e-02</internalNodes>
          <leafValues>
            -9.4106778502464294e-02 3.2985669374465942e-01</leafValues></_>
        <_>
          <internalNodes>
            0 -1 387 5.4847067221999168e-03</internalNodes>
          <leafValues>
            -8.8468573987483978e-02 4.3995988368988037e-01</leafValues></_>
        <_>
          <internalNodes>
            0 -1 536 -5.2258116193115711e-03</internalNodes>
          <leafValues>
            -5.1991915702819824e-01 6.4040772616863251e-02</leafValues></_>
        <_>
          <internalNodes>
            0 -1 328 -1.4290297403931618e-02</internalNodes>
          <leafValues>
            3.4509530663490295e-01 -9.4303749501705170e-02</leafValues></_>
        <_>
          <internalNodes>
            0 -1 265 1.0989348590373993e-01</internalNodes>
          <leafValues>
            -1.3115279376506805e-01 2.9866644740104675e-01</leafValues></_>
        <_>
          <internalNodes>
            0 -1 321 2.6290871202945709e-02</internalNodes>
          <leafValues>
            -7.1802496910095215e-02 4.7056943178176880e-01</leafValues></_>
        <_>
          <internalNodes>
            0 -1 506 1.7562197521328926e-02</internalNodes>
          <leafValues>
            -8.0581933259963989e-02 4.2888137698173523e-01</leafValues></_>
        <_>
          <internalNodes>
            0 -1 727 -3.5731375683099031e-03</internalNodes>
          <leafValues>
            6.1642831563949585e-01 -5.8332137763500214e-02</leafValues></_>
        <_>
          <internalNodes>
            0 -1 36 -8.5431545972824097e-02</internalNodes>
          <leafValues>
            3.0992174148559570e-01 -1.0842911154031754e-01</leafValues></_>
        <_>
          <internalNodes>
            0 -1 131 1.1486913077533245e-02</internalNodes>
          <leafValues>
            -1.1587371677160263e-01 2.9882189631462097e-01</leafValues></_>
        <_>
          <internalNodes>
            0 -1 277 1.8263129459228367e-04</internalNodes>
          <leafValues>
            1.4429730176925659e-01 -2.6169639825820923e-01</leafValues></_>
        <_>
          <internalNodes>
            0 -1 204 1.7827573174145073e-05</internalNodes>
          <leafValues>
            -1.5946981310844421e-01 1.9892378151416779e-01</leafValues></_>
        <_>
          <internalNodes>
            0 -1 636 -1.4456912176683545e-03</internalNodes>
          <leafValues>
            -3.2362714409828186e-01 9.9462501704692841e-02</leafValues></_>
        <_>
          <internalNodes>
            0 -1 32 3.0561123043298721e-02</internalNodes>
          <leafValues>
            -9.3798600137233734e-02 3.4067553281784058e-01</leafValues></_>
        <_>
          <internalNodes>
            0 -1 213 -2.8332800138741732e-03</internalNodes>
          <leafValues>
            -4.3627795577049255e-01 9.0694993734359741e-02</leafValues></_>
        <_>
          <internalNodes>
            0 -1 374 3.4051383408950642e-05</internalNodes>
          <leafValues>
            -1.6096939146518707e-01 2.0010092854499817e-01</leafValues></_>
        <_>
          <internalNodes>
            0 -1 345 1.3131967280060053e-03</internalNodes>
          <leafValues>
            1.1188814043998718e-01 -3.0791032314300537e-01</leafValues></_>
        <_>
          <internalNodes>
            0 -1 179 -2.4531651288270950e-02</internalNodes>
          <leafValues>
            -8.1651914119720459e-01 3.7140261381864548e-02</leafValues></_>
        <_>
          <internalNodes>
            0 -1 574 -4.7348099760711193e-03</internalNodes>
          <leafValues>
            -3.7128895521163940e-01 8.0317586660385132e-02</leafValues></_>
        <_>
          <internalNodes>
            0 -1 58 4.2185619473457336e-02</internalNodes>
          <leafValues>
            6.0500472784042358e-02 -4.9510753154754639e-01</leafValues></_>
        <_>
          <internalNodes>
            0 -1 7 -2.7324516326189041e-02</internalNodes>
          <leafValues>
            2.6310598850250244e-01 -1.2667801976203918e-01</leafValues></_>
        <_>
