<?xml version="1.0"?>
<opencv_storage>
<cascade>
  <stageType>BOOST</stageType>
  <featureType>HAAR</featureType>
  <height>24</height>
  <width>24</width>
  <stageParams>
    <boostType>GAB</boostType>
    <minHitRate>1.</minHitRate>
    <maxFalseAlarm>5.0000000000000000e-01</maxFalseAlarm>
    <weightTrimRate>9.4999998807907104e-01</weightTrimRate>
    <maxDepth>1</maxDepth>
    <maxWeakCount>100</maxWeakCount></stageParams>
  <featureParams>
    <maxCatCount>0</maxCatCount>
    <featSize>1</featSize>
    <mode>BASIC</mode></featureParams>
  <stageNum>15</stageNum>
  <stages>
    <!-- stage 0 -->
    <_>
      <maxWeakCount>15</maxWeakCount>
      <stageThreshold>-1.7400405406951904e+00</stageThreshold>
      <weakClassifiers>
        <_>
          <internalNodes>
            0 -1 65 -1.5828251838684082e-01</internalNodes>
          <leafValues>
            9.6772438287734985e-01 -8.8693380355834961e-02</leafValues></_>
        <_>
          <internalNodes>
            0 -1 97 9.6218548715114594e-02</internalNodes>
          <leafValues>
            -2.8767150640487671e-01 7.9052889347076416e-01</leafValues></_>
        <_>
          <internalNodes>
            0 -1 136 7.3495090007781982e-02</internalNodes>
          <leafValues>
            -2.2299118340015411e-01 9.7432881593704224e-01</leafValues></_>
        <_>
          <internalNodes>
            0 -1 836 -3.4246824681758881e-02</internalNodes>
          <leafValues>
            5.1841634511947632e-01 -2.3280960321426392e-01</leafValues></_>
        <_>
          <internalNodes>
            0 -1 578 -2.9559335671365261e-03</internalNodes>
          <leafValues>
            -9.9887788295745850e-01 1.3548536598682404e-01</leafValues></_>
        <_>
          <internalNodes>
            0 -1 575 2.9546543955802917e-03</internalNodes>
          <leafValues>
            2.3637263476848602e-01 -6.8344479799270630e-01</leafValues></_>
        <_>
          <internalNodes>
            0 -1 573 -1.3738591223955154e-03</internalNodes>
          <leafValues>
            -8.8000649213790894e-01 9.9746808409690857e-02</leafValues></_>
        <_>
          <internalNodes>
            0 -1 652 -1.2938518775627017e-03</internalNodes>
          <leafValues>
            -9.1760277748107910e-01 1.3659480214118958e-01</leafValues></_>
        <_>
          <internalNodes>
            0 -1 653 1.4746332308277488e-03</internalNodes>
          <leafValues>
            1.7124830186367035e-01 -7.7465915679931641e-01</leafValues></_>
        <_>
          <internalNodes>
            0 -1 124 -5.6849516928195953e-02</internalNodes>
          <leafValues>
            8.4305179119110107e-01 -1.3309651613235474e-01</leafValues></_>
        <_>
          <internalNodes>
            0 -1 712 -9.0502183884382248e-03</internalNodes>
          <leafValues>
            -1.1165422201156616e+00 1.2293594330549240e-01</leafValues></_>
        <_>
          <internalNodes>
            0 -1 664 -4.6664262190461159e-03</internalNodes>
          <leafValues>
            -9.0159636735916138e-01 1.2533624470233917e-01</leafValues></_>
        <_>
          <internalNodes>
            0 -1 618 -1.8023304874077439e-03</internalNodes>
          <leafValues>
            -1.0096849203109741e+00 1.0175344347953796e-01</leafValues></_>
        <_>
          <internalNodes>
            0 -1 717 5.1672406494617462e-02</internalNodes>
          <leafValues>
            -1.3952593505382538e-01 7.2547239065170288e-01</leafValues></_>
        <_>
          <internalNodes>
            0 -1 432 -1.5512343961745501e-03</internalNodes>
          <leafValues>
            -8.7455254793167114e-01 1.3484483957290649e-01</leafValues></_></weakClassifiers></_>
    <!-- stage 1 -->
    <_>
      <maxWeakCount>37</maxWeakCount>
      <stageThreshold>-1.3931665420532227e+00</stageThreshold>
      <weakClassifiers>
        <_>
          <internalNodes>
            0 -1 277 -1.7885798215866089e-01</internalNodes>
          <leafValues>
            9.5898622274398804e-01 -3.3666558563709259e-02</leafValues></_>
        <_>
          <internalNodes>
            0 -1 848 5.7029750198125839e-02</internalNodes>
          <leafValues>
            -2.7133506536483765e-01 5.8091133832931519e-01</leafValues></_>
        <_>
          <internalNodes>
            0 -1 496 6.7961364984512329e-02</internalNodes>
          <leafValues>
            -2.0043095946311951e-01 5.8846914768218994e-01</leafValues></_>
        <_>
          <internalNodes>
            0 -1 68 -1.4120788872241974e-01</internalNodes>
          <leafValues>
            6.0524326562881470e-01 -1.3776898384094238e-01</leafValues></_>
        <_>
          <internalNodes>
            0 -1 316 -3.8853958249092102e-02</internalNodes>
          <leafValues>
            5.9981918334960938e-01 -1.7887558043003082e-01</leafValues></_>
        <_>
          <internalNodes>
            0 -1 94 6.5780952572822571e-02</internalNodes>
          <leafValues>
            -1.4227908849716187e-01 6.1553508043289185e-01</leafValues></_>
        <_>
          <internalNodes>
            0 -1 674 2.1939286962151527e-03</internalNodes>
          <leafValues>
            1.2655219435691833e-01 -7.0609402656555176e-01</leafValues></_>
        <_>
          <internalNodes>
            0 -1 688 -1.7344255466014147e-03</internalNodes>
          <leafValues>
            -5.9510767459869385e-01 1.4516445994377136e-01</leafValues></_>
        <_>
          <internalNodes>
            0 -1 352 1.0741912759840488e-02</internalNodes>
          <leafValues>
            -2.0795598626136780e-01 4.0008541941642761e-01</leafValues></_>
        <_>
          <internalNodes>
            0 -1 559 -1.2141633778810501e-02</internalNodes>
          <leafValues>
            -9.7156625986099243e-01 1.1231850832700729e-01</leafValues></_>
        <_>
          <internalNodes>
            0 -1 838 -6.0171945951879025e-03</internalNodes>
          <leafValues>
            3.7485560774803162e-01 -2.0982611179351807e-01</leafValues></_>
        <_>
          <internalNodes>
            0 -1 30 -1.0061354935169220e-01</internalNodes>
          <leafValues>
            7.0630401372909546e-01 -8.8424973189830780e-02</leafValues></_>
        <_>
          <internalNodes>
            0 -1 39 -3.3070094883441925e-02</internalNodes>
          <leafValues>
            5.1603996753692627e-01 -1.6519007086753845e-01</leafValues></_>
        <_>
          <internalNodes>
            0 -1 62 3.7772104144096375e-02</internalNodes>
          <leafValues>
            -1.1809884756803513e-01 6.0096448659896851e-01</leafValues></_>
        <_>
          <internalNodes>
            0 -1 571 8.4739169105887413e-03</internalNodes>
          <leafValues>
            9.6688479185104370e-02 -7.9575890302658081e-01</leafValues></_>
        <_>
          <internalNodes>
            0 -1 482 -8.5396932263392955e-05</internalNodes>
          <leafValues>
            2.4606718122959137e-01 -2.5775450468063354e-01</leafValues></_>
        <_>
          <internalNodes>
            0 -1 415 -7.5396494939923286e-03</internalNodes>
          <leafValues>
            -6.8801975250244141e-01 8.3019778132438660e-02</leafValues></_>
        <_>
          <internalNodes>
            0 -1 378 -2.0246084779500961e-02</internalNodes>
          <leafValues>
            2.9610708355903625e-01 -1.8463017046451569e-01</leafValues></_>
        <_>
          <internalNodes>
            0 -1 164 -2.2872969508171082e-02</internalNodes>
          <leafValues>
            3.4388953447341919e-01 -1.6941976547241211e-01</leafValues></_>
        <_>
          <internalNodes>
            0 -1 897 2.2993716411292553e-03</internalNodes>
          <leafValues>
            7.2369039058685303e-02 -9.2396515607833862e-01</leafValues></_>
        <_>
          <internalNodes>
            0 -1 581 3.8899071514606476e-02</internalNodes>
          <leafValues>
            -1.3947270810604095e-01 3.9559006690979004e-01</leafValues></_>
        <_>
          <internalNodes>
            0 -1 426 1.0714942589402199e-02</internalNodes>
          <leafValues>
            6.9238029420375824e-02 -1.2180224657058716e+00</leafValues></_>
        <_>
          <internalNodes>
            0 -1 314 -1.5250039286911488e-02</internalNodes>
          <leafValues>
            4.6621483564376831e-01 -1.2978306412696838e-01</leafValues></_>
        <_>
          <internalNodes>
            0 -1 506 1.9322320818901062e-02</internalNodes>
          <leafValues>
            -1.0009334236383438e-01 6.6859030723571777e-01</leafValues></_>
        <_>
          <internalNodes>
            0 -1 651 -1.8878642469644547e-02</internalNodes>
          <leafValues>
            5.7915359735488892e-01 -1.0406281054019928e-01</leafValues></_>
        <_>
          <internalNodes>
            0 -1 636 4.2425524443387985e-02</internalNodes>
          <leafValues>
            -1.7867848277091980e-01 3.4793466329574585e-01</leafValues></_>
        <_>
          <internalNodes>
            0 -1 735 5.3251154720783234e-02</internalNodes>
          <leafValues>
            -1.3400810956954956e-01 4.9235630035400391e-01</leafValues></_>
        <_>
          <internalNodes>
            0 -1 339 8.3114966750144958e-02</internalNodes>
          <leafValues>
            -1.0430702567100525e-01 6.8871706724166870e-01</leafValues></_>
        <_>
          <internalNodes>
            0 -1 141 6.4765699207782745e-02</internalNodes>
          <leafValues>
            -1.1512752622365952e-01 5.4655951261520386e-01</leafValues></_>
        <_>
          <internalNodes>
            0 -1 212 7.5051151216030121e-03</internalNodes>
          <leafValues>
            -1.4188022911548615e-01 3.6877465248107910e-01</leafValues></_>
        <_>
          <internalNodes>
            0 -1 490 -2.0548864267766476e-03</internalNodes>
          <leafValues>
            -5.7210540771484375e-01 9.9631518125534058e-02</leafValues></_>
        <_>
          <internalNodes>
            0 -1 602 -1.6499377787113190e-02</internalNodes>
          <leafValues>
            4.1567614674568176e-01 -1.2977539002895355e-01</leafValues></_>
        <_>
          <internalNodes>
            0 -1 896 -9.3457270413637161e-03</internalNodes>
          <leafValues>
            7.1168541908264160e-01 -9.4088792800903320e-02</leafValues></_>
        <_>
          <internalNodes>
            0 -1 631 -5.3677372634410858e-03</internalNodes>
          <leafValues>
            -6.9943720102310181e-01 9.3567661941051483e-02</leafValues></_>
        <_>
          <internalNodes>
            0 -1 560 -2.6630690321326256e-02</internalNodes>
          <leafValues>
            6.7379558086395264e-01 -9.4722568988800049e-02</leafValues></_>
        <_>
          <internalNodes>
            0 -1 585 -7.8328633680939674e-03</internalNodes>
          <leafValues>
            -6.3772076368331909e-01 9.9693492054939270e-02</leafValues></_>
        <_>
          <internalNodes>
            0 -1 260 -5.0885882228612900e-02</internalNodes>
          <leafValues>
            3.1006085872650146e-01 -1.6043987870216370e-01</leafValues></_></weakClassifiers></_>
    <!-- stage 2 -->
    <_>
      <maxWeakCount>37</maxWeakCount>
      <stageThreshold>-1.2506536245346069e+00</stageThreshold>
      <weakClassifiers>
        <_>
          <internalNodes>
            0 -1 253 6.6692590713500977e-02</internalNodes>
          <leafValues>
            -8.8131301105022430e-02 7.1355819702148438e-01</leafValues></_>
        <_>
          <internalNodes>
            0 -1 794 -2.1287206560373306e-02</internalNodes>
          <leafValues>
            3.1586799025535583e-01 -2.8373962640762329e-01</leafValues></_>
        <_>
          <internalNodes>
            0 -1 696 4.7138668596744537e-02</internalNodes>
          <leafValues>
            -2.5838768482208252e-01 3.6516988277435303e-01</leafValues></_>
        <_>
          <internalNodes>
            0 -1 522 -7.8381467610597610e-03</internalNodes>
          <leafValues>
            -7.4438679218292236e-01 4.9531053751707077e-02</leafValues></_>
        <_>
          <internalNodes>
            0 -1 126 -3.0150182545185089e-02</internalNodes>
          <leafValues>
            3.7084075808525085e-01 -1.4563441276550293e-01</leafValues></_>
        <_>
          <internalNodes>
            0 -1 128 2.2725433111190796e-02</internalNodes>
          <leafValues>
            -1.1210635304450989e-01 6.0805380344390869e-01</leafValues></_>
        <_>
          <internalNodes>
            0 -1 252 1.9779846072196960e-01</internalNodes>
          <leafValues>
            -7.8106626868247986e-02 6.6572523117065430e-01</leafValues></_>
        <_>
          <internalNodes>
            0 -1 591 -1.0662311688065529e-03</internalNodes>
          <leafValues>
            2.6451629400253296e-01 -2.2703991830348969e-01</leafValues></_>
        <_>
          <internalNodes>
            0 -1 17 -2.0368553698062897e-02</internalNodes>
          <leafValues>
            4.2508977651596069e-01 -1.3167300820350647e-01</leafValues></_>
        <_>
          <internalNodes>
            0 -1 461 3.8755714893341064e-02</internalNodes>
          <leafValues>
            -8.5613809525966644e-02 9.4078427553176880e-01</leafValues></_>
        <_>
          <internalNodes>
            0 -1 842 2.4869330227375031e-02</internalNodes>
          <leafValues>
            -1.9033749401569366e-01 2.8574141860008240e-01</leafValues></_>
        <_>
          <internalNodes>
            0 -1 577 -9.5295807113870978e-05</internalNodes>
          <leafValues>
            2.0664025843143463e-01 -2.7671229839324951e-01</leafValues></_>
        <_>
          <internalNodes>
            0 -1 508 -4.4437088072299957e-02</internalNodes>
          <leafValues>
            3.2666030526161194e-01 -1.7199859023094177e-01</leafValues></_>
        <_>
          <internalNodes>
            0 -1 720 -4.5197429135441780e-03</internalNodes>
          <leafValues>
            -5.6465321779251099e-01 8.9578874409198761e-02</leafValues></_>
        <_>
          <internalNodes>
            0 -1 481 4.6153586357831955e-02</internalNodes>
          <leafValues>
            -5.0333261489868164e-02 1.1002287864685059e+00</leafValues></_>
        <_>
          <internalNodes>
            0 -1 572 -1.4253862900659442e-05</internalNodes>
          <leafValues>
            2.1648795902729034e-01 -2.6094558835029602e-01</leafValues></_>
        <_>
          <internalNodes>
            0 -1 179 -1.6566792130470276e-01</internalNodes>
          <leafValues>
            -3.8399699330329895e-01 1.3475939631462097e-01</leafValues></_>
        <_>
          <internalNodes>
            0 -1 403 2.1428462117910385e-02</internalNodes>
          <leafValues>
            -1.1896032094955444e-01 3.6346271634101868e-01</leafValues></_>
        <_>
          <internalNodes>
            0 -1 18 -2.6079459348693490e-04</internalNodes>
          <leafValues>
            -3.1481248140335083e-01 1.3437665998935699e-01</leafValues></_>
        <_>
          <internalNodes>
            0 -1 703 -3.3585825003683567e-03</internalNodes>
          <leafValues>
            -6.5795689821243286e-01 6.8480081856250763e-02</leafValues></_>
        <_>
          <internalNodes>
            0 -1 77 -1.6088306903839111e-01</internalNodes>
          <leafValues>
            4.5231443643569946e-01 -9.0430840849876404e-02</leafValues></_>
        <_>
          <internalNodes>
            0 -1 183 1.2400841340422630e-02</internalNodes>
          <leafValues>
            -1.1993999034166336e-01 4.2452949285507202e-01</leafValues></_>
        <_>
          <internalNodes>
            0 -1 527 -2.3815501481294632e-04</internalNodes>
          <leafValues>
            2.3956300318241119e-01 -1.8867377936840057e-01</leafValues></_>
        <_>
          <internalNodes>
            0 -1 730 5.0082160159945488e-03</internalNodes>
          <leafValues>
            7.8638523817062378e-02 -5.9062218666076660e-01</leafValues></_>
        <_>
          <internalNodes>
            0 -1 740 -7.2004990652203560e-03</internalNodes>
          <leafValues>
            -5.1479005813598633e-01 9.0772747993469238e-02</leafValues></_>
        <_>
          <internalNodes>
            0 -1 629 -2.9770595574518666e-05</internalNodes>
          <leafValues>
            1.8418127298355103e-01 -2.4721957743167877e-01</leafValues></_>
        <_>
          <internalNodes>
            0 -1 579 -5.5845551192760468e-02</internalNodes>
          <leafValues>
            4.4427138566970825e-01 -1.0828436166048050e-01</leafValues></_>
        <_>
          <internalNodes>
            0 -1 382 1.0178069770336151e-01</internalNodes>
          <leafValues>
            -4.3406367301940918e-02 1.7908710241317749e+00</leafValues></_>
        <_>
          <internalNodes>
            0 -1 563 2.8081096708774567e-02</internalNodes>
          <leafValues>
            -9.4232298433780670e-02 4.7558259963989258e-01</leafValues></_>
        <_>
          <internalNodes>
            0 -1 697 7.1696355938911438e-02</internalNodes>
          <leafValues>
            -7.2703905403614044e-02 5.3837817907333374e-01</leafValues></_>
        <_>
          <internalNodes>
            0 -1 915 4.3014980852603912e-02</internalNodes>
          <leafValues>
            -1.0726167261600494e-01 4.6318495273590088e-01</leafValues></_>
        <_>
          <internalNodes>
            0 -1 510 2.7575667481869459e-03</internalNodes>
          <leafValues>
            -9.7577787935733795e-02 4.0988683700561523e-01</leafValues></_>
        <_>
          <internalNodes>
            0 -1 608 -3.7046306533738971e-04</internalNodes>
          <leafValues>
            3.0283439159393311e-01 -1.5200076997280121e-01</leafValues></_>
        <_>
          <internalNodes>
            0 -1 743 7.9655341804027557e-02</internalNodes>
          <leafValues>
            -6.6042900085449219e-02 7.3842871189117432e-01</leafValues></_>
        <_>
          <internalNodes>
            0 -1 782 -3.3936659747269005e-05</internalNodes>
          <leafValues>
            2.0171117782592773e-01 -1.8967606127262115e-01</leafValues></_>
        <_>
          <internalNodes>
            0 -1 641 -2.2695971711073071e-04</internalNodes>
          <leafValues>
            1.7091745138168335e-01 -2.5138670206069946e-01</leafValues></_>
        <_>
          <internalNodes>
            0 -1 764 -9.0783890336751938e-03</internalNodes>
          <leafValues>
            -4.6076953411102295e-01 8.7268210947513580e-02</leafValues></_></weakClassifiers></_>
    <!-- stage 3 -->
    <_>
      <maxWeakCount>45</maxWeakCount>
      <stageThreshold>-1.0482572317123413e+00</stageThreshold>
      <weakClassifiers>
        <_>
          <internalNodes>
            0 -1 45 -1.5735980868339539e-01</internalNodes>
          <leafValues>
            7.4439364671707153e-01 -1.4436698518693447e-02</leafValues></_>
        <_>
          <internalNodes>
            0 -1 97 1.3373595476150513e-01</internalNodes>
          <leafValues>
            -1.8319655954837799e-01 5.6520080566406250e-01</leafValues></_>
        <_>
          <internalNodes>
            0 -1 870 -6.6134757362306118e-03</internalNodes>
          <leafValues>
            2.3386688530445099e-01 -2.7676737308502197e-01</leafValues></_>
        <_>
          <internalNodes>
            0 -1 41 8.4237717092037201e-02</internalNodes>
          <leafValues>
            -1.3985688984394073e-01 5.4406040906906128e-01</leafValues></_>
        <_>
          <internalNodes>
            0 -1 10 2.3587808012962341e-01</internalNodes>
          <leafValues>
            5.6992210447788239e-02 -9.0503895282745361e-01</leafValues></_>
        <_>
          <internalNodes>
            0 -1 9 -1.5498970448970795e-01</internalNodes>
          <leafValues>
            -4.0704917907714844e-01 1.1954329907894135e-01</leafValues></_>
        <_>
          <internalNodes>
            0 -1 109 -3.2031878829002380e-02</internalNodes>
          <leafValues>
            2.5031942129135132e-01 -1.6624392569065094e-01</leafValues></_>
        <_>
          <internalNodes>
            0 -1 509 -2.6268558576703072e-02</internalNodes>
          <leafValues>
            -6.4102721214294434e-01 6.6190563142299652e-02</leafValues></_>
        <_>
          <internalNodes>
            0 -1 535 1.4180159196257591e-03</internalNodes>
          <leafValues>
            1.2412042170763016e-01 -3.8271567225456238e-01</leafValues></_>
        <_>
          <internalNodes>
            0 -1 334 -1.2165643274784088e-03</internalNodes>
          <leafValues>
            2.2072185575962067e-01 -2.2262071073055267e-01</leafValues></_>
        <_>
          <internalNodes>
            0 -1 692 -9.3352258205413818e-02</internalNodes>
          <leafValues>
            4.7469794750213623e-01 -9.5111019909381866e-02</leafValues></_>
        <_>
          <internalNodes>
            0 -1 314 3.3646985888481140e-02</internalNodes>
          <leafValues>
            -6.7859292030334473e-02 6.2132132053375244e-01</leafValues></_>
        <_>
          <internalNodes>
            0 -1 419 -2.1137027069926262e-03</internalNodes>
          <leafValues>
            3.1021261215209961e-01 -1.8098497390747070e-01</leafValues></_>
        <_>
          <internalNodes>
            0 -1 223 6.3561573624610901e-02</internalNodes>
          <leafValues>
            -2.0223033428192139e-01 2.2665818035602570e-01</leafValues></_>
        <_>
          <internalNodes>
            0 -1 132 -1.1223387718200684e-01</internalNodes>
          <leafValues>
            4.3760812282562256e-01 -1.2344498932361603e-01</leafValues></_>
        <_>
          <internalNodes>
            0 -1 348 -1.6517832875251770e-02</internalNodes>
          <leafValues>
            -7.8464382886886597e-01 5.8643151074647903e-02</leafValues></_>
        <_>
          <internalNodes>
            0 -1 236 9.0282838791608810e-03</internalNodes>
          <leafValues>
            -6.7482024431228638e-02 6.0807144641876221e-01</leafValues></_>
        <_>
          <internalNodes>
            0 -1 201 -9.8063470795750618e-03</internalNodes>
          <leafValues>
            4.3623310327529907e-01 -9.9449150264263153e-02</leafValues></_>
        <_>
          <internalNodes>
            0 -1 512 -2.6730257086455822e-03</internalNodes>
          <leafValues>
            3.3918908238410950e-01 -1.0343749821186066e-01</leafValues></_>
        <_>
          <internalNodes>
            0 -1 519 -4.4806255027651787e-03</internalNodes>
          <leafValues>
            2.8899991512298584e-01 -1.3276733458042145e-01</leafValues></_>
        <_>
          <internalNodes>
            0 -1 244 1.6564722359180450e-01</internalNodes>
          <leafValues>
            -5.1506858319044113e-02 7.6205873489379883e-01</leafValues></_>
        <_>
          <internalNodes>
            0 -1 385 8.3360254764556885e-02</internalNodes>
          <leafValues>
            -9.5316402614116669e-02 3.7571421265602112e-01</leafValues></_>
        <_>
          <internalNodes>
            0 -1 806 2.9879100620746613e-02</internalNodes>
          <leafValues>
            -9.6549183130264282e-02 4.2017725110054016e-01</leafValues></_>
        <_>
          <internalNodes>
            0 -1 855 -2.1663814783096313e-02</internalNodes>
          <leafValues>
            3.8598939776420593e-01 -1.0752148181200027e-01</leafValues></_>
        <_>
          <internalNodes>
            0 -1 290 5.3957905620336533e-03</internalNodes>
          <leafValues>
            7.0933073759078979e-02 -5.9170895814895630e-01</leafValues></_>
        <_>
          <internalNodes>
            0 -1 628 -1.5705838450230658e-05</internalNodes>
          <leafValues>
            1.7020016908645630e-01 -2.1470320224761963e-01</leafValues></_>
        <_>
          <internalNodes>
            0 -1 920 2.5903433561325073e-03</internalNodes>
          <leafValues>
            -1.1399798840284348e-01 3.3185428380966187e-01</leafValues></_>
        <_>
          <internalNodes>
            0 -1 678 -5.2173566073179245e-03</internalNodes>
          <leafValues>
            -8.7710601091384888e-01 5.5479060858488083e-02</leafValues></_>
        <_>
          <internalNodes>
            0 -1 648 -3.1845415942370892e-03</internalNodes>
          <leafValues>
            -7.4725264310836792e-01 5.0779629498720169e-02</leafValues></_>
        <_>
          <internalNodes>
            0 -1 493 -2.9342078050831333e-05</internalNodes>
          <leafValues>
            1.6927619278430939e-01 -2.0754523575305939e-01</leafValues></_>
        <_>
          <internalNodes>
            0 -1 21 1.1105491220951080e-01</internalNodes>
          <leafValues>
            -1.0493857413530350e-01 3.3243751525878906e-01</leafValues></_>
        <_>
          <internalNodes>
            0 -1 291 4.4042408466339111e-02</internalNodes>
          <leafValues>
            -4.7257095575332642e-02 8.0233645439147949e-01</leafValues></_>
        <_>
          <internalNodes>
            0 -1 381 8.1378892064094543e-03</internalNodes>
          <leafValues>
            8.3034247159957886e-02 -4.4087719917297363e-01</leafValues></_>
        <_>
          <internalNodes>
            0 -1 157 -2.4670083075761795e-03</internalNodes>
          <leafValues>
            2.2028101980686188e-01 -1.7626865208148956e-01</leafValues></_>
        <_>
          <internalNodes>
            0 -1 288 -2.9823393560945988e-04</internalNodes>
          <leafValues>
            1.7080982029438019e-01 -1.9110108911991119e-01</leafValues></_>
        <_>
          <internalNodes>
            0 -1 298 3.4948270767927170e-03</internalNodes>
          <leafValues>
            -5.5135704576969147e-02 6.4996159076690674e-01</leafValues></_>
        <_>
          <internalNodes>
            0 -1 362 2.5430332869291306e-02</internalNodes>
          <leafValues>
            -7.8978002071380615e-02 4.3444493412971497e-01</leafValues></_>
        <_>
          <internalNodes>
            0 -1 765 -3.0030081979930401e-03</internalNodes>
          <leafValues>
            1.9418746232986450e-01 -1.9976471364498138e-01</leafValues></_>
        <_>
          <internalNodes>
            0 -1 433 -1.1886687949299812e-02</internalNodes>
          <leafValues>
            -6.0474902391433716e-01 6.5973892807960510e-02</leafValues></_>
        <_>
          <internalNodes>
            0 -1 35 -1.0785445570945740e-01</internalNodes>
          <leafValues>
            4.0647524595260620e-01 -8.1471107900142670e-02</leafValues></_>
        <_>
          <internalNodes>
            0 -1 893 2.7504367753863335e-03</internalNodes>
          <leafValues>
            -6.7375540733337402e-02 4.9644207954406738e-01</leafValues></_>
        <_>
          <internalNodes>
            0 -1 102 6.4446879550814629e-03</internalNodes>
          <leafValues>
            -7.9645290970802307e-02 4.0538701415061951e-01</leafValues></_>
        <_>
          <internalNodes>
            0 -1 619 -2.1337928250432014e-02</internalNodes>
          <leafValues>
            -9.1359364986419678e-01 4.1211880743503571e-02</leafValues></_>
        <_>
          <internalNodes>
            0 -1 549 -2.6288777589797974e-03</internalNodes>
          <leafValues>
            -6.8616908788681030e-01 5.3685873746871948e-02</leafValues></_>
        <_>
          <internalNodes>
            0 -1 550 -3.1519608455710113e-05</internalNodes>
          <leafValues>
            1.6032145917415619e-01 -1.9456858932971954e-01</leafValues></_></weakClassifiers></_>
    <!-- stage 4 -->
    <_>
      <maxWeakCount>54</maxWeakCount>
      <stageThreshold>-1.1316642761230469e+00</stageThreshold>
      <weakClassifiers>
        <_>
          <internalNodes>
            0 -1 57 -1.6820299625396729e-01</internalNodes>
          <leafValues>
            7.1660566329956055e-01 1.6583152115345001e-02</leafValues></_>
        <_>
          <internalNodes>
            0 -1 96 5.8263041079044342e-02</internalNodes>
          <leafValues>
            -2.1887519955635071e-01 2.5612881779670715e-01</leafValues></_>
        <_>
          <internalNodes>
            0 -1 635 -1.8502742052078247e-02</internalNodes>
          <leafValues>
            2.6625862717628479e-01 -2.0963439345359802e-01</leafValues></_>
        <_>
          <internalNodes>
            0 -1 365 2.7859217952936888e-03</internalNodes>
          <leafValues>
            -1.1351639032363892e-01 3.5312053561210632e-01</leafValues></_>
        <_>
          <internalNodes>
            0 -1 909 -1.8738987855613232e-03</internalNodes>
          <leafValues>
            2.9447838664054871e-01 -1.4512732625007629e-01</leafValues></_>
        <_>
          <internalNodes>
            0 -1 858 2.8168603777885437e-02</internalNodes>
          <leafValues>
            -1.4361737668514252e-01 3.5394898056983948e-01</leafValues></_>
        <_>
          <internalNodes>
            0 -1 407 2.7152677066624165e-03</internalNodes>
          <leafValues>
            -1.2991969287395477e-01 3.6089622974395752e-01</leafValues></_>
        <_>
          <internalNodes>
            0 -1 434 -1.7711619148030877e-03</internalNodes>
          <leafValues>
            1.6656593978404999e-01 -2.4002408981323242e-01</leafValues></_>
        <_>
          <internalNodes>
            0 -1 144 -8.5421549156308174e-03</internalNodes>
          <leafValues>
            3.4030991792678833e-01 -1.1853721737861633e-01</leafValues></_>
        <_>
          <internalNodes>
            0 -1 139 2.9054452170385048e-05</internalNodes>
          <leafValues>
            -1.5775631368160248e-01 2.3882694542407990e-01</leafValues></_>
        <_>
          <internalNodes>
            0 -1 391 1.0832676291465759e-01</internalNodes>
          <leafValues>
            -5.7431954890489578e-02 8.5312741994857788e-01</leafValues></_>
        <_>
          <internalNodes>
            0 -1 524 3.5111371427774429e-02</internalNodes>
          <leafValues>
            -1.0763458162546158e-01 3.7387511134147644e-01</leafValues></_>
        <_>
          <internalNodes>
            0 -1 909 2.9526557773351669e-03</internalNodes>
          <leafValues>
            -1.0436677932739258e-01 3.6304423213005066e-01</leafValues></_>
        <_>
          <internalNodes>
            0 -1 771 -3.1503004720434546e-05</internalNodes>
          <leafValues>
            1.9068220257759094e-01 -2.0989176630973816e-01</leafValues></_>
        <_>
          <internalNodes>
            0 -1 853 3.5379897803068161e-02</internalNodes>
          <leafValues>
            -2.2833539545536041e-01 1.7360554635524750e-01</leafValues></_>
        <_>
          <internalNodes>
            0 -1 237 -1.3877646066248417e-02</internalNodes>
          <leafValues>
            2.6033714413642883e-01 -1.3824279606342316e-01</leafValues></_>
        <_>
          <internalNodes>
            0 -1 40 4.8803381621837616e-02</internalNodes>
          <leafValues>
            -9.9109627306461334e-02 5.1645195484161377e-01</leafValues></_>
        <_>
          <internalNodes>
            0 -1 255 1.5242497902363539e-03</internalNodes>
          <leafValues>
            -7.1490988135337830e-02 4.4673684239387512e-01</leafValues></_>
        <_>
          <internalNodes>
            0 -1 841 -1.0577412322163582e-03</internalNodes>
          <leafValues>
            6.7458176612854004e-01 -6.0877833515405655e-02</leafValues></_>
        <_>
          <internalNodes>
            0 -1 511 -2.9226627200841904e-02</internalNodes>
          <leafValues>
            -6.5381550788879395e-01 6.7206144332885742e-02</leafValues></_>
        <_>
          <internalNodes>
            0 -1 138 -2.5282971560955048e-02</internalNodes>
          <leafValues>
            -4.3604850769042969e-01 8.5026346147060394e-02</leafValues></_>
        <_>
          <internalNodes>
            0 -1 766 -2.3175693058874458e-04</internalNodes>
          <leafValues>
            2.7526253461837769e-01 -1.3813652098178864e-01</leafValues></_>
        <_>
          <internalNodes>
            0 -1 905 -1.3891197741031647e-03</internalNodes>
          <leafValues>
            8.1976252794265747e-01 -5.2195213735103607e-02</leafValues></_>
        <_>
          <internalNodes>
            0 -1 819 -1.2301536276936531e-02</internalNodes>
          <leafValues>
            -1.2031809091567993e+00 4.0386550128459930e-02</leafValues></_>
        <_>
          <internalNodes>
            0 -1 770 -3.2139396353159100e-05</internalNodes>
          <leafValues>
            1.9732934236526489e-01 -1.9447267055511475e-01</leafValues></_>
        <_>
          <internalNodes>
            0 -1 12 -1.0563345858827233e-03</internalNodes>
          <leafValues>
            -2.6927274465560913e-01 1.4293099939823151e-01</leafValues></_>
        <_>
          <internalNodes>
            0 -1 275 3.7081260234117508e-03</internalNodes>
          <leafValues>
            -9.1965258121490479e-02 3.8791009783744812e-01</leafValues></_>
        <_>
          <internalNodes>
            0 -1 917 -2.3585292510688305e-03</internalNodes>
          <leafValues>
            3.7702426314353943e-01 -8.8514864444732666e-02</leafValues></_>
        <_>
          <internalNodes>
            0 -1 921 6.8099130876362324e-03</internalNodes>
          <leafValues>
            -8.5113488137722015e-02 5.2917188405990601e-01</leafValues></_>
        <_>
          <internalNodes>
            0 -1 738 -1.6795282135717571e-05</internalNodes>
          <leafValues>
            1.5405169129371643e-01 -2.1636469662189484e-01</leafValues></_>
        <_>
          <internalNodes>
            0 -1 722 -1.5007648617029190e-03</internalNodes>
          <leafValues>
            3.9103460311889648e-01 -8.8839240372180939e-02</leafValues></_>
        <_>
          <internalNodes>
            0 -1 515 7.9450737684965134e-03</internalNodes>
          <leafValues>
            -8.1662312150001526e-02 4.3921247124671936e-01</leafValues></_>
        <_>
          <internalNodes>
            0 -1 831 -1.4552028151229024e-03</internalNodes>
          <leafValues>
            -2.5505098700523376e-01 1.4764691889286041e-01</leafValues></_>
        <_>
          <internalNodes>
            0 -1 975 -1.0555862681940198e-03</internalNodes>
          <leafValues>
            6.7826080322265625e-01 -5.2757009863853455e-02</leafValues></_>
        <_>
          <internalNodes>
            0 -1 300 3.3050648868083954e-02</internalNodes>
          <leafValues>
            6.7997030913829803e-02 -5.1194131374359131e-01</leafValues></_>
        <_>
          <internalNodes>
            0 -1 589 2.8833501346525736e-05</internalNodes>
          <leafValues>
            -1.6040785610675812e-01 2.2077858448028564e-01</leafValues></_>
        <_>
          <internalNodes>
            0 -1 280 -9.9133187904953957e-04</internalNodes>
          <leafValues>
            3.3151370286941528e-01 -9.8374910652637482e-02</leafValues></_>
        <_>
          <internalNodes>
            0 -1 467 4.2308196425437927e-02</internalNodes>
          <leafValues>
            4.3130695819854736e-02 -8.2340437173843384e-01</leafValues></_>
        <_>
          <internalNodes>
            0 -1 261 1.1310782283544540e-03</internalNodes>
          <leafValues>
            -6.4626745879650116e-02 5.3626853227615356e-01</leafValues></_>
        <_>
          <internalNodes>
            0 -1 235 -1.1303193122148514e-01</internalNodes>
          <leafValues>
            -9.4684684276580811e-01 4.2471788823604584e-02</leafValues></_>
        <_>
          <internalNodes>
            0 -1 637 -2.7723039238480851e-05</internalNodes>
          <leafValues>
            1.7143534123897552e-01 -1.8587973713874817e-01</leafValues></_>
        <_>
          <internalNodes>
            0 -1 336 -2.1058002312202007e-04</internalNodes>
          <leafValues>
            1.6561229526996613e-01 -1.9158320128917694e-01</leafValues></_>
        <_>
          <internalNodes>
            0 -1 370 4.3777227401733398e-02</internalNodes>
          <leafValues>
            -1.1342428624629974e-01 3.7718364596366882e-01</leafValues></_>
        <_>
          <internalNodes>
            0 -1 368 -6.0516357421875000e-02</internalNodes>
          <leafValues>
            2.6725807785987854e-01 -1.4302539825439453e-01</leafValues></_>
        <_>
          <internalNodes>
            0 -1 544 -4.1759084910154343e-02</internalNodes>
          <leafValues>
            -8.5976511240005493e-01 4.3754603713750839e-02</leafValues></_>
        <_>
          <internalNodes>
            0 -1 209 -2.7227251848671585e-05</internalNodes>
          <leafValues>
            1.9689893722534180e-01 -1.6880059242248535e-01</leafValues></_>
        <_>
          <internalNodes>
            0 -1 517 -1.7030924558639526e-02</internalNodes>
          <leafValues>
            -6.4820796251296997e-01 5.5905502289533615e-02</leafValues></_>
        <_>
          <internalNodes>
            0 -1 903 3.0990390223450959e-04</internalNodes>
          <leafValues>
            -1.6809560358524323e-01 1.9020093977451324e-01</leafValues></_>
        <_>
          <internalNodes>
            0 -1 173 9.8195672035217285e-04</internalNodes>
          <leafValues>
            -5.7329725474119186e-02 6.2558126449584961e-01</leafValues></_>
        <_>
          <internalNodes>
            0 -1 556 3.0393108725547791e-02</internalNodes>
          <leafValues>
            3.8932014256715775e-02 -1.0280257463455200e+00</leafValues></_>
        <_>
          <internalNodes>
            0 -1 573 -3.6321514926385134e-05</internalNodes>
          <leafValues>
            2.0378035306930542e-01 -1.5271833539009094e-01</leafValues></_>
        <_>
          <internalNodes>
            0 -1 383 6.5018087625503540e-03</internalNodes>
          <leafValues>
            -5.3623445332050323e-02 6.2607568502426147e-01</leafValues></_>
        <_>
          <internalNodes>
            0 -1 607 -7.0824660360813141e-02</internalNodes>
          <leafValues>
            1.8963009119033813e-01 -1.9761388003826141e-01</leafValues></_>
        <_>
          <internalNodes>
            0 -1 116 1.8216621130704880e-02</internalNodes>
          <leafValues>
            8.3979643881320953e-02 -4.2478966712951660e-01</leafValues></_></weakClassifiers></_>
    <!-- stage 5 -->
    <_>
      <maxWeakCount>63</maxWeakCount>
      <stageThreshold>-1.1702939271926880e+00</stageThreshold>
      <weakClassifiers>
        <_>
          <internalNodes>
            0 -1 327 -2.1605284512042999e-01</internalNodes>
          <leafValues>
            7.0750224590301514e-01 6.7630819976329803e-02</leafValues></_>
        <_>
          <internalNodes>
            0 -1 435 1.1883555352687836e-01</internalNodes>
          <leafValues>
            -1.4409661293029785e-01 3.3370518684387207e-01</leafValues></_>
        <_>
          <internalNodes>
            0 -1 781 2.4372636107727885e-04</internalNodes>
          <leafValues>
            1.3143689930438995e-01 -3.8039618730545044e-01</leafValues></_>
        <_>
          <internalNodes>
            0 -1 136 9.1982893645763397e-02</internalNodes>
          <leafValues>
            -7.3167443275451660e-02 6.3901519775390625e-01</leafValues></_>
        <_>
          <internalNodes>
            0 -1 168 -3.6543153226375580e-02</internalNodes>
          <leafValues>
            3.3716577291488647e-01 -1.1454212665557861e-01</leafValues></_>
        <_>
          <internalNodes>
            0 -1 392 1.4882871508598328e-01</internalNodes>
          <leafValues>
            -8.7462268769741058e-02 7.8873932361602783e-01</leafValues></_>
        <_>
          <internalNodes>
            0 -1 408 -4.6939551830291748e-02</internalNodes>
          <leafValues>
            3.3036214113235474e-01 -1.4572377502918243e-01</leafValues></_>
        <_>
          <internalNodes>
            0 -1 748 -1.5936109703034163e-03</internalNodes>
          <leafValues>
            -4.3141084909439087e-01 1.0211597383022308e-01</leafValues></_>
        <_>
          <internalNodes>
            0 -1 647 3.4268688410520554e-02</internalNodes>
          <leafValues>
            -1.1324296146631241e-01 3.4065401554107666e-01</leafValues></_>
        <_>
          <internalNodes>
            0 -1 266 2.1493295207619667e-03</internalNodes>
          <leafValues>
            -1.4579042792320251e-01 2.6874083280563354e-01</leafValues></_>
        <_>
          <internalNodes>
            0 -1 529 -3.1481632031500340e-03</internalNodes>
          <leafValues>
            1.9571393728256226e-01 -1.9396519660949707e-01</leafValues></_>
        <_>
          <internalNodes>
            0 -1 859 -6.0209963703528047e-04</internalNodes>
          <leafValues>
            -4.5642614364624023e-01 9.0516053140163422e-02</leafValues></_>
        <_>
          <internalNodes>
            0 -1 938 4.2882174253463745e-02</internalNodes>
          <leafValues>
            -7.9401142895221710e-02 5.1927393674850464e-01</leafValues></_>
        <_>
          <internalNodes>
            0 -1 523 -1.6950944438576698e-02</internalNodes>
          <leafValues>
            -7.6531618833541870e-01 5.6773804128170013e-02</leafValues></_>
        <_>
          <internalNodes>
            0 -1 140 6.2630355358123779e-02</internalNodes>
          <leafValues>
            -5.7418107986450195e-02 6.3711500167846680e-01</leafValues></_>
        <_>
          <internalNodes>
            0 -1 537 6.3171528279781342e-02</internalNodes>
          <leafValues>
            -1.1274132132530212e-01 2.9582598805427551e-01</leafValues></_>
        <_>
          <internalNodes>
            0 -1 459 -1.0592298582196236e-02</internalNodes>
          <leafValues>
            -6.5264767408370972e-01 4.4695604592561722e-02</leafValues></_>
        <_>
          <internalNodes>
            0 -1 507 -5.2926991134881973e-02</internalNodes>
          <leafValues>
            5.8844608068466187e-01 -5.0306752324104309e-02</leafValues></_>
        <_>
          <internalNodes>
            0 -1 374 -1.5499301298405044e-05</internalNodes>
          <leafValues>
            1.6202500462532043e-01 -1.7970448732376099e-01</leafValues></_>
        <_>
          <internalNodes>
            0 -1 824 1.4652003301307559e-03</internalNodes>
          <leafValues>
            7.6521456241607666e-02 -4.2085993289947510e-01</leafValues></_>
        <_>
          <internalNodes>
            0 -1 603 -2.0142395514994860e-03</internalNodes>
          <leafValues>
            2.9663750529289246e-01 -1.0759161412715912e-01</leafValues></_>
        <_>
          <internalNodes>
            0 -1 341 1.1260008811950684e-01</internalNodes>
          <leafValues>
            -1.5995796024799347e-01 2.0815500617027283e-01</leafValues></_>
        <_>
          <internalNodes>
            0 -1 899 3.5764438507612795e-05</internalNodes>
          <leafValues>
            -1.7275562882423401e-01 1.9272097945213318e-01</leafValues></_>
        <_>
          <internalNodes>
            0 -1 788 -2.9535609064623713e-04</internalNodes>
          <leafValues>
            -2.7545434236526489e-01 1.1359579861164093e-01</leafValues></_>
        <_>
          <internalNodes>
            0 -1 658 9.0527869760990143e-03</internalNodes>
          <leafValues>
            6.3978098332881927e-02 -5.5446338653564453e-01</leafValues></_>
        <_>
          <internalNodes>
            0 -1 44 6.4336940646171570e-02</internalNodes>
          <leafValues>
            -6.0183491557836533e-02 5.9265744686126709e-01</leafValues></_>
        <_>
          <internalNodes>
            0 -1 19 3.0220774933695793e-03</internalNodes>
          <leafValues>
            -1.6904702782630920e-01 1.9901423156261444e-01</leafValues></_>
        <_>
          <internalNodes>
            0 -1 25 -8.8761672377586365e-02</internalNodes>
          <leafValues>
            3.9577102661132813e-01 -8.5654199123382568e-02</leafValues></_>
        <_>
          <internalNodes>
            0 -1 423 4.9458714202046394e-03</internalNodes>
          <leafValues>
            -8.5279464721679688e-02 3.2819539308547974e-01</leafValues></_>
        <_>
          <internalNodes>
            0 -1 976 1.8943550065159798e-02</internalNodes>
          <leafValues>
            -5.0947561860084534e-02 6.8987041711807251e-01</leafValues></_>
        <_>
          <internalNodes>
            0 -1 829 -1.7979640513658524e-02</internalNodes>
          <leafValues>
            4.6787333488464355e-01 -5.9752598404884338e-02</leafValues></_>
        <_>
          <internalNodes>
            0 -1 189 -2.2671141196042299e-03</internalNodes>
          <leafValues>
            2.6671889424324036e-01 -9.9828213453292847e-02</leafValues></_>
        <_>
          <internalNodes>
            0 -1 849 -3.0076516850385815e-05</internalNodes>
          <leafValues>
            1.4540427923202515e-01 -1.8447540700435638e-01</leafValues></_>
        <_>
          <internalNodes>
            0 -1 398 1.3708043843507767e-02</internalNodes>
          <leafValues>
            -8.3235032856464386e-02 3.8677746057510376e-01</leafValues></_>
        <_>
          <internalNodes>
            0 -1 856 -3.9242412894964218e-02</internalNodes>
          <leafValues>
            7.2779130935668945e-01 -4.6741943806409836e-02</leafValues></_>
        <_>
          <internalNodes>
            0 -1 625 -3.4570492804050446e-02</internalNodes>
          <leafValues>
            2.0760755240917206e-01 -1.4249579608440399e-01</leafValues></_>
        <_>
          <internalNodes>
            0 -1 584 3.3292337320744991e-03</internalNodes>
          <leafValues>
            5.1702823489904404e-02 -5.8086383342742920e-01</leafValues></_>
        <_>
          <internalNodes>
            0 -1 901 3.2875495962798595e-03</internalNodes>
          <leafValues>
            9.2645950615406036e-02 -3.1138706207275391e-01</leafValues></_>
        <_>
          <internalNodes>
            0 -1 55 6.5465033054351807e-02</internalNodes>
          <leafValues>
            -4.6261426061391830e-02 6.1757075786590576e-01</leafValues></_>
        <_>
          <internalNodes>
            0 -1 60 -5.0543576478958130e-02</internalNodes>
          <leafValues>
            3.1076923012733459e-01 -9.0871706604957581e-02</leafValues></_>
        <_>
          <internalNodes>
            0 -1 210 -6.6148996353149414e-02</internalNodes>
          <leafValues>
            5.1776587963104248e-01 -5.5883310735225677e-02</leafValues></_>
        <_>
          <internalNodes>
            0 -1 84 1.1909445747733116e-02</internalNodes>
          <leafValues>
            -9.4204515218734741e-02 3.0455970764160156e-01</leafValues></_>
        <_>
          <internalNodes>
            0 -1 977 1.1586558073759079e-02</internalNodes>
          <leafValues>
            4.5444078743457794e-02 -6.8731778860092163e-01</leafValues></_>
        <_>
          <internalNodes>
            0 -1 416 -1.1065270751714706e-02</internalNodes>
          <leafValues>
            3.4983906149864197e-01 -7.8084200620651245e-02</leafValues></_>
        <_>
          <internalNodes>
            0 -1 338 -6.7666034738067538e-05</internalNodes>
          <leafValues>
            1.7244756221771240e-01 -2.3792414367198944e-01</leafValues></_>
        <_>
          <internalNodes>
            0 -1 186 -5.0834953784942627e-02</internalNodes>
          <leafValues>
            -4.5470446348190308e-01 7.0172131061553955e-02</leafValues></_>
        <_>
          <internalNodes>
            0 -1 118 3.5302387550473213e-03</internalNodes>
          <leafValues>
            -1.4789979159832001e-01 2.0415282249450684e-01</leafValues></_>
        <_>
          <internalNodes>
            0 -1 462 -7.7082049101591110e-03</internalNodes>
          <leafValues>
            2.5601199269294739e-01 -1.2138243019580841e-01</leafValues></_>
        <_>
          <internalNodes>
            0 -1 662 -5.0204526633024216e-03</internalNodes>
          <leafValues>
            2.5477033853530884e-01 -1.2175182998180389e-01</leafValues></_>
        <_>
          <internalNodes>
            0 -1 726 -1.7921209800988436e-03</internalNodes>
          <leafValues>
            -4.1964796185493469e-01 9.7826778888702393e-02</leafValues></_>
        <_>
          <internalNodes>
            0 -1 687 3.4182454692199826e-04</internalNodes>
          <leafValues>
            8.5861414670944214e-02 -3.5895243287086487e-01</leafValues></_>
        <_>
          <internalNodes>
            0 -1 814 -4.1181081905961037e-03</internalNodes>
          <leafValues>
            2.5467491149902344e-01 -1.2619033455848694e-01</leafValues></_>
        <_>
          <internalNodes>
            0 -1 438 -1.1167258024215698e-01</internalNodes>
          <leafValues>
            6.5418112277984619e-01 -4.7985080629587173e-02</leafValues></_>
        <_>
          <internalNodes>
            0 -1 590 -4.6917915460653603e-04</internalNodes>
          <leafValues>
            -3.9991819858551025e-01 7.8730389475822449e-02</leafValues></_>
        <_>
          <internalNodes>
            0 -1 934 2.3170545697212219e-02</internalNodes>
          <leafValues>
            -1.4331196248531342e-01 2.1197172999382019e-01</leafValues></_>
        <_>
          <internalNodes>
            0 -1 937 -1.9434663699939847e-03</internalNodes>
          <leafValues>
            2.3383678495883942e-01 -1.4263775944709778e-01</leafValues></_>
        <_>
          <internalNodes>
            0 -1 810 2.2112820297479630e-02</internalNodes>
          <leafValues>
            -8.7681308388710022e-02 3.6949265003204346e-01</leafValues></_>
        <_>
          <internalNodes>
            0 -1 929 -3.5281683085486293e-04</internalNodes>
          <leafValues>
            -2.1705611050128937e-01 1.3764229416847229e-01</leafValues></_>
        <_>
          <internalNodes>
            0 -1 666 -2.2957336157560349e-02</internalNodes>
          <leafValues>
            4.1557055711746216e-01 -7.8890725970268250e-02</leafValues></_>
        <_>
          <internalNodes>
            0 -1 498 1.1187605559825897e-03</internalNodes>
          <leafValues>
            1.0357625782489777e-01 -2.8796446323394775e-01</leafValues></_>
        <_>
          <internalNodes>
            0 -1 420 -9.1735720634460449e-03</internalNodes>
          <leafValues>
            -1.3338196277618408e+00 2.9773183166980743e-02</leafValues></_>
        <_>
          <internalNodes>
            0 -1 1002 2.3157293908298016e-03</internalNodes>
          <leafValues>
            -5.0132844597101212e-02 6.0339289903640747e-01</leafValues></_>
        <_>
          <internalNodes>
            0 -1 281 -5.6637409143149853e-03</internalNodes>
          <leafValues>
            2.0849524438381195e-01 -1.3613815605640411e-01</leafValues></_></weakClassifiers></_>
    <!-- stage 6 -->
    <_>
      <maxWeakCount>76</maxWeakCount>
      <stageThreshold>-1.0448669195175171e+00</stageThreshold>
      <weakClassifiers>
        <_>
          <internalNodes>
            0 -1 197 -1.1676993966102600e-01</internalNodes>
          <leafValues>
            5.2565777301788330e-01 5.3944479674100876e-02</leafValues></_>
        <_>
          <internalNodes>
            0 -1 257 7.7551349997520447e-02</internalNodes>
          <leafValues>
            -1.0873314738273621e-01 4.3504753708839417e-01</leafValues></_>
        <_>
          <internalNodes>
            0 -1 877 -3.6724647507071495e-03</internalNodes>
          <leafValues>
            1.7928539216518402e-01 -2.5504264235496521e-01</leafValues></_>
        <_>
          <internalNodes>
            0 -1 430 -1.0213531553745270e-01</internalNodes>
          <leafValues>
            5.0897538661956787e-01 -1.1234228312969208e-01</leafValues></_>
        <_>
          <internalNodes>
            0 -1 145 -3.8360118865966797e-02</internalNodes>
          <leafValues>
            2.3275503516197205e-01 -1.4642003178596497e-01</leafValues></_>
        <_>
          <internalNodes>
            0 -1 561 4.9889154732227325e-02</internalNodes>
          <leafValues>
            -8.6235418915748596e-02 3.7529763579368591e-01</leafValues></_>
        <_>
          <internalNodes>
            0 -1 638 -1.6053221770562232e-05</internalNodes>
          <leafValues>
            1.3343875110149384e-01 -2.1688348054885864e-01</leafValues></_>
        <_>
          <internalNodes>
            0 -1 361 6.9413654506206512e-02</internalNodes>
          <leafValues>
            -8.8255435228347778e-02 3.7836921215057373e-01</leafValues></_>
        <_>
          <internalNodes>
            0 -1 777 -3.5667626652866602e-03</internalNodes>
          <leafValues>
            -7.2845876216888428e-01 7.2555996477603912e-02</leafValues></_>
        <_>
          <internalNodes>
            0 -1 809 -1.6936555766733363e-05</internalNodes>
          <leafValues>
            1.4932969212532043e-01 -1.7600329220294952e-01</leafValues></_>
        <_>
          <internalNodes>
            0 -1 793 -8.4234103560447693e-03</internalNodes>
          <leafValues>
            2.3981279134750366e-01 -1.3863739371299744e-01</leafValues></_>
        <_>
          <internalNodes>
            0 -1 805 -3.1397110433317721e-05</internalNodes>
          <leafValues>
            1.4842082560062408e-01 -2.0969836413860321e-01</leafValues></_>
        <_>
          <internalNodes>
            0 -1 468 1.1122332885861397e-02</internalNodes>
          <leafValues>
            9.0625658631324768e-02 -3.6775854229927063e-01</leafValues></_>
        <_>
          <internalNodes>
            0 -1 690 8.8125079870223999e-02</internalNodes>
          <leafValues>
            -7.0232011377811432e-02 4.1207984089851379e-01</leafValues></_>
        <_>
          <internalNodes>
            0 -1 707 3.8351297378540039e-02</internalNodes>
          <leafValues>
            -1.1355331540107727e-01 2.7216312289237976e-01</leafValues></_>
        <_>
          <internalNodes>
            0 -1 673 1.0864825546741486e-01</internalNodes>
          <leafValues>
            -5.8856811374425888e-02 5.5210226774215698e-01</leafValues></_>
        <_>
          <internalNodes>
            0 -1 857 -1.2465205043554306e-02</internalNodes>
          <leafValues>
            2.7128919959068298e-01 -1.0360575467348099e-01</leafValues></_>
        <_>
          <internalNodes>
            0 -1 889 1.5232789330184460e-02</internalNodes>
          <leafValues>
            -9.8366513848304749e-02 3.1153851747512817e-01</leafValues></_>
        <_>
          <internalNodes>
            0 -1 289 7.3363468050956726e-02</internalNodes>
          <leafValues>
            -7.8538946807384491e-02 4.1574329137802124e-01</leafValues></_>
        <_>
          <internalNodes>
            0 -1 774 -5.3776202548760921e-05</internalNodes>
          <leafValues>
            1.4389130473136902e-01 -1.9102311134338379e-01</leafValues></_>
        <_>
          <internalNodes>
            0 -1 644 7.1906861849129200e-03</internalNodes>
          <leafValues>
            4.6448439359664917e-02 -7.4651235342025757e-01</leafValues></_>
        <_>
          <internalNodes>
            0 -1 401 5.7599533349275589e-02</internalNodes>
          <leafValues>
            -6.7131519317626953e-02 3.9205950498580933e-01</leafValues></_>
        <_>
          <internalNodes>
            0 -1 317 -4.4528573751449585e-02</internalNodes>
          <leafValues>
            3.3477303385734558e-01 -7.5564473867416382e-02</leafValues></_>
        <_>
          <internalNodes>
            0 -1 684 -2.9956554499221966e-05</internalNodes>
          <leafValues>
            1.3852843642234802e-01 -2.0521064102649689e-01</leafValues></_>
        <_>
          <internalNodes>
            0 -1 276 -1.3626837171614170e-02</internalNodes>
          <leafValues>
            3.6832633614540100e-01 -6.8805828690528870e-02</leafValues></_>
        <_>
          <internalNodes>
            0 -1 149 -5.8570671826601028e-03</internalNodes>
          <leafValues>
            2.3341201245784760e-01 -1.1526913940906525e-01</leafValues></_>
        <_>
          <internalNodes>
            0 -1 148 1.1018970981240273e-02</internalNodes>
          <leafValues>
            -7.7127695083618164e-02 3.4375709295272827e-01</leafValues></_>
        <_>
          <internalNodes>
            0 -1 601 -2.2320188581943512e-02</internalNodes>
          <leafValues>
            -3.6100688576698303e-01 6.7560419440269470e-02</leafValues></_>
        <_>
          <internalNodes>
            0 -1 710 3.1125560781219974e-05</internalNodes>
          <leafValues>
            -1.5049187839031219e-01 1.6622248291969299e-01</leafValues></_>
        <_>
          <internalNodes>
            0 -1 557 -4.5040161348879337e-03</internalNodes>
          <leafValues>
            2.2884362936019897e-01 -1.2951308488845825e-01</leafValues></_>
        <_>
          <internalNodes>
            0 -1 466 -2.6203576475381851e-02</internalNodes>
          <leafValues>
            -7.4127495288848877e-01 3.5774916410446167e-02</leafValues></_>
        <_>
          <internalNodes>
            0 -1 725 -3.5576082300394773e-03</internalNodes>
          <leafValues>
            4.0640881657600403e-01 -6.0182526707649231e-02</leafValues></_>
        <_>
          <internalNodes>
            0 -1 795 -1.5101553799468093e-05</internalNodes>
          <leafValues>
            1.4943604171276093e-01 -1.7003579437732697e-01</leafValues></_>
        <_>
          <internalNodes>
            0 -1 653 -1.5098848380148411e-03</internalNodes>
          <leafValues>
            -4.1208600997924805e-01 6.5003097057342529e-02</leafValues></_>
        <_>
          <internalNodes>
            0 -1 953 3.0002749554114416e-05</internalNodes>
          <leafValues>
            -1.4947183430194855e-01 1.7575012147426605e-01</leafValues></_>
        <_>
          <internalNodes>
            0 -1 47 -1.3454475998878479e-01</internalNodes>
          <leafValues>
            1.7613114416599274e-01 -1.3661557435989380e-01</leafValues></_>
        <_>
          <internalNodes>
            0 -1 999 1.6400546883232892e-05</internalNodes>
          <leafValues>
            -1.7012137174606323e-01 1.5351410210132599e-01</leafValues></_>
        <_>
          <internalNodes>
            0 -1 147 -1.4170664548873901e-01</internalNodes>
          <leafValues>
            -8.6175185441970825e-01 3.9328265935182571e-02</leafValues></_>
        <_>
          <internalNodes>
            0 -1 455 4.9763604998588562e-02</internalNodes>
          <leafValues>
            5.0607956945896149e-02 -4.6942621469497681e-01</leafValues></_>
        <_>
          <internalNodes>
            0 -1 668 -3.2040320802479982e-03</internalNodes>
          <leafValues>
            -6.2031787633895874e-01 4.2503364384174347e-02</leafValues></_>
        <_>
          <internalNodes>
            0 -1 796 -1.2458541896194220e-03</internalNodes>
          <leafValues>
            2.4256634712219238e-01 -9.5571450889110565e-02</leafValues></_>
        <_>
          <internalNodes>
            0 -1 683 -9.0291261672973633e-02</internalNodes>
          <leafValues>
            -1.0776065587997437e+00 2.9314206913113594e-02</leafValues></_>
        <_>
          <internalNodes>
            0 -1 799 -1.8294785171747208e-02</internalNodes>
          <leafValues>
            1.4088883996009827e-01 -1.5347820520401001e-01</leafValues></_>
        <_>
          <internalNodes>
            0 -1 778 -3.0378486961126328e-02</internalNodes>
          <leafValues>
            3.8178494572639465e-01 -6.4355552196502686e-02</leafValues></_>
        <_>
          <internalNodes>
            0 -1 686 2.3969299218151718e-04</internalNodes>
          <leafValues>
            7.9491980373859406e-02 -2.9041358828544617e-01</leafValues></_>
        <_>
          <internalNodes>
            0 -1 377 1.7371168732643127e-01</internalNodes>
          <leafValues>
            -7.8243620693683624e-02 3.1715753674507141e-01</leafValues></_>
        <_>
          <internalNodes>
            0 -1 388 -4.0477896109223366e-03</internalNodes>
          <leafValues>
            1.6863040626049042e-01 -1.4260058104991913e-01</leafValues></_>
        <_>
          <internalNodes>
            0 -1 443 -9.0431757271289825e-03</internalNodes>
          <leafValues>
            -4.0432798862457275e-01 6.8907342851161957e-02</leafValues></_>
        <_>
          <internalNodes>
            0 -1 170 2.6635475456714630e-02</internalNodes>
          <leafValues>
            -4.0086295455694199e-02 7.8327500820159912e-01</leafValues></_>
        <_>
          <internalNodes>
            0 -1 158 -2.6514802128076553e-02</internalNodes>
          <leafValues>
            3.5686349868774414e-01 -7.9455137252807617e-02</leafValues></_>
        <_>
          <internalNodes>
            0 -1 307 2.2768434137105942e-03</internalNodes>
          <leafValues>
            -6.1890043318271637e-02 4.4273230433464050e-01</leafValues></_>
        <_>
          <internalNodes>
            0 -1 87 -6.4899395219981670e-03</internalNodes>
          <leafValues>
            1.4513587951660156e-01 -1.6090534627437592e-01</leafValues></_>
        <_>
          <internalNodes>
            0 -1 960 -9.4710601842962205e-05</internalNodes>
          <leafValues>
            1.6259874403476715e-01 -1.4438363909721375e-01</leafValues></_>
        <_>
          <internalNodes>
            0 -1 626 -1.5684454410802573e-05</internalNodes>
          <leafValues>
            1.6880002617835999e-01 -1.3549087941646576e-01</leafValues></_>
        <_>
          <internalNodes>
            0 -1 904 1.0477805137634277e-01</internalNodes>
          <leafValues>
            -1.0485775023698807e-01 2.2878944873809814e-01</leafValues></_>
        <_>
          <internalNodes>
            0 -1 238 -1.0289123747497797e-03</internalNodes>
          <leafValues>
            3.2817912101745605e-01 -7.8062199056148529e-02</leafValues></_>
        <_>
          <internalNodes>
            0 -1 113 -4.1328748920932412e-04</internalNodes>
          <leafValues>
            -3.0043938755989075e-01 8.3136990666389465e-02</leafValues></_>
        <_>
          <internalNodes>
            0 -1 742 -3.4425629564793780e-05</internalNodes>
          <leafValues>
            1.3780085742473602e-01 -1.6003139317035675e-01</leafValues></_>
        <_>
          <internalNodes>
            0 -1 958 1.7420938820578158e-04</internalNodes>
          <leafValues>
            -1.6959242522716522e-01 1.3768494129180908e-01</leafValues></_>
        <_>
          <internalNodes>
            0 -1 940 1.6533192247152328e-03</internalNodes>
          <leafValues>
            -7.8722760081291199e-02 3.0033206939697266e-01</leafValues></_>
        <_>
          <internalNodes>
            0 -1 979 -1.5350662171840668e-02</internalNodes>
          <leafValues>
            -6.1800831556320190e-01 3.7331420928239822e-02</leafValues></_>
        <_>
          <internalNodes>
            0 -1 983 1.8404298461973667e-03</internalNodes>
          <leafValues>
            9.5775067806243896e-02 -2.5319883227348328e-01</leafValues></_>
        <_>
          <internalNodes>
            0 -1 500 -1.0336850769817829e-02</internalNodes>
          <leafValues>
            -6.8436187505722046e-01 3.7247225642204285e-02</leafValues></_>
        <_>
          <internalNodes>
            0 -1 154 3.7376817315816879e-02</internalNodes>
          <leafValues>
            -8.0366261303424835e-02 3.5770776867866516e-01</leafValues></_>
        <_>
          <internalNodes>
            0 -1 399 -1.9932643044739962e-03</internalNodes>
          <leafValues>
            2.0222210884094238e-01 -1.1613582819700241e-01</leafValues></_>
        <_>
          <internalNodes>
            0 -1 751 7.8494548797607422e-03</internalNodes>
          <leafValues>
            6.2425799667835236e-02 -3.7423640489578247e-01</leafValues></_>
        <_>
          <internalNodes>
            0 -1 670 -1.1985163437202573e-03</internalNodes>
          <leafValues>
            2.2529432177543640e-01 -1.0204395651817322e-01</leafValues></_>
        <_>
          <internalNodes>
            0 -1 14 1.1932694353163242e-02</internalNodes>
          <leafValues>
            -1.1431413143873215e-01 2.0652563869953156e-01</leafValues></_>
        <_>
          <internalNodes>
            0 -1 373 -1.4178329706192017e-01</internalNodes>
          <leafValues>
            2.5453698635101318e-01 -8.9968226850032806e-02</leafValues></_>
        <_>
          <internalNodes>
            0 -1 596 -5.6353900581598282e-03</internalNodes>
          <leafValues>
            2.7469751238822937e-01 -9.5849484205245972e-02</leafValues></_>
        <_>
          <internalNodes>
            0 -1 682 6.8420199677348137e-03</internalNodes>
          <leafValues>
            -1.1379946768283844e-01 2.1966181695461273e-01</leafValues></_>
        <_>
          <internalNodes>
            0 -1 483 -7.4180403316859156e-05</internalNodes>
          <leafValues>
            1.2789809703826904e-01 -1.8452997505664825e-01</leafValues></_>
        <_>
          <internalNodes>
            0 -1 36 3.7647396326065063e-02</internalNodes>
          <leafValues>
            5.5107068270444870e-02 -4.2712673544883728e-01</leafValues></_>
        <_>
          <internalNodes>
            0 -1 630 9.7364606335759163e-03</internalNodes>
          <leafValues>
            -7.2789490222930908e-02 3.1316140294075012e-01</leafValues></_>
        <_>
          <internalNodes>
            0 -1 364 5.8002036064863205e-02</internalNodes>
          <leafValues>
            -3.9555530995130539e-02 6.3600975275039673e-01</leafValues></_>
        <_>
          <internalNodes>
            0 -1 287 -3.0659430194646120e-05</internalNodes>
          <leafValues>
            1.4413237571716309e-01 -1.6906264424324036e-01</leafValues></_></weakClassifiers></_>
    <!-- stage 7 -->
    <_>
      <maxWeakCount>78</maxWeakCount>
      <stageThreshold>-9.2946779727935791e-01</stageThreshold>
      <weakClassifiers>
        <_>
          <internalNodes>
            0 -1 277 -2.1877251565456390e-01</internalNodes>
          <leafValues>
            5.9470713138580322e-01 1.0398766398429871e-01</leafValues></_>
        <_>
          <internalNodes>
            0 -1 886 1.2663647532463074e-02</internalNodes>
          <leafValues>
            -1.6910433769226074e-01 2.9304566979408264e-01</leafValues></_>
        <_>
          <internalNodes>
            0 -1 445 3.7334699300117791e-04</internalNodes>
          <leafValues>
            1.3198374211788177e-01 -2.9991623759269714e-01</leafValues></_>
        <_>
          <internalNodes>
            0 -1 133 1.2460555881261826e-01</internalNodes>
          <leafValues>
            -1.0317227244377136e-01 5.4014271497726440e-01</leafValues></_>
        <_>
          <internalNodes>
            0 -1 363 -1.7137166112661362e-02</internalNodes>
          <leafValues>
            2.3327653110027313e-01 -1.5105916559696198e-01</leafValues></_>
        <_>
          <internalNodes>
            0 -1 262 -5.6034229695796967e-02</internalNodes>
          <leafValues>
            1.9827158749103546e-01 -1.6444469988346100e-01</leafValues></_>
        <_>
          <internalNodes>
            0 -1 233 -4.8643659800291061e-02</internalNodes>
          <leafValues>
            -7.4524503946304321e-01 4.7086242586374283e-02</leafValues></_>
        <_>
          <internalNodes>
            0 -1 671 -1.3579653576016426e-02</internalNodes>
          <leafValues>
            2.0178054273128510e-01 -1.3408401608467102e-01</leafValues></_>
        <_>
          <internalNodes>
            0 -1 397 1.3671445846557617e-01</internalNodes>
          <leafValues>
            -4.1456218808889389e-02 7.4322950839996338e-01</leafValues></_>
        <_>
          <internalNodes>
            0 -1 479 -4.1317094117403030e-02</internalNodes>
          <leafValues>
            3.7104547023773193e-01 -7.9651549458503723e-02</leafValues></_>
        <_>
          <internalNodes>
            0 -1 312 2.0749665796756744e-01</internalNodes>
          <leafValues>
            -3.5427521914243698e-02 1.0454533100128174e+00</leafValues></_>
        <_>
          <internalNodes>
            0 -1 699 -6.4760483801364899e-03</internalNodes>
          <leafValues>
            -7.0793467760086060e-01 3.9802309125661850e-02</leafValues></_>
        <_>
          <internalNodes>
            0 -1 970 -1.3019079342484474e-03</internalNodes>
          <leafValues>
            5.7074737548828125e-01 -4.3167494237422943e-02</leafValues></_>
        <_>
          <internalNodes>
            0 -1 2 -2.0427533308975399e-04</internalNodes>
          <leafValues>
            -1.8764798343181610e-01 1.3035167753696442e-01</leafValues></_>
        <_>
          <internalNodes>
            0 -1 982 6.1226083198562264e-04</internalNodes>
          <leafValues>
            9.6558749675750732e-02 -2.4747171998023987e-01</leafValues></_>
        <_>
          <internalNodes>
            0 -1 129 5.9753761161118746e-04</internalNodes>
          <leafValues>
            -1.5880192816257477e-01 1.4417229592800140e-01</leafValues></_>
        <_>
          <internalNodes>
            0 -1 808 -2.8866777938674204e-05</internalNodes>
          <leafValues>
            1.5564751625061035e-01 -1.4119684696197510e-01</leafValues></_>
        <_>
          <internalNodes>
            0 -1 716 -1.3493950478732586e-02</internalNodes>
          <leafValues>
            2.3820111155509949e-01 -1.2523616850376129e-01</leafValues></_>
        <_>
          <internalNodes>
            0 -1 516 4.3407697230577469e-03</internalNodes>
          <leafValues>
            -1.1627313494682312e-01 2.2522720694541931e-01</leafValues></_>
        <_>
          <internalNodes>
            0 -1 489 -3.3416788937756792e-05</internalNodes>
          <leafValues>
            1.4084024727344513e-01 -1.6576234996318817e-01</leafValues></_>
        <_>
          <internalNodes>
            0 -1 667 -1.3055737363174558e-03</internalNodes>
          <leafValues>
            1.8336099386215210e-01 -1.3473948836326599e-01</leafValues></_>
        <_>
          <internalNodes>
            0 -1 615 -9.4521110877394676e-03</internalNodes>
          <leafValues>
            -3.6012572050094604e-01 7.8019328415393829e-02</leafValues></_>
        <_>
          <internalNodes>
            0 -1 81 1.4266498386859894e-02</internalNodes>
          <leafValues>
            -6.4671717584133148e-02 4.4791623950004578e-01</leafValues></_>
        <_>
          <internalNodes>
            0 -1 250 -1.6342312097549438e-02</internalNodes>
          <leafValues>
            2.3057387769222260e-01 -1.2352950125932693e-01</leafValues></_>
        <_>
          <internalNodes>
            0 -1 343 -6.6849682480096817e-03</internalNodes>
          <leafValues>
            -2.9000553488731384e-01 9.1130867600440979e-02</leafValues></_>
        <_>
          <internalNodes>
            0 -1 936 -1.8668175907805562e-03</internalNodes>
          <leafValues>
            2.3869885504245758e-01 -1.0227026790380478e-01</leafValues></_>
        <_>
          <internalNodes>
            0 -1 888 1.0724237188696861e-02</internalNodes>
          <leafValues>
            -8.9177988469600677e-02 3.3449548482894897e-01</leafValues></_>
        <_>
          <internalNodes>
            0 -1 909 -4.0731825865805149e-03</internalNodes>
          <leafValues>
            3.3861792087554932e-01 -9.5673844218254089e-02</leafValues></_>
        <_>
          <internalNodes>
            0 -1 92 4.9537163227796555e-02</internalNodes>
          <leafValues>
            -7.9178817570209503e-02 3.1686505675315857e-01</leafValues></_>
        <_>
          <internalNodes>
            0 -1 597 -2.8849926311522722e-03</internalNodes>
          <leafValues>
            -4.6746823191642761e-01 5.1015444099903107e-02</leafValues></_>
        <_>
          <internalNodes>
            0 -1 663 1.5357060357928276e-02</internalNodes>
          <leafValues>
            4.3419074267148972e-02 -5.5927079916000366e-01</leafValues></_>
        <_>
          <internalNodes>
            0 -1 514 -2.4233164731413126e-03</internalNodes>
          <leafValues>
            2.2687643766403198e-01 -1.0239508748054504e-01</leafValues></_>
        <_>
          <internalNodes>
            0 -1 178 8.6945593357086182e-03</internalNodes>
          <leafValues>
            -6.6790893673896790e-02 3.3596834540367126e-01</leafValues></_>
        <_>
          <internalNodes>
            0 -1 984 -8.8157691061496735e-03</internalNodes>
          <leafValues>
            -6.8321198225021362e-01 3.8938250392675400e-02</leafValues></_>
        <_>
          <internalNodes>
            0 -1 482 -3.2084666599985212e-05</internalNodes>
          <leafValues>
            1.3821518421173096e-01 -1.8642050027847290e-01</leafValues></_>
        <_>
          <internalNodes>
            0 -1 11 -2.7810144424438477e-01</internalNodes>
          <leafValues>
            -4.3365398049354553e-01 5.8369547128677368e-02</leafValues></_>
        <_>
          <internalNodes>
            0 -1 513 -7.2656996548175812e-02</internalNodes>
          <leafValues>
            1.9237245619297028e-01 -1.2396614253520966e-01</leafValues></_>
        <_>
          <internalNodes>
            0 -1 117 1.0347229987382889e-01</internalNodes>
          <leafValues>
            -4.5920405536890030e-02 6.0906755924224854e-01</leafValues></_>
        <_>
          <internalNodes>
            0 -1 552 1.4097266830503941e-02</internalNodes>
          <leafValues>
            -1.1643082648515701e-01 2.0943196117877960e-01</leafValues></_>
        <_>
          <internalNodes>
            0 -1 962 -2.0340166520327330e-04</internalNodes>
          <leafValues>
            -2.3191121220588684e-01 9.8746448755264282e-02</leafValues></_>
        <_>
          <internalNodes>
            0 -1 737 -2.7047410607337952e-02</internalNodes>
          <leafValues>
            -5.7918870449066162e-01 4.8596926033496857e-02</leafValues></_>
        <_>
          <internalNodes>
            0 -1 802 -1.0505886893952265e-04</internalNodes>
          <leafValues>
            1.2749379873275757e-01 -2.0194217562675476e-01</leafValues></_>
        <_>
          <internalNodes>
            0 -1 945 -5.3583737462759018e-03</internalNodes>
          <leafValues>
            -1.8969893455505371e-01 1.2651747465133667e-01</leafValues></_>
        <_>
          <internalNodes>
            0 -1 570 -1.9112834706902504e-03</internalNodes>
          <leafValues>
            2.0427489280700684e-01 -1.2916785478591919e-01</leafValues></_>
        <_>
          <internalNodes>
            0 -1 34 4.2435660958290100e-02</internalNodes>
          <leafValues>
            3.8994491100311279e-02 -9.5629298686981201e-01</leafValues></_>
        <_>
          <internalNodes>
            0 -1 285 1.5908641740679741e-02</internalNodes>
          <leafValues>
            4.8334747552871704e-02 -4.7314584255218506e-01</leafValues></_>
        <_>
          <internalNodes>
            0 -1 220 5.2705975249409676e-03</internalNodes>
          <leafValues>
            -4.8329524695873260e-02 4.7400543093681335e-01</leafValues></_>
        <_>
          <internalNodes>
            0 -1 574 -1.3865450397133827e-02</internalNodes>
          <leafValues>
            -5.9670144319534302e-01 4.5006901025772095e-02</leafValues></_>
        <_>
          <internalNodes>
            0 -1 193 -2.9395598918199539e-02</internalNodes>
          <leafValues>
            3.1446540355682373e-01 -7.9009830951690674e-02</leafValues></_>
        <_>
          <internalNodes>
            0 -1 613 1.5526227653026581e-03</internalNodes>
          <leafValues>
            7.9047366976737976e-02 -3.2918339967727661e-01</leafValues></_>
        <_>
          <internalNodes>
            0 -1 342 -8.3188107237219810e-04</internalNodes>
          <leafValues>
            1.4537388086318970e-01 -1.5680749714374542e-01</leafValues></_>
        <_>
          <internalNodes>
            0 -1 453 -3.0766325071454048e-03</internalNodes>
          <leafValues>
            2.0970110595226288e-01 -1.1319499462842941e-01</leafValues></_>
        <_>
          <internalNodes>
            0 -1 177 5.4675482213497162e-02</internalNodes>
          <leafValues>
            -9.3241564929485321e-02 2.5191736221313477e-01</leafValues></_>
        <_>
          <internalNodes>
            0 -1 825 -8.6563657969236374e-03</internalNodes>
          <leafValues>
            4.2743030190467834e-01 -5.6345522403717041e-02</leafValues></_>
        <_>
          <internalNodes>
            0 -1 472 3.2019119709730148e-02</internalNodes>
          <leafValues>
            4.4858831912279129e-02 -5.7130855321884155e-01</leafValues></_>
        <_>
          <internalNodes>
            0 -1 230 -3.7563574733212590e-04</internalNodes>
          <leafValues>
            2.0612512528896332e-01 -1.1631397157907486e-01</leafValues></_>
        <_>
          <internalNodes>
            0 -1 526 -8.7978783994913101e-03</internalNodes>
          <leafValues>
            -1.1472491025924683e+00 3.0164277181029320e-02</leafValues></_>
        <_>
          <internalNodes>
            0 -1 927 3.1804273021407425e-05</internalNodes>
          <leafValues>
            -1.5840381383895874e-01 1.7105700075626373e-01</leafValues></_>
        <_>
          <internalNodes>
            0 -1 107 -3.1007123179733753e-03</internalNodes>
          <leafValues>
            5.4149729013442993e-01 -4.9721125513315201e-02</leafValues></_>
        <_>
          <internalNodes>
            0 -1 460 2.2420105524361134e-03</internalNodes>
          <leafValues>
            -6.7648217082023621e-02 3.5781359672546387e-01</leafValues></_>
        <_>
          <internalNodes>
            0 -1 4 -5.0804279744625092e-03</internalNodes>
          <leafValues>
            -2.9048591852188110e-01 8.1615835428237915e-02</leafValues></_>
        <_>
          <internalNodes>
            0 -1 114 7.8326306538656354e-04</internalNodes>
          <leafValues>
            1.0123967379331589e-01 -2.4094201624393463e-01</leafValues></_>
        <_>
          <internalNodes>
            0 -1 42 -1.0537759959697723e-01</internalNodes>
          <leafValues>
            3.5202178359031677e-01 -6.9105371832847595e-02</leafValues></_>
        <_>
          <internalNodes>
            0 -1 534 -1.6232665628194809e-02</internalNodes>
          <leafValues>
            1.5753595530986786e-01 -1.4208446443080902e-01</leafValues></_>
        <_>
          <internalNodes>
            0 -1 278 -3.4496333450078964e-02</internalNodes>
          <leafValues>
            2.0946311950683594e-01 -1.1023800820112228e-01</leafValues></_>
        <_>
          <internalNodes>
            0 -1 890 4.0830142796039581e-02</internalNodes>
          <leafValues>
            2.7408432215452194e-02 -9.5412033796310425e-01</leafValues></_>
        <_>
          <internalNodes>
            0 -1 151 2.1613180637359619e-01</internalNodes>
          <leafValues>
            -2.5757903233170509e-02 1.4629995822906494e+00</leafValues></_>
        <_>
          <internalNodes>
            0 -1 854 -3.0665531085105613e-05</internalNodes>
          <leafValues>
            1.6752785444259644e-01 -1.3611526787281036e-01</leafValues></_>
        <_>
          <internalNodes>
            0 -1 785 8.2851871848106384e-02</internalNodes>
          <leafValues>
            -3.2320693135261536e-02 8.1874483823776245e-01</leafValues></_>
        <_>
          <internalNodes>
            0 -1 428 -1.9714337587356567e-01</internalNodes>
          <leafValues>
            6.3749372959136963e-01 -4.0091637521982193e-02</leafValues></_>
        <_>
          <internalNodes>
            0 -1 448 -3.5858938645105809e-05</internalNodes>
          <leafValues>
            1.8412761390209198e-01 -1.3412106037139893e-01</leafValues></_>
        <_>
          <internalNodes>
            0 -1 623 -7.0175090804696083e-03</internalNodes>
          <leafValues>
            -5.2125418186187744e-01 4.7617368400096893e-02</leafValues></_>
        <_>
          <internalNodes>
            0 -1 757 -1.9051205366849899e-02</internalNodes>
          <leafValues>
            -7.5774049758911133e-01 3.5078480839729309e-02</leafValues></_>
        <_>
          <internalNodes>
            0 -1 203 -5.1468238234519958e-03</internalNodes>
          <leafValues>
            -3.9691561460494995e-01 5.9190154075622559e-02</leafValues></_>
        <_>
          <internalNodes>
            0 -1 199 1.9511918071657419e-03</internalNodes>
          <leafValues>
            -4.8465766012668610e-02 5.2118760347366333e-01</leafValues></_>
        <_>
          <internalNodes>
            0 -1 530 -1.2422443926334381e-01</internalNodes>
          <leafValues>
            3.3343589305877686e-01 -6.5760992467403412e-02</leafValues></_>
        <_>
          <internalNodes>
            0 -1 105 9.9098816514015198e-02</internalNodes>
          <leafValues>
            -7.3141336441040039e-02 3.4443569183349609e-01</leafValues></_>
        <_>
          <internalNodes>
            0 -1 676 -1.9589735195040703e-02</internalNodes>
          <leafValues>
            2.7962711453437805e-01 -8.8675253093242645e-02</leafValues></_></weakClassifiers></_>
    <!-- stage 8 -->
    <_>
      <maxWeakCount>83</maxWeakCount>
      <stageThreshold>-9.9014025926589966e-01</stageThreshold>
      <weakClassifiers>
        <_>
          <internalNodes>
            0 -1 69 -1.7718720436096191e-01</internalNodes>
          <leafValues>
            5.3725737333297729e-01 1.0575775802135468e-01</leafValues></_>
        <_>
          <internalNodes>
            0 -1 166 1.3595077395439148e-01</internalNodes>
          <leafValues>
            -9.8793141543865204e-02 3.9992210268974304e-01</leafValues></_>
        <_>
          <internalNodes>
            0 -1 883 -1.5976993381627835e-05</internalNodes>
          <leafValues>
            1.4922103285789490e-01 -2.2282880544662476e-01</leafValues></_>
        <_>
          <internalNodes>
            0 -1 369 2.9535174369812012e-02</internalNodes>
          <leafValues>
            -1.4225116372108459e-01 3.2660874724388123e-01</leafValues></_>
        <_>
          <internalNodes>
            0 -1 632 -3.3744210668373853e-05</internalNodes>
          <leafValues>
            1.4550961554050446e-01 -2.1156135201454163e-01</leafValues></_>
        <_>
          <internalNodes>
            0 -1 227 -1.7923843115568161e-02</internalNodes>
          <leafValues>
            3.4742620587348938e-01 -7.4233546853065491e-02</leafValues></_>
        <_>
          <internalNodes>
            0 -1 422 -5.3913951851427555e-03</internalNodes>
          <leafValues>
            2.6342499256134033e-01 -9.0328112244606018e-02</leafValues></_>
        <_>
          <internalNodes>
            0 -1 130 5.2476029843091965e-02</internalNodes>
          <leafValues>
            -6.9815106689929962e-02 5.1797676086425781e-01</leafValues></_>
        <_>
          <internalNodes>
            0 -1 246 7.7803857624530792e-02</internalNodes>
          <leafValues>
            -1.4576642215251923e-01 2.2494266927242279e-01</leafValues></_>
        <_>
          <internalNodes>
            0 -1 75 -2.6986934244632721e-02</internalNodes>
          <leafValues>
            1.6398882865905762e-01 -1.6742773354053497e-01</leafValues></_>
        <_>
          <internalNodes>
            0 -1 568 4.3459303677082062e-02</internalNodes>
          <leafValues>
            -7.5017139315605164e-02 3.4449851512908936e-01</leafValues></_>
        <_>
          <internalNodes>
            0 -1 176 -3.2846123212948442e-04</internalNodes>
          <leafValues>
            -2.7532655000686646e-01 1.0120509564876556e-01</leafValues></_>
        <_>
          <internalNodes>
            0 -1 540 8.2040620327461511e-05</internalNodes>
          <leafValues>
            1.3008248805999756e-01 -2.2140310704708099e-01</leafValues></_>
        <_>
          <internalNodes>
            0 -1 739 -4.4069094583392143e-03</internalNodes>
          <leafValues>
            -5.2358371019363403e-01 4.7834310680627823e-02</leafValues></_>
        <_>
          <internalNodes>
            0 -1 239 6.8693244829773903e-03</internalNodes>
          <leafValues>
            -5.9722840785980225e-02 4.1106516122817993e-01</leafValues></_>
        <_>
          <internalNodes>
            0 -1 357 -2.8213916346430779e-02</internalNodes>
          <leafValues>
            3.7236922979354858e-01 -7.0878624916076660e-02</leafValues></_>
        <_>
          <internalNodes>
            0 -1 269 1.7669331282377243e-02</internalNodes>
          <leafValues>
            -1.0844398289918900e-01 2.7064785361289978e-01</leafValues></_>
        <_>
          <internalNodes>
            0 -1 484 -3.3013937354553491e-05</internalNodes>
          <leafValues>
            1.3961742818355560e-01 -1.8565362691879272e-01</leafValues></_>
        <_>
          <internalNodes>
            0 -1 52 -3.0927956104278564e-02</internalNodes>
          <leafValues>
            2.8726220130920410e-01 -9.2766299843788147e-02</leafValues></_>
        <_>
          <internalNodes>
            0 -1 949 9.3090115115046501e-03</internalNodes>
          <leafValues>
            -1.1723662912845612e-01 2.0489096641540527e-01</leafValues></_>
        <_>
          <internalNodes>
            0 -1 562 1.0906541720032692e-03</internalNodes>
          <leafValues>
            8.1397682428359985e-02 -3.1024760007858276e-01</leafValues></_>
        <_>
          <internalNodes>
            0 -1 1 -1.3705049641430378e-03</internalNodes>
          <leafValues>
            -3.6939892172813416e-01 6.4184993505477905e-02</leafValues></_>
        <_>
          <internalNodes>
            0 -1 475 -1.3413447886705399e-03</internalNodes>
          <leafValues>
            1.8304212391376495e-01 -1.2324805557727814e-01</leafValues></_>
        <_>
          <internalNodes>
            0 -1 700 -6.1638788320124149e-03</internalNodes>
          <leafValues>
            -7.7491742372512817e-01 3.6472689360380173e-02</leafValues></_>
        <_>
          <internalNodes>
            0 -1 693 7.8588843345642090e-02</internalNodes>
          <leafValues>
            -6.5314590930938721e-02 3.6501204967498779e-01</leafValues></_>
        <_>
          <internalNodes>
            0 -1 724 -4.4615544378757477e-02</internalNodes>
          <leafValues>
            2.1456779539585114e-01 -1.2055613845586777e-01</leafValues></_>
        <_>
          <internalNodes>
            0 -1 832 7.2789704427123070e-03</internalNodes>
          <leafValues>
            -1.3703322410583496e-01 1.6299012303352356e-01</leafValues></_>
        <_>
          <internalNodes>
            0 -1 621 -8.9969664812088013e-02</internalNodes>
          <leafValues>
            9.2785608768463135e-01 -3.9289914071559906e-02</leafValues></_>
        <_>
          <internalNodes>
            0 -1 347 2.1649509668350220e-02</internalNodes>
          <leafValues>
            4.2083315551280975e-02 -6.5090662240982056e-01</leafValues></_>
        <_>
          <internalNodes>
            0 -1 753 -2.5908948853611946e-02</internalNodes>
          <leafValues>
            3.9292803406715393e-01 -5.9847962111234665e-02</leafValues></_>
        <_>
          <internalNodes>
            0 -1 752 4.4678980484604836e-03</internalNodes>
          <leafValues>
            -1.1061183363199234e-01 2.2652631998062134e-01</leafValues></_>
        <_>
          <internalNodes>
            0 -1 268 2.1917669102549553e-02</internalNodes>
          <leafValues>
            -1.4887972176074982e-01 1.5910062193870544e-01</leafValues></_>
        <_>
          <internalNodes>
            0 -1 440 -2.9667646231246181e-05</internalNodes>
          <leafValues>
            1.2539468705654144e-01 -1.9495232403278351e-01</leafValues></_>
        <_>
          <internalNodes>
            0 -1 911 2.6918807998299599e-02</internalNodes>
          <leafValues>
            -1.0413761436939240e-01 2.3848660290241241e-01</leafValues></_>
        <_>
          <internalNodes>
            0 -1 411 8.5660360753536224e-02</internalNodes>
          <leafValues>
            -3.1840585172176361e-02 8.5286641120910645e-01</leafValues></_>
        <_>
          <internalNodes>
            0 -1 567 -3.4655611962080002e-03</internalNodes>
          <leafValues>
            1.8221449851989746e-01 -1.2325688451528549e-01</leafValues></_>
        <_>
          <internalNodes>
            0 -1 394 1.0916452109813690e-01</internalNodes>
          <leafValues>
            -3.3158201724290848e-02 7.1911376714706421e-01</leafValues></_>
        <_>
          <internalNodes>
            0 -1 372 -4.8706936649978161e-03</internalNodes>
          <leafValues>
            1.8589478731155396e-01 -1.2608903646469116e-01</leafValues></_>
        <_>
          <internalNodes>
            0 -1 465 -1.1347474530339241e-02</internalNodes>
          <leafValues>
            -4.0543469786643982e-01 5.5250715464353561e-02</leafValues></_>
        <_>
          <internalNodes>
            0 -1 162 -6.1115510761737823e-02</internalNodes>
          <leafValues>
            1.7596459388732910e-01 -1.3069929182529449e-01</leafValues></_>
        <_>
          <internalNodes>
            0 -1 93 1.2149836868047714e-02</internalNodes>
          <leafValues>
            -6.6346675157546997e-02 3.5842728614807129e-01</leafValues></_>
        <_>
          <internalNodes>
            0 -1 914 -6.9049978628754616e-03</internalNodes>
          <leafValues>
            2.9842695593833923e-01 -8.0126546323299408e-02</leafValues></_>
        <_>
          <internalNodes>
            0 -1 417 7.8795580193400383e-03</internalNodes>
          <leafValues>
            7.1420542895793915e-02 -3.1638848781585693e-01</leafValues></_>
        <_>
          <internalNodes>
            0 -1 685 -2.7026101015508175e-03</internalNodes>
          <leafValues>
            1.7805689573287964e-01 -1.2080909311771393e-01</leafValues></_>
        <_>
          <internalNodes>
            0 -1 248 1.5298146009445190e-01</internalNodes>
          <leafValues>
            -2.7196571230888367e-02 8.9485549926757813e-01</leafValues></_>
        <_>
          <internalNodes>
            0 -1 525 -1.0175859928131104e-01</internalNodes>
          <leafValues>
            2.0512093603610992e-01 -1.1474221944808960e-01</leafValues></_>
        <_>
          <internalNodes>
            0 -1 225 -1.0243710130453110e-02</internalNodes>
          <leafValues>
            2.4452838301658630e-01 -8.0809280276298523e-02</leafValues></_>
        <_>
          <internalNodes>
            0 -1 499 7.1418602019548416e-03</internalNodes>
          <leafValues>
            2.7181185781955719e-02 -8.5757571458816528e-01</leafValues></_>
        <_>
          <internalNodes>
            0 -1 761 -8.8483151048421860e-03</internalNodes>
          <leafValues>
            -7.2379571199417114e-01 3.1908232718706131e-02</leafValues></_>
        <_>
          <internalNodes>
            0 -1 689 -5.9843957424163818e-03</internalNodes>
          <leafValues>
            -9.3301391601562500e-01 2.7254382148385048e-02</leafValues></_>
        <_>
          <internalNodes>
            0 -1 595 2.3199573624879122e-03</internalNodes>
          <leafValues>
            4.1939493268728256e-02 -5.3637456893920898e-01</leafValues></_>
        <_>
          <internalNodes>
            0 -1 746 4.1341036558151245e-03</internalNodes>
          <leafValues>
            -9.6482709050178528e-02 2.1951687335968018e-01</leafValues></_>
        <_>
          <internalNodes>
            0 -1 390 1.2293619511183351e-04</internalNodes>
          <leafValues>
            1.1495851725339890e-01 -1.8630076944828033e-01</leafValues></_>
        <_>
          <internalNodes>
            0 -1 478 1.5811121091246605e-02</internalNodes>
          <leafValues>
            -7.2772867977619171e-02 2.8245830535888672e-01</leafValues></_>
        <_>
          <internalNodes>
            0 -1 286 3.5838944313582033e-05</internalNodes>
          <leafValues>
            -1.2360892444849014e-01 1.6179656982421875e-01</leafValues></_>
        <_>
          <internalNodes>
            0 -1 558 2.4641920626163483e-01</internalNodes>
          <leafValues>
            3.0816907063126564e-02 -8.6797207593917847e-01</leafValues></_>
        <_>
          <internalNodes>
            0 -1 823 1.9898187369108200e-02</internalNodes>
          <leafValues>
            -8.9974023401737213e-02 2.1186453104019165e-01</leafValues></_>
        <_>
          <internalNodes>
            0 -1 655 -3.7602698430418968e-03</internalNodes>
          <leafValues>
            2.1938563883304596e-01 -1.0724147409200668e-01</leafValues></_>
        <_>
          <internalNodes>
            0 -1 265 3.6089634522795677e-04</internalNodes>
          <leafValues>
            1.1427679657936096e-01 -1.7478963732719421e-01</leafValues></_>
        <_>
          <internalNodes>
            0 -1 606 -5.1401495933532715e-02</internalNodes>
          <leafValues>
            2.0522710680961609e-01 -9.3648701906204224e-02</leafValues></_>
        <_>
          <internalNodes>
            0 -1 947 -2.5225743651390076e-02</internalNodes>
          <leafValues>
            -1.6730651855468750e+00 2.1154044196009636e-02</leafValues></_>
        <_>
          <internalNodes>
            0 -1 812 1.2049267068505287e-02</internalNodes>
          <leafValues>
            3.7849579006433487e-02 -7.6543205976486206e-01</leafValues></_>
        <_>
          <internalNodes>
            0 -1 906 3.1528633553534746e-04</internalNodes>
          <leafValues>
            1.2998460233211517e-01 -1.6549229621887207e-01</leafValues></_>
        <_>
          <internalNodes>
            0 -1 931 6.9894436746835709e-03</internalNodes>
          <leafValues>
            -7.8512929379940033e-02 2.7136826515197754e-01</leafValues></_>
        <_>
          <internalNodes>
            0 -1 910 -1.1327724903821945e-02</internalNodes>
          <leafValues>
            2.3035615682601929e-01 -9.1389596462249756e-02</leafValues></_>
        <_>
          <internalNodes>
            0 -1 775 -3.2528962037758902e-05</internalNodes>
          <leafValues>
            1.3435509800910950e-01 -1.5585428476333618e-01</leafValues></_>
        <_>
          <internalNodes>
            0 -1 767 2.7112471871078014e-03</internalNodes>
          <leafValues>
            -9.6386231482028961e-02 2.6200479269027710e-01</leafValues></_>
        <_>
          <internalNodes>
            0 -1 564 3.2486665993928909e-02</internalNodes>
          <leafValues>
            4.0556073188781738e-02 -7.0878267288208008e-01</leafValues></_>
        <_>
          <internalNodes>
            0 -1 727 2.3428580607287586e-04</internalNodes>
          <leafValues>
            -1.7583207786083221e-01 1.2785853445529938e-01</leafValues></_>
        <_>
          <internalNodes>
            0 -1 811 2.0764838904142380e-02</internalNodes>
          <leafValues>
            -1.8044199049472809e-01 1.2411011755466461e-01</leafValues></_>
        <_>
          <internalNodes>
            0 -1 973 -1.0123815387487411e-02</internalNodes>
          <leafValues>
            -7.1943992376327515e-01 4.0933907032012939e-02</leafValues></_>
        <_>
          <internalNodes>
            0 -1 588 9.6971772611141205e-02</internalNodes>
          <leafValues>
            -3.6458823829889297e-02 6.1472082138061523e-01</leafValues></_>
        <_>
          <internalNodes>
            0 -1 333 -1.2574857100844383e-03</internalNodes>
          <leafValues>
            1.3553836941719055e-01 -1.4965735375881195e-01</leafValues></_>
        <_>
          <internalNodes>
            0 -1 376 3.2637545373290777e-03</internalNodes>
          <leafValues>
            -5.3105853497982025e-02 4.9644482135772705e-01</leafValues></_>
        <_>
          <internalNodes>
            0 -1 181 1.5130193531513214e-01</internalNodes>
          <leafValues>
            -4.0977504104375839e-02 6.0043108463287354e-01</leafValues></_>
        <_>
          <internalNodes>
            0 -1 331 -5.2283843979239464e-03</internalNodes>
          <leafValues>
            2.2414860129356384e-01 -9.5180906355381012e-02</leafValues></_>
        <_>
          <internalNodes>
            0 -1 405 -1.1116268113255501e-02</internalNodes>
          <leafValues>
            -6.4225041866302490e-01 4.4305864721536636e-02</leafValues></_>
        <_>
          <internalNodes>
            0 -1 843 -8.7904836982488632e-03</internalNodes>
          <leafValues>
            -9.2295074462890625e-01 2.7785016223788261e-02</leafValues></_>
        <_>
          <internalNodes>
            0 -1 165 2.8902715072035789e-02</internalNodes>
          <leafValues>
            -3.8586463779211044e-02 5.6557756662368774e-01</leafValues></_>
        <_>
          <internalNodes>
            0 -1 789 -3.7580968346446753e-03</internalNodes>
          <leafValues>
            -4.2571100592613220e-01 4.8530358821153641e-02</leafValues></_>
        <_>
          <internalNodes>
            0 -1 609 3.5174140066374093e-05</internalNodes>
          <leafValues>
            -1.2834641337394714e-01 1.6117914021015167e-01</leafValues></_>
        <_>
          <internalNodes>
            0 -1 828 -2.1239686757326126e-03</internalNodes>
          <leafValues>
            -3.6677283048629761e-01 6.2475241720676422e-02</leafValues></_>
        <_>
          <internalNodes>
            0 -1 58 -2.4853387731127441e-04</internalNodes>
          <leafValues>
            -2.0888490974903107e-01 9.7480632364749908e-02</leafValues></_></weakClassifiers></_>
    <!-- stage 9 -->
    <_>
      <maxWeakCount>96</maxWeakCount>
      <stageThreshold>-1.0963555574417114e+00</stageThreshold>
      <weakClassifiers>
        <_>
          <internalNodes>
            0 -1 90 9.1331511735916138e-02</internalNodes>
          <leafValues>
            8.5033066570758820e-02 4.5563337206840515e-01</leafValues></_>
        <_>
          <internalNodes>
            0 -1 605 1.6419176012277603e-02</internalNodes>
          <leafValues>
            -1.3198390603065491e-01 2.1647287905216217e-01</leafValues></_>
        <_>
          <internalNodes>
            0 -1 745 -7.0342752151191235e-03</internalNodes>
          <leafValues>
            -2.7913665771484375e-01 9.5577329397201538e-02</leafValues></_>
        <_>
          <internalNodes>
            0 -1 24 -4.0983811020851135e-02</internalNodes>
          <leafValues>
            2.5409412384033203e-01 -9.7326472401618958e-02</leafValues></_>
        <_>
          <internalNodes>
            0 -1 204 3.1947489827871323e-02</internalNodes>
          <leafValues>
            4.7340255230665207e-02 -4.1742068529129028e-01</leafValues></_>
        <_>
          <internalNodes>
            0 -1 29 2.0217854529619217e-02</internalNodes>
          <leafValues>
            -1.1421696841716766e-01 3.2672607898712158e-01</leafValues></_>
        <_>
          <internalNodes>
            0 -1 576 -3.5280922020319849e-05</internalNodes>
          <leafValues>
